%YAML:1.0
---
opencv_ml_svm:
   format: 3
   svmType: C_SVC
   kernel:
      type: RBF
      gamma: 5.0624999999999998e-01
   C: 1.2500000000000000e+01
   term_criteria: { epsilon:1.1920928955078125e-07, iterations:1000 }
   var_count: 324
   class_count: 12
   class_labels: !!opencv-matrix
      rows: 12
      cols: 1
      dt: i
      data: [ 0, 1, 2, 3, 4, 5, 6, 7, 8, 9, 10, 11 ]
   sv_total: 575
   support_vectors:
      - [ 2.43686557e-01, 5.96877113e-02, 1.99868575e-01, 3.00493032e-01,
          4.00701284e-01, 4.00701284e-01, 4.00701284e-01, 4.00701284e-01,
          4.00701284e-01, 3.98439974e-01, 8.02103952e-02, 1.48224205e-01,
          3.98439974e-01, 3.98439974e-01, 3.98439974e-01, 1.52879447e-01,
          3.87906015e-01, 3.98439974e-01, 4.00897741e-01, 2.41955027e-01,
          1.84389994e-01, 4.00897741e-01, 4.00897741e-01, 3.89874846e-01,
          2.26934195e-01, 2.38904834e-01, 4.00897741e-01, 3.49891037e-01,
          8.05454925e-02, 3.58053565e-01, 3.58053565e-01, 3.58053565e-01,
          3.13523740e-01, 3.58053565e-01, 3.58053565e-01, 3.58053565e-01,
          4.37686265e-01, 1.18393637e-01, 3.55903298e-01, 1.37885198e-01,
          4.37686265e-01, 4.37686265e-01, 1.64201349e-01, 2.06621006e-01,
          4.37686265e-01, 4.91900355e-01, 4.69600260e-02, 2.82211113e-03,
          3.63663226e-01, 4.91900355e-01, 3.64293605e-01, 2.18685400e-02,
          3.92032191e-02, 4.91900355e-01, 3.70626211e-01, 1.33505240e-01,
          1.30103812e-01, 3.70626211e-01, 3.70626211e-01, 3.70626211e-01,
          3.70626211e-01, 3.70626211e-01, 3.70626211e-01, 4.71554846e-01,
          8.09443668e-02, 5.37396818e-02, 3.92447650e-01, 4.71554846e-01,
          3.79734993e-01, 3.01009454e-02, 1.40136302e-01, 4.71554846e-01,
          5.25524199e-01, 5.77125922e-02, 1.88057672e-03, 2.06352413e-01,
          5.25524199e-01, 3.28718334e-01, 3.04873809e-02, 1.06413744e-01,
          5.25524199e-01, 3.70626211e-01, 1.33505240e-01, 1.30103812e-01,
          3.70626211e-01, 3.70626211e-01, 3.70626211e-01, 3.70626211e-01,
          3.70626211e-01, 3.70626211e-01, 4.71554846e-01, 8.09443668e-02,
          5.37396818e-02, 3.92447650e-01, 4.71554846e-01, 3.79734993e-01,
          3.01009454e-02, 1.40136302e-01, 4.71554846e-01, 5.25524199e-01,
          5.77125922e-02, 1.88057672e-03, 2.06352413e-01, 5.25524199e-01,
          3.28718334e-01, 3.04873809e-02, 1.06413744e-01, 5.25524199e-01,
          3.56440425e-01, 2.56450802e-01, 2.03281343e-01, 3.56440425e-01,
          3.56440425e-01, 3.56440425e-01, 3.56440425e-01, 3.56440425e-01,
          3.56440425e-01, 3.40669453e-01, 1.01521224e-01, 3.52565140e-01,
          3.52565140e-01, 3.52565140e-01, 3.52565140e-01, 3.52565140e-01,
          3.52565140e-01, 3.52565140e-01, 3.97431761e-01, 1.46129772e-01,
          1.30799264e-01, 3.97431761e-01, 3.97431761e-01, 3.97431761e-01,
          9.92744491e-02, 3.97431761e-01, 3.97431761e-01, 2.77677119e-01,
          1.04023129e-01, 2.91060358e-01, 3.82284999e-01, 3.72836113e-01,
          3.16172719e-01, 3.82284999e-01, 3.82284999e-01, 3.82284999e-01,
          3.65480274e-01, 3.35213214e-01, 1.67110816e-01, 2.88118541e-01,
          3.65480274e-01, 3.65480274e-01, 3.24288875e-01, 3.65480274e-01,
          3.65480274e-01, 3.70985538e-01, 3.70985538e-01, 1.39520526e-01,
          3.60032320e-01, 3.70985538e-01, 3.70985538e-01, 1.46364942e-01,
          3.70985538e-01, 3.70985538e-01, 4.00897741e-01, 2.41955027e-01,
          1.84389994e-01, 4.00897741e-01, 4.00897741e-01, 3.89874846e-01,
          2.26934195e-01, 2.38904834e-01, 4.00897741e-01, 3.34238857e-01,
          3.20835590e-01, 3.34238857e-01, 3.34238857e-01, 3.34238857e-01,
          3.34238857e-01, 3.34238857e-01, 3.34238857e-01, 3.34238857e-01,
          4.26255316e-01, 4.26255316e-01, 4.26255316e-01, 4.26255316e-01,
          1.18578181e-01, 1.06446609e-01, 2.12687775e-01, 3.31469089e-01,
          2.97435820e-01, 4.91900355e-01, 4.69600260e-02, 2.82211113e-03,
          3.63663226e-01, 4.91900355e-01, 3.64293605e-01, 2.18685400e-02,
          3.92032191e-02, 4.91900355e-01, 4.13532943e-01, 4.13532943e-01,
          3.20419222e-01, 4.13532943e-01, 4.13532943e-01, 1.89678743e-01,
          2.02638581e-02, 4.20060977e-02, 4.13532943e-01, 3.58215779e-01,
          4.00550753e-01, 4.00550753e-01, 3.88889641e-01, 2.01443329e-01,
          8.87120962e-02, 4.00550753e-01, 3.97639960e-01, 1.68982983e-01,
          5.25524199e-01, 5.77125922e-02, 1.88057672e-03, 2.06352413e-01,
          5.25524199e-01, 3.28718334e-01, 3.04873809e-02, 1.06413744e-01,
          5.25524199e-01, 4.18068260e-01, 3.83905411e-01, 3.02019536e-01,
          4.18068260e-01, 4.18068260e-01, 2.27170810e-01, 3.11327539e-02,
          7.43260160e-02, 4.18068260e-01, 3.08304012e-01, 3.97426873e-01,
          3.97426873e-01, 3.97426873e-01, 3.97426873e-01, 8.80251229e-02,
          3.97426873e-01, 2.64387369e-01, 1.83271632e-01, 5.25524199e-01,
          5.77125922e-02, 1.88057672e-03, 2.06352413e-01, 5.25524199e-01,
          3.28718334e-01, 3.04873809e-02, 1.06413744e-01, 5.25524199e-01,
          4.18068260e-01, 3.83905411e-01, 3.02019536e-01, 4.18068260e-01,
          4.18068260e-01, 2.27170810e-01, 3.11327539e-02, 7.43260160e-02,
          4.18068260e-01, 3.08304012e-01, 3.97426873e-01, 3.97426873e-01,
          3.97426873e-01, 3.97426873e-01, 8.80251229e-02, 3.97426873e-01,
          2.64387369e-01, 1.83271632e-01, 3.97431761e-01, 1.46129772e-01,
          1.30799264e-01, 3.97431761e-01, 3.97431761e-01, 3.97431761e-01,
          9.92744491e-02, 3.97431761e-01, 3.97431761e-01, 3.53998959e-01,
          3.53998959e-01, 3.53998959e-01, 3.53998959e-01, 3.53998959e-01,
          3.53998959e-01, 1.68349102e-01, 3.01520824e-01, 3.53998959e-01,
          2.24574506e-01, 4.77142304e-01, 4.77142304e-01, 4.46658969e-01,
          8.93445536e-02, 1.92505002e-01, 3.72656822e-01, 2.73905635e-01,
          1.76149651e-01, 3.70985538e-01, 3.70985538e-01, 1.39520526e-01,
          3.60032320e-01, 3.70985538e-01, 3.70985538e-01, 1.46364942e-01,
          3.70985538e-01, 3.70985538e-01, 4.12501067e-01, 4.12501067e-01,
          2.31375083e-01, 1.62657335e-01, 4.12501067e-01, 4.12501067e-01,
          1.04376800e-01, 2.32824847e-01, 4.12501067e-01, 4.22525883e-01,
          4.22525883e-01, 4.22525883e-01, 1.03845030e-01, 4.22525883e-01,
          4.22525883e-01, 2.35912427e-01, 6.52342588e-02, 1.80123881e-01 ]
      - [ 1.26047373e-01, 2.74734318e-01, 2.85013933e-02, 1.16766272e-02,
          1.06024861e-01, 5.80628276e-01, 5.80628276e-01, 1.83492735e-01,
          4.27454650e-01, 3.41815650e-01, 1.18493550e-01, 5.73960952e-02,
          9.73460749e-02, 3.41238081e-01, 4.28842515e-01, 4.28842515e-01,
          4.28842515e-01, 4.28842515e-01, 3.93052965e-01, 2.31540307e-01,
          1.77707195e-01, 3.39960098e-01, 3.93052965e-01, 3.40645790e-01,
          3.25800866e-01, 3.31137568e-01, 3.93052965e-01, 1.55348524e-01,
          1.98255688e-01, 2.13862602e-02, 1.23690823e-02, 7.64467344e-02,
          6.48474038e-01, 6.48474038e-01, 2.59142548e-01, 1.24261349e-01,
          3.45041603e-01, 2.35744134e-01, 3.18743102e-02, 3.95024233e-02,
          2.04701066e-01, 4.34420437e-01, 4.42624629e-01, 4.42624629e-01,
          4.42624629e-01, 2.30706990e-01, 3.75817776e-01, 9.50217247e-02,
          7.50589073e-02, 3.96256208e-01, 3.96827757e-01, 3.96827757e-01,
          3.96827757e-01, 3.96827757e-01, 2.25634456e-01, 2.01004118e-01,
          2.30238438e-01, 1.87527150e-01, 3.58409554e-01, 4.04232144e-01,
          4.71246481e-01, 4.71246481e-01, 2.82481581e-01, 2.26318076e-01,
          1.46059066e-01, 2.14282960e-01, 1.20101273e-01, 3.07330608e-01,
          4.50651884e-01, 4.50651884e-01, 4.50651884e-01, 3.98610771e-01,
          2.89278895e-01, 1.80628330e-01, 1.39217913e-01, 4.04254235e-02,
          3.81248593e-01, 3.02664518e-01, 4.55036163e-01, 4.55036163e-01,
          4.55036163e-01, 2.25634456e-01, 2.01004118e-01, 2.30238438e-01,
          1.87527150e-01, 3.58409554e-01, 4.04232144e-01, 4.71246481e-01,
          4.71246481e-01, 2.82481581e-01, 2.26318076e-01, 1.46059066e-01,
          2.14282960e-01, 1.20101273e-01, 3.07330608e-01, 4.50651884e-01,
          4.50651884e-01, 4.50651884e-01, 3.98610771e-01, 2.89278895e-01,
          1.80628330e-01, 1.39217913e-01, 4.04254235e-02, 3.81248593e-01,
          3.02664518e-01, 4.55036163e-01, 4.55036163e-01, 4.55036163e-01,
          1.58771917e-01, 1.09053366e-01, 1.00738004e-01, 4.23791967e-02,
          2.39134669e-01, 3.84098560e-01, 5.63043714e-01, 5.63043714e-01,
          3.26463938e-01, 3.80206913e-01, 3.80206913e-01, 1.53625578e-01,
          8.45244825e-02, 3.13229084e-01, 3.80206913e-01, 3.80206913e-01,
          3.80206913e-01, 3.80206913e-01, 4.02902663e-01, 3.60246807e-01,
          4.90905978e-02, 1.23555688e-02, 2.27995425e-01, 4.02902663e-01,
          4.02902663e-01, 4.02902663e-01, 4.02902663e-01, 5.07920384e-02,
          1.12237660e-02, 9.90292281e-02, 2.45078146e-01, 8.39402080e-02,
          8.79964512e-03, 2.24808186e-01, 6.56963885e-01, 6.56963885e-01,
          3.83300960e-01, 8.44549239e-02, 2.02708513e-01, 3.28042239e-01,
          1.34382173e-01, 8.35864693e-02, 2.19041601e-01, 5.56177437e-01,
          5.56177437e-01, 4.36161608e-01, 2.64765263e-01, 1.10728659e-01,
          1.12138897e-01, 6.74081743e-02, 4.47343111e-01, 4.47343111e-01,
          3.24756205e-01, 4.47343111e-01, 3.93052965e-01, 2.31540307e-01,
          1.77707195e-01, 3.39960098e-01, 3.93052965e-01, 3.40645790e-01,
          3.25800866e-01, 3.31137568e-01, 3.93052965e-01, 1.00690924e-01,
          1.03443466e-01, 3.33242267e-01, 5.80490470e-01, 5.80490470e-01,
          1.39904812e-01, 1.90780357e-01, 2.88261354e-01, 2.22059757e-01,
          6.89845085e-02, 2.86697261e-02, 6.19608998e-01, 6.19608998e-01,
          4.40115780e-01, 9.56725143e-03, 2.50773914e-02, 5.23262508e-02,
          1.52452573e-01, 2.30706990e-01, 3.75817776e-01, 9.50217247e-02,
          7.50589073e-02, 3.96256208e-01, 3.96827757e-01, 3.96827757e-01,
          3.96827757e-01, 3.96827757e-01, 3.51790726e-01, 4.13836330e-01,
          3.06445569e-01, 1.43265784e-01, 1.43127650e-01, 3.86129886e-01,
          4.13836330e-01, 4.13836330e-01, 2.72602201e-01, 2.01428920e-01,
          1.90759167e-01, 6.38290405e-01, 6.38290405e-01, 9.58831236e-02,
          1.95297729e-02, 2.12785900e-01, 2.04129174e-01, 7.28960931e-02,
          2.89278895e-01, 1.80628330e-01, 1.39217913e-01, 4.04254235e-02,
          3.81248593e-01, 3.02664518e-01, 4.55036163e-01, 4.55036163e-01,
          4.55036163e-01, 2.77335405e-01, 2.11972132e-01, 3.17633271e-01,
          7.09967613e-02, 4.23965275e-01, 2.21359521e-01, 4.23965275e-01,
          4.23965275e-01, 4.23965275e-01, 3.81333590e-01, 1.15855977e-01,
          3.81333590e-01, 3.81333590e-01, 3.66247296e-01, 3.12922746e-01,
          3.32280785e-01, 3.43851209e-01, 2.92950034e-01, 2.89278895e-01,
          1.80628330e-01, 1.39217913e-01, 4.04254235e-02, 3.81248593e-01,
          3.02664518e-01, 4.55036163e-01, 4.55036163e-01, 4.55036163e-01,
          2.77335405e-01, 2.11972132e-01, 3.17633271e-01, 7.09967613e-02,
          4.23965275e-01, 2.21359521e-01, 4.23965275e-01, 4.23965275e-01,
          4.23965275e-01, 3.81333590e-01, 1.15855977e-01, 3.81333590e-01,
          3.81333590e-01, 3.66247296e-01, 3.12922746e-01, 3.32280785e-01,
          3.43851209e-01, 2.92950034e-01, 4.02902663e-01, 3.60246807e-01,
          4.90905978e-02, 1.23555688e-02, 2.27995425e-01, 4.02902663e-01,
          4.02902663e-01, 4.02902663e-01, 4.02902663e-01, 3.11063439e-01,
          2.28065431e-01, 9.81056765e-02, 3.55677791e-02, 4.08962220e-01,
          4.08962220e-01, 4.08962220e-01, 4.08962220e-01, 4.08962220e-01,
          4.29207742e-01, 4.36656862e-01, 4.36656862e-01, 1.65684864e-01,
          1.80314407e-01, 2.78657734e-01, 2.02717185e-01, 2.46378273e-01,
          4.36656862e-01, 4.36161608e-01, 2.64765263e-01, 1.10728659e-01,
          1.12138897e-01, 6.74081743e-02, 4.47343111e-01, 4.47343111e-01,
          3.24756205e-01, 4.47343111e-01, 4.20282096e-01, 4.20282096e-01,
          1.64255723e-01, 6.72738701e-02, 5.25680929e-02, 2.99887359e-01,
          4.20282096e-01, 4.06265855e-01, 4.20282096e-01, 6.86837554e-01,
          6.86837554e-01, 7.77651817e-02, 1.53093913e-03, 1.36561608e-02,
          1.15460955e-01, 5.65293431e-02, 6.80621266e-02, 1.49185181e-01 ]
      - [ 4.28796262e-02, 3.08110207e-01, 4.74002838e-01, 4.40030456e-01,
          8.76740143e-02, 1.43090487e-01, 4.74002838e-01, 4.74002838e-01,
          5.16782701e-02, 1.90811753e-01, 1.99379265e-01, 3.96154553e-01,
          1.63716495e-01, 2.23185401e-02, 2.80238092e-02, 4.94595438e-01,
          4.94595438e-01, 4.94595438e-01, 2.04403549e-01, 4.00923759e-01,
          4.11550730e-01, 3.83851588e-01, 4.82548699e-02, 1.01422191e-01,
          3.53961885e-01, 4.11550730e-01, 4.11550730e-01, 2.50847846e-01,
          1.00682467e-01, 3.95173281e-01, 3.95173281e-01, 3.95173281e-01,
          3.57931674e-01, 3.80746633e-01, 3.95173281e-01, 1.58933252e-01,
          4.13967818e-02, 7.31058717e-02, 4.40698445e-01, 4.40698445e-01,
          3.89961749e-01, 3.33557516e-01, 4.40698445e-01, 3.77116054e-01,
          1.86321158e-02, 2.96849646e-02, 3.42548899e-02, 4.32509005e-01,
          4.32509005e-01, 4.32509005e-01, 4.32509005e-01, 4.32509005e-01,
          2.31861964e-01, 6.74152374e-02, 2.99799562e-01, 1.95702240e-01,
          3.71522695e-01, 3.71522695e-01, 3.71522695e-01, 1.99836060e-01,
          3.71522695e-01, 3.71522695e-01, 3.71522695e-01, 2.40036454e-02,
          5.04687913e-02, 1.53832585e-01, 4.86096233e-01, 4.86096233e-01,
          8.39063153e-02, 2.34867558e-01, 4.86096233e-01, 4.44168568e-01,
          6.22297525e-02, 5.08342171e-03, 2.30802536e-01, 5.67748547e-01,
          5.67748547e-01, 6.90081194e-02, 2.23600209e-01, 2.93635845e-01,
          3.89235705e-01, 2.99799562e-01, 1.95702240e-01, 3.71522695e-01,
          3.71522695e-01, 3.71522695e-01, 1.99836060e-01, 3.71522695e-01,
          3.71522695e-01, 3.71522695e-01, 2.40036454e-02, 5.04687913e-02,
          1.53832585e-01, 4.86096233e-01, 4.86096233e-01, 8.39063153e-02,
          2.34867558e-01, 4.86096233e-01, 4.44168568e-01, 6.22297525e-02,
          5.08342171e-03, 2.30802536e-01, 5.67748547e-01, 5.67748547e-01,
          6.90081194e-02, 2.23600209e-01, 2.93635845e-01, 3.89235705e-01,
          3.01025361e-01, 3.61477345e-01, 3.61477345e-01, 3.21312249e-01,
          3.61477345e-01, 3.46468627e-01, 3.61477345e-01, 3.61477345e-01,
          1.70765549e-01, 2.79390991e-01, 2.67665774e-01, 4.09251839e-01,
          4.09251839e-01, 3.51953685e-01, 6.17289096e-02, 2.20402479e-01,
          4.09251839e-01, 4.09251839e-01, 9.74632576e-02, 2.43694149e-02,
          1.87872633e-01, 5.29501855e-01, 3.14635664e-01, 1.37170050e-02,
          9.49873254e-02, 5.29501855e-01, 5.29501855e-01, 4.10646975e-01,
          4.10646975e-01, 3.25012356e-01, 2.14866940e-02, 5.78970909e-02,
          2.08077520e-01, 4.10646975e-01, 4.10646975e-01, 4.10646975e-01,
          3.19521338e-01, 3.65776986e-01, 3.65776986e-01, 3.65776986e-01,
          3.65776986e-01, 3.00064832e-01, 3.65776986e-01, 3.51050377e-01,
          1.09600291e-01, 1.17640115e-01, 2.71166623e-01, 4.04115051e-01,
          4.04115051e-01, 3.36837858e-01, 1.68014750e-01, 4.04115051e-01,
          4.04115051e-01, 3.37146491e-01, 2.04403549e-01, 4.00923759e-01,
          4.11550730e-01, 3.83851588e-01, 4.82548699e-02, 1.01422191e-01,
          3.53961885e-01, 4.11550730e-01, 4.11550730e-01, 2.53692400e-02,
          1.40622616e-01, 5.13241172e-01, 3.68092984e-01, 1.53584868e-01,
          1.17689468e-01, 5.13241172e-01, 5.13241172e-01, 1.06183715e-01,
          1.56005204e-01, 4.30095971e-01, 4.30095971e-01, 4.30095971e-01,
          1.26831695e-01, 6.17940836e-02, 4.30095971e-01, 4.30095971e-01,
          1.62937582e-01, 2.96849646e-02, 3.42548899e-02, 4.32509005e-01,
          4.32509005e-01, 4.32509005e-01, 4.32509005e-01, 4.32509005e-01,
          2.31861964e-01, 6.74152374e-02, 2.59984024e-02, 9.09811258e-02,
          3.95139843e-01, 4.44481611e-01, 4.28942472e-01, 2.15600535e-01,
          4.44481611e-01, 4.44481611e-01, 8.54641944e-02, 2.86868680e-02,
          4.64511216e-01, 4.64511216e-01, 2.86830604e-01, 1.25023857e-01,
          1.47710487e-01, 4.64511216e-01, 4.64511216e-01, 1.08321175e-01,
          6.22297525e-02, 5.08342171e-03, 2.30802536e-01, 5.67748547e-01,
          5.67748547e-01, 6.90081194e-02, 2.23600209e-01, 2.93635845e-01,
          3.89235705e-01, 1.06686056e-01, 4.28504318e-01, 4.28504318e-01,
          4.28504318e-01, 3.31476212e-01, 6.89095557e-02, 1.78061932e-01,
          4.28504318e-01, 3.21780592e-01, 1.22684492e-02, 1.40623048e-01,
          2.92678535e-01, 3.68492901e-01, 1.22425355e-01, 1.00737222e-01,
          4.66476411e-01, 6.22438610e-01, 3.49637419e-01, 6.22297525e-02,
          5.08342171e-03, 2.30802536e-01, 5.67748547e-01, 5.67748547e-01,
          6.90081194e-02, 2.23600209e-01, 2.93635845e-01, 3.89235705e-01,
          1.06686056e-01, 4.28504318e-01, 4.28504318e-01, 4.28504318e-01,
          3.31476212e-01, 6.89095557e-02, 1.78061932e-01, 4.28504318e-01,
          3.21780592e-01, 1.22684492e-02, 1.40623048e-01, 2.92678535e-01,
          3.68492901e-01, 1.22425355e-01, 1.00737222e-01, 4.66476411e-01,
          6.22438610e-01, 3.49637419e-01, 9.74632576e-02, 2.43694149e-02,
          1.87872633e-01, 5.29501855e-01, 3.14635664e-01, 1.37170050e-02,
          9.49873254e-02, 5.29501855e-01, 5.29501855e-01, 4.98438301e-03,
          4.36561406e-02, 2.45422497e-01, 5.43083489e-01, 4.16519225e-01,
          1.05973054e-02, 2.29600016e-02, 5.04712522e-01, 4.56740052e-01,
          1.25590106e-02, 4.63207588e-02, 2.82653570e-01, 4.96602297e-01,
          3.21815252e-01, 1.59487382e-01, 4.96602297e-01, 4.96602297e-01,
          2.09763944e-01, 1.17640115e-01, 2.71166623e-01, 4.04115051e-01,
          4.04115051e-01, 3.36837858e-01, 1.68014750e-01, 4.04115051e-01,
          4.04115051e-01, 3.37146491e-01, 9.25923064e-02, 8.04543570e-02,
          2.68102735e-01, 4.62021410e-01, 2.30329260e-01, 3.94107550e-02,
          4.62021410e-01, 4.62021410e-01, 4.62021410e-01, 2.22474158e-01,
          1.44252747e-01, 2.60296166e-01, 4.58439678e-01, 4.58439678e-01,
          2.02863216e-01, 3.73501956e-01, 4.58439678e-01, 2.14954078e-01 ]
      - [ 9.15723741e-02, 3.71649057e-01, 3.81067425e-01, 1.44558206e-01,
          5.48124373e-01, 5.48124373e-01, 2.83446848e-01, 2.04801895e-02,
          1.63113140e-02, 1.22659288e-01, 3.42820495e-01, 4.40894723e-01,
          2.02036500e-01, 4.89858121e-01, 4.89858121e-01, 2.61869818e-01,
          2.42478117e-01, 1.41548693e-01, 4.09022689e-01, 3.05858046e-01,
          4.32110935e-01, 4.32110935e-01, 4.32110935e-01, 3.04021746e-01,
          9.10235271e-02, 1.05422825e-01, 2.50692964e-01, 7.86441267e-02,
          4.60024118e-01, 4.60024118e-01, 2.91823745e-01, 1.77606001e-01,
          4.60024118e-01, 4.60024118e-01, 1.56349793e-01, 3.97645570e-02,
          3.25044394e-02, 3.79157305e-01, 3.79157305e-01, 3.67070138e-01,
          1.29637346e-01, 3.53281438e-01, 3.79157305e-01, 3.79157305e-01,
          3.79157305e-01, 2.93056190e-01, 4.11439270e-01, 4.11439270e-01,
          4.11439270e-01, 3.29805911e-01, 2.97768027e-01, 2.58492142e-01,
          3.22871894e-01, 1.83463380e-01, 4.13049370e-01, 4.13049370e-01,
          4.13049370e-01, 2.69223988e-01, 6.09631985e-02, 1.00065552e-01,
          4.13049370e-01, 4.13049370e-01, 2.37936124e-01, 2.01964065e-01,
          2.39181817e-01, 3.97693485e-01, 3.97693485e-01, 3.97693485e-01,
          3.97693485e-01, 3.97693485e-01, 2.30321363e-01, 2.32768849e-01,
          3.09402883e-01, 3.44810009e-01, 3.44810009e-01, 3.44810009e-01,
          3.44810009e-01, 3.44810009e-01, 3.15203965e-01, 2.96828806e-01,
          3.44810009e-01, 4.13049370e-01, 4.13049370e-01, 4.13049370e-01,
          2.69223988e-01, 6.09631985e-02, 1.00065552e-01, 4.13049370e-01,
          4.13049370e-01, 2.37936124e-01, 2.01964065e-01, 2.39181817e-01,
          3.97693485e-01, 3.97693485e-01, 3.97693485e-01, 3.97693485e-01,
          3.97693485e-01, 2.30321363e-01, 2.32768849e-01, 3.09402883e-01,
          3.44810009e-01, 3.44810009e-01, 3.44810009e-01, 3.44810009e-01,
          3.44810009e-01, 3.15203965e-01, 2.96828806e-01, 3.44810009e-01,
          2.35006347e-01, 1.29187688e-01, 3.11854541e-01, 7.94601068e-02,
          9.89089161e-02, 3.05072337e-01, 5.38197041e-01, 5.38197041e-01,
          3.70103300e-01, 3.97849411e-01, 3.97849411e-01, 3.97849411e-01,
          2.76161432e-01, 3.81122112e-01, 3.66331190e-01, 2.66252786e-01,
          7.13546425e-02, 2.99120784e-01, 3.56380731e-01, 3.56380731e-01,
          3.56380731e-01, 3.16320300e-01, 3.56380731e-01, 1.92389145e-01,
          3.11967790e-01, 3.56380731e-01, 3.56380731e-01, 5.78737445e-02,
          2.97123939e-02, 3.42804879e-01, 2.15975150e-01, 8.88356194e-02,
          2.08301432e-02, 1.48934007e-01, 6.30399227e-01, 6.30399227e-01,
          4.22479600e-01, 1.78632572e-01, 4.21002328e-01, 4.22479600e-01,
          2.23288238e-01, 1.07915640e-01, 1.05676994e-01, 4.22479600e-01,
          4.22479600e-01, 3.61070246e-01, 2.14968339e-01, 3.61070246e-01,
          3.61070246e-01, 3.61070246e-01, 3.61070246e-01, 3.61070246e-01,
          2.99498320e-01, 2.79734850e-01, 4.09022689e-01, 3.05858046e-01,
          4.32110935e-01, 4.32110935e-01, 4.32110935e-01, 3.04021746e-01,
          9.10235271e-02, 1.05422825e-01, 2.50692964e-01, 1.61022350e-01,
          1.88299417e-01, 5.36842108e-01, 5.43508708e-01, 5.43508708e-01,
          6.97558448e-02, 8.45744610e-02, 6.48391768e-02, 1.94837391e-01,
          8.52456540e-02, 1.21915992e-02, 5.77742517e-01, 6.61587417e-01,
          2.42055714e-01, 2.85047833e-02, 4.92163375e-02, 1.30853817e-01,
          3.68167043e-01, 2.93056190e-01, 4.11439270e-01, 4.11439270e-01,
          4.11439270e-01, 3.29805911e-01, 2.97768027e-01, 2.58492142e-01,
          3.22871894e-01, 1.83463380e-01, 3.16959381e-01, 3.88402849e-01,
          3.88402849e-01, 3.88402849e-01, 3.88402849e-01, 3.88402849e-01,
          3.51871759e-01, 8.12518001e-02, 1.04675680e-01, 9.13135558e-02,
          2.20616519e-01, 6.26719236e-01, 6.26719236e-01, 2.23807693e-01,
          2.91756839e-01, 1.12772711e-01, 3.06685586e-02, 4.80475090e-02,
          3.09402883e-01, 3.44810009e-01, 3.44810009e-01, 3.44810009e-01,
          3.44810009e-01, 3.44810009e-01, 3.15203965e-01, 2.96828806e-01,
          3.44810009e-01, 3.86156529e-01, 3.86156529e-01, 3.86156529e-01,
          3.86156529e-01, 3.86156529e-01, 3.31498623e-01, 1.29876822e-01,
          1.72230825e-01, 3.06814641e-01, 4.18128014e-01, 4.18128014e-01,
          4.18128014e-01, 4.18128014e-01, 3.97657335e-01, 2.07339734e-01,
          8.68084356e-02, 1.95121169e-01, 2.23091260e-01, 3.09402883e-01,
          3.44810009e-01, 3.44810009e-01, 3.44810009e-01, 3.44810009e-01,
          3.44810009e-01, 3.15203965e-01, 2.96828806e-01, 3.44810009e-01,
          3.86156529e-01, 3.86156529e-01, 3.86156529e-01, 3.86156529e-01,
          3.86156529e-01, 3.31498623e-01, 1.29876822e-01, 1.72230825e-01,
          3.06814641e-01, 4.18128014e-01, 4.18128014e-01, 4.18128014e-01,
          4.18128014e-01, 3.97657335e-01, 2.07339734e-01, 8.68084356e-02,
          1.95121169e-01, 2.23091260e-01, 3.56380731e-01, 3.56380731e-01,
          3.56380731e-01, 3.16320300e-01, 3.56380731e-01, 1.92389145e-01,
          3.11967790e-01, 3.56380731e-01, 3.56380731e-01, 2.94590920e-01,
          2.61451185e-01, 4.31983232e-01, 4.31983232e-01, 4.17188287e-01,
          5.32050841e-02, 2.19456881e-01, 3.01080287e-01, 3.89407098e-01,
          2.47876078e-01, 4.08323854e-01, 4.08323854e-01, 4.08323854e-01,
          4.08323854e-01, 9.58026722e-02, 3.20382923e-01, 2.56726652e-01,
          2.99721748e-01, 3.61070246e-01, 2.14968339e-01, 3.61070246e-01,
          3.61070246e-01, 3.61070246e-01, 3.61070246e-01, 3.61070246e-01,
          2.99498320e-01, 2.79734850e-01, 3.65514070e-01, 3.65514070e-01,
          3.65514070e-01, 3.65514070e-01, 2.39568189e-01, 2.44681656e-01,
          3.65514070e-01, 3.09034437e-01, 3.39972526e-01, 6.11380339e-01,
          6.11380339e-01, 2.07695618e-01, 2.97890604e-01, 2.57158726e-01,
          1.41634792e-01, 1.20515227e-01, 7.31405616e-02, 9.15589109e-02 ]
      - [ 5.18576920e-01, 2.53688037e-01, 2.77858019e-01, 3.10689628e-01,
          3.76386583e-01, 2.21687153e-01, 1.50626048e-01, 7.33895078e-02,
          5.18576920e-01, 4.95900154e-01, 2.06037089e-01, 1.05357364e-01,
          1.59536794e-01, 4.95900154e-01, 2.81058937e-01, 1.01221927e-01,
          2.98417211e-01, 4.95900154e-01, 1.77513331e-01, 2.26632021e-02,
          1.23670604e-02, 3.02839708e-02, 2.17343107e-01, 4.77685571e-01,
          4.20668989e-01, 5.04718125e-01, 5.04718125e-01, 3.19024801e-01,
          3.17232944e-02, 6.84675574e-02, 5.60820758e-01, 5.60820758e-01,
          2.63415158e-01, 1.67467013e-01, 1.41149148e-01, 3.74877423e-01,
          4.53677326e-01, 1.32833302e-01, 6.96332334e-03, 1.38147011e-01,
          6.23284280e-01, 5.53975999e-01, 7.74097368e-02, 1.00994036e-01,
          1.99025631e-01, 2.41979539e-01, 4.34396744e-01, 1.74028501e-01,
          7.25534037e-02, 4.42155778e-01, 4.90360796e-01, 4.90360796e-01,
          1.66098297e-01, 9.11047980e-02, 5.12978971e-01, 1.21632151e-01,
          7.13586435e-02, 3.47535580e-01, 5.12978971e-01, 2.49253124e-01,
          3.69503126e-02, 3.57023254e-02, 5.12978971e-01, 5.19895554e-01,
          1.56084523e-02, 4.64849733e-02, 2.38202676e-01, 5.19895554e-01,
          3.45947206e-01, 4.14576307e-02, 5.82262576e-02, 5.19895554e-01,
          4.08185095e-01, 2.65993804e-01, 3.42807770e-01, 3.12468886e-01,
          3.21823984e-01, 4.08185095e-01, 9.51487273e-02, 3.12324435e-01,
          4.08185095e-01, 5.12978971e-01, 1.21632151e-01, 7.13586435e-02,
          3.47535580e-01, 5.12978971e-01, 2.49253124e-01, 3.69503126e-02,
          3.57023254e-02, 5.12978971e-01, 5.19895554e-01, 1.56084523e-02,
          4.64849733e-02, 2.38202676e-01, 5.19895554e-01, 3.45947206e-01,
          4.14576307e-02, 5.82262576e-02, 5.19895554e-01, 4.08185095e-01,
          2.65993804e-01, 3.42807770e-01, 3.12468886e-01, 3.21823984e-01,
          4.08185095e-01, 9.51487273e-02, 3.12324435e-01, 4.08185095e-01,
          4.20958251e-01, 2.87852079e-01, 2.27030948e-01, 4.20958251e-01,
          4.20958251e-01, 1.25563517e-01, 1.74602330e-01, 3.26063573e-01,
          4.20958251e-01, 3.93991888e-01, 1.49768531e-01, 3.34869295e-01,
          3.93991888e-01, 3.93991888e-01, 2.42899835e-01, 1.62319437e-01,
          3.93991888e-01, 3.93991888e-01, 4.09120232e-01, 1.27804950e-01,
          3.35684150e-01, 4.09120232e-01, 4.09120232e-01, 1.67415142e-01,
          4.43886407e-02, 4.09120232e-01, 4.09120232e-01, 2.23743692e-01,
          1.04938567e-01, 2.08006516e-01, 5.88857710e-01, 5.88857710e-01,
          3.20225537e-01, 6.18143827e-02, 5.18491417e-02, 2.95329362e-01,
          1.42069951e-01, 3.64929810e-02, 2.78735682e-02, 3.08647543e-01,
          6.61634922e-01, 6.23021662e-01, 1.32653370e-01, 4.34188871e-03,
          1.79739535e-01, 1.80608854e-02, 5.85829839e-02, 1.95317701e-01,
          5.20972431e-01, 5.78810215e-01, 5.78810215e-01, 1.02378614e-01,
          3.87975760e-03, 1.90259777e-02, 1.77513331e-01, 2.26632021e-02,
          1.23670604e-02, 3.02839708e-02, 2.17343107e-01, 4.77685571e-01,
          4.20668989e-01, 5.04718125e-01, 5.04718125e-01, 3.74076784e-01,
          3.74076784e-01, 9.77271572e-02, 3.74076784e-01, 1.60740077e-01,
          3.74076784e-01, 3.48244280e-01, 3.74076784e-01, 3.74076784e-01,
          4.88204300e-01, 1.31656945e-01, 2.64959689e-02, 4.88204300e-01,
          4.88204300e-01, 1.03016540e-01, 1.64631326e-02, 1.13274515e-01,
          4.88204300e-01, 2.41979539e-01, 4.34396744e-01, 1.74028501e-01,
          7.25534037e-02, 4.42155778e-01, 4.90360796e-01, 4.90360796e-01,
          1.66098297e-01, 9.11047980e-02, 4.73632336e-01, 4.73632336e-01,
          2.41836801e-01, 3.14850695e-02, 1.17421709e-01, 4.73632336e-01,
          4.73632336e-01, 1.39049336e-01, 7.32123926e-02, 5.03898144e-01,
          5.03898144e-01, 5.89184910e-02, 2.64455285e-02, 1.98447362e-01,
          3.21475148e-01, 2.26279885e-01, 1.87420487e-01, 5.03898144e-01,
          4.08185095e-01, 2.65993804e-01, 3.42807770e-01, 3.12468886e-01,
          3.21823984e-01, 4.08185095e-01, 9.51487273e-02, 3.12324435e-01,
          4.08185095e-01, 2.60009557e-01, 3.95545900e-01, 4.01911497e-01,
          4.01911497e-01, 3.17484319e-01, 1.40757591e-01, 7.19937384e-02,
          4.01911497e-01, 4.01911497e-01, 3.47080618e-01, 1.39852017e-01,
          3.19645464e-01, 4.70225006e-01, 4.48382109e-01, 2.66853094e-01,
          1.37339726e-01, 1.40584737e-01, 4.70225006e-01, 4.08185095e-01,
          2.65993804e-01, 3.42807770e-01, 3.12468886e-01, 3.21823984e-01,
          4.08185095e-01, 9.51487273e-02, 3.12324435e-01, 4.08185095e-01,
          2.60009557e-01, 3.95545900e-01, 4.01911497e-01, 4.01911497e-01,
          3.17484319e-01, 1.40757591e-01, 7.19937384e-02, 4.01911497e-01,
          4.01911497e-01, 3.47080618e-01, 1.39852017e-01, 3.19645464e-01,
          4.70225006e-01, 4.48382109e-01, 2.66853094e-01, 1.37339726e-01,
          1.40584737e-01, 4.70225006e-01, 4.09120232e-01, 1.27804950e-01,
          3.35684150e-01, 4.09120232e-01, 4.09120232e-01, 1.67415142e-01,
          4.43886407e-02, 4.09120232e-01, 4.09120232e-01, 5.13616800e-02,
          7.62694702e-02, 2.36877769e-01, 4.98250812e-01, 3.10594082e-01,
          2.23034754e-01, 1.98702738e-01, 4.98250812e-01, 4.98250812e-01,
          1.84846997e-01, 8.46607536e-02, 8.51637423e-02, 4.04676288e-01,
          4.04676288e-01, 4.00827885e-01, 4.04676288e-01, 4.04676288e-01,
          3.62841547e-01, 1.80608854e-02, 5.85829839e-02, 1.95317701e-01,
          5.20972431e-01, 5.78810215e-01, 5.78810215e-01, 1.02378614e-01,
          3.87975760e-03, 1.90259777e-02, 1.53158367e-01, 3.10699731e-01,
          1.40600562e-01, 1.34041101e-01, 4.02488053e-01, 5.75759351e-01,
          5.75759351e-01, 7.55530894e-02, 7.62943402e-02, 4.74315375e-01,
          4.74315375e-01, 5.33951707e-02, 7.37090111e-02, 2.59794921e-01,
          4.74315375e-01, 4.74315375e-01, 9.79084298e-02, 9.99935567e-02 ]
      - [ 4.36523825e-01, 4.36523825e-01, 3.35116088e-01, 3.43863755e-01,
          2.42902219e-01, 1.23654477e-01, 1.30909532e-01, 3.19384068e-01,
          4.36523825e-01, 5.57415485e-01, 5.57415485e-01, 4.04312760e-02,
          4.49813865e-02, 1.76613793e-01, 4.74435002e-01, 7.30940625e-02,
          1.55198798e-01, 2.89207757e-01, 5.27893603e-01, 5.27893603e-01,
          2.47088876e-02, 1.31596928e-03, 3.39130878e-01, 5.27893603e-01,
          3.31391022e-02, 2.78007258e-02, 2.03026980e-01, 5.46107709e-01,
          5.46107709e-01, 5.38867079e-02, 5.29631488e-02, 2.81466633e-01,
          5.46107709e-01, 5.55422306e-02, 9.49001685e-03, 1.08343206e-01,
          4.92108822e-01, 4.92108822e-01, 1.00401687e-02, 4.60567931e-03,
          4.84662682e-01, 4.92108822e-01, 1.03682041e-01, 5.61797395e-02,
          1.40162811e-01, 4.50076550e-01, 4.50076550e-01, 1.01004362e-01,
          3.17679122e-02, 4.50076550e-01, 4.50076550e-01, 3.58317465e-01,
          9.94914174e-02, 1.89017743e-01, 3.66983056e-01, 3.66983056e-01,
          3.48463625e-01, 3.66983056e-01, 3.66983056e-01, 3.66983056e-01,
          1.26090363e-01, 2.25717872e-01, 3.66983056e-01, 3.75578851e-01,
          3.75578851e-01, 1.86270624e-01, 3.75578851e-01, 3.72976363e-01,
          2.57230431e-01, 3.75578851e-01, 3.38597625e-01, 2.78183311e-01,
          2.46246979e-01, 3.75471354e-01, 4.28160667e-01, 2.19321087e-01,
          3.19223464e-01, 2.31553108e-01, 4.28160667e-01, 4.28160667e-01,
          2.01295510e-01, 3.66983056e-01, 3.66983056e-01, 3.48463625e-01,
          3.66983056e-01, 3.66983056e-01, 3.66983056e-01, 1.26090363e-01,
          2.25717872e-01, 3.66983056e-01, 3.75578851e-01, 3.75578851e-01,
          1.86270624e-01, 3.75578851e-01, 3.72976363e-01, 2.57230431e-01,
          3.75578851e-01, 3.38597625e-01, 2.78183311e-01, 2.46246979e-01,
          3.75471354e-01, 4.28160667e-01, 2.19321087e-01, 3.19223464e-01,
          2.31553108e-01, 4.28160667e-01, 4.28160667e-01, 2.01295510e-01,
          5.58227599e-02, 5.73093444e-02, 2.90448785e-01, 4.74779457e-01,
          4.74779457e-01, 2.28765756e-02, 4.80738468e-02, 4.74779457e-01,
          4.74779457e-01, 1.12582311e-01, 1.08458139e-02, 1.59785077e-01,
          4.86801952e-01, 4.86801952e-01, 5.12500890e-02, 7.92649984e-02,
          4.86801952e-01, 4.86801952e-01, 4.22715992e-01, 7.81672522e-02,
          1.77509323e-01, 4.22715992e-01, 4.22715992e-01, 1.46536762e-02,
          2.53966421e-01, 4.22715992e-01, 4.22715992e-01, 1.61210597e-01,
          4.42652702e-01, 4.42652702e-01, 4.42652702e-01, 4.42652702e-01,
          1.94236070e-01, 1.67568922e-01, 2.72757858e-01, 2.13588357e-01,
          5.16293459e-02, 8.65647122e-02, 2.55467713e-01, 4.84349400e-01,
          4.84349400e-01, 9.98762101e-02, 7.73704574e-02, 4.84349400e-01,
          4.47208166e-01, 1.17885537e-01, 1.10137686e-02, 2.94754207e-01,
          4.72808272e-01, 4.72808272e-01, 9.69299860e-03, 9.72433388e-03,
          4.72808272e-01, 4.72808272e-01, 5.27893603e-01, 5.27893603e-01,
          2.47088876e-02, 1.31596928e-03, 3.39130878e-01, 5.27893603e-01,
          3.31391022e-02, 2.78007258e-02, 2.03026980e-01, 4.90609884e-01,
          4.90609884e-01, 2.15417072e-02, 2.94687282e-02, 4.90609884e-01,
          4.90609884e-01, 1.57715585e-02, 3.62709388e-02, 1.71495914e-01,
          3.97272378e-01, 3.97272378e-01, 4.02496494e-02, 2.04761252e-02,
          3.97272378e-01, 3.97272378e-01, 3.97272378e-01, 2.99423337e-01,
          3.39427292e-01, 4.50076550e-01, 4.50076550e-01, 1.01004362e-01,
          3.17679122e-02, 4.50076550e-01, 4.50076550e-01, 3.58317465e-01,
          9.94914174e-02, 1.89017743e-01, 3.59221667e-01, 3.59221667e-01,
          3.59221667e-01, 3.00558656e-01, 3.59221667e-01, 3.59221667e-01,
          3.59221667e-01, 5.28583601e-02, 3.59221667e-01, 3.89348298e-01,
          3.78216773e-01, 3.89348298e-01, 3.89348298e-01, 1.80954203e-01,
          9.10620466e-02, 3.89348298e-01, 3.89348298e-01, 2.32519343e-01,
          2.46246979e-01, 3.75471354e-01, 4.28160667e-01, 2.19321087e-01,
          3.19223464e-01, 2.31553108e-01, 4.28160667e-01, 4.28160667e-01,
          2.01295510e-01, 3.33905995e-01, 3.65662545e-01, 3.65662545e-01,
          3.65662545e-01, 2.51542330e-01, 3.38508159e-01, 3.65662545e-01,
          2.79815465e-01, 3.06364238e-01, 1.99397042e-01, 1.94423154e-01,
          3.87817144e-01, 3.87817144e-01, 3.87817144e-01, 1.37874097e-01,
          3.87817144e-01, 3.87817144e-01, 3.84117186e-01, 2.46246979e-01,
          3.75471354e-01, 4.28160667e-01, 2.19321087e-01, 3.19223464e-01,
          2.31553108e-01, 4.28160667e-01, 4.28160667e-01, 2.01295510e-01,
          3.33905995e-01, 3.65662545e-01, 3.65662545e-01, 3.65662545e-01,
          2.51542330e-01, 3.38508159e-01, 3.65662545e-01, 2.79815465e-01,
          3.06364238e-01, 1.99397042e-01, 1.94423154e-01, 3.87817144e-01,
          3.87817144e-01, 3.87817144e-01, 1.37874097e-01, 3.87817144e-01,
          3.87817144e-01, 3.84117186e-01, 4.22715992e-01, 7.81672522e-02,
          1.77509323e-01, 4.22715992e-01, 4.22715992e-01, 1.46536762e-02,
          2.53966421e-01, 4.22715992e-01, 4.22715992e-01, 3.55508685e-01,
          3.55508685e-01, 3.55508685e-01, 3.55508685e-01, 3.25195670e-01,
          7.74010494e-02, 3.55508685e-01, 3.55508685e-01, 3.55508685e-01,
          3.51158470e-01, 3.51158470e-01, 3.51158470e-01, 3.51158470e-01,
          3.51158470e-01, 9.99667421e-02, 3.51158470e-01, 3.51158470e-01,
          3.51158470e-01, 1.17885537e-01, 1.10137686e-02, 2.94754207e-01,
          4.72808272e-01, 4.72808272e-01, 9.69299860e-03, 9.72433388e-03,
          4.72808272e-01, 4.72808272e-01, 1.33796051e-01, 1.25896167e-02,
          1.23077013e-01, 4.86776590e-01, 4.86776590e-01, 1.15863178e-02,
          1.18280284e-01, 4.86776590e-01, 4.86776590e-01, 3.94836664e-01,
          1.54997319e-01, 1.69577390e-01, 3.94836664e-01, 3.94836664e-01,
          8.88765901e-02, 3.94836664e-01, 3.94836664e-01, 3.94836664e-01 ]
      - [ 5.35818577e-01, 6.54173642e-02, 2.26669759e-02, 2.11335868e-02,
          5.35818577e-01, 5.35818577e-01, 1.35249188e-02, 1.94706917e-02,
          3.57130975e-01, 5.51764667e-01, 1.23742536e-01, 5.62602505e-02,
          3.71253341e-02, 5.51764667e-01, 5.51764667e-01, 9.56093799e-03,
          2.25010142e-03, 2.47396439e-01, 5.33417583e-01, 2.72033215e-01,
          5.29457629e-02, 7.97820687e-02, 5.33417583e-01, 5.33417583e-01,
          7.86191821e-02, 2.64134887e-03, 2.27401942e-01, 3.95670623e-01,
          3.08497280e-01, 3.95670623e-01, 3.95670623e-01, 2.55398691e-01,
          2.98286766e-01, 3.69323641e-02, 3.95670623e-01, 3.45091462e-01,
          4.28382546e-01, 3.52944940e-01, 2.41496578e-01, 3.48282456e-01,
          2.76878893e-01, 4.28382546e-01, 4.28382546e-01, 2.01400980e-01,
          1.54175863e-01, 4.39896077e-01, 4.39896077e-01, 2.41242394e-01,
          1.17360130e-01, 3.44103098e-01, 4.39896077e-01, 4.28139567e-01,
          6.13450520e-02, 1.93998128e-01, 2.39756983e-03, 1.38934618e-02,
          4.56454426e-01, 5.08975744e-01, 8.47506374e-02, 1.53147904e-02,
          4.22042012e-02, 5.08975744e-01, 5.08975744e-01, 3.39533389e-02,
          6.17844872e-02, 4.50586617e-01, 4.50586617e-01, 1.05272837e-01,
          2.11785529e-02, 4.50586617e-01, 4.50586617e-01, 4.08515602e-01,
          2.14369625e-01, 3.08656722e-01, 3.94616246e-01, 3.94616246e-01,
          3.94616246e-01, 1.40048936e-01, 2.37930521e-01, 3.94616246e-01,
          3.94616246e-01, 2.39756983e-03, 1.38934618e-02, 4.56454426e-01,
          5.08975744e-01, 8.47506374e-02, 1.53147904e-02, 4.22042012e-02,
          5.08975744e-01, 5.08975744e-01, 3.39533389e-02, 6.17844872e-02,
          4.50586617e-01, 4.50586617e-01, 1.05272837e-01, 2.11785529e-02,
          4.50586617e-01, 4.50586617e-01, 4.08515602e-01, 2.14369625e-01,
          3.08656722e-01, 3.94616246e-01, 3.94616246e-01, 3.94616246e-01,
          1.40048936e-01, 2.37930521e-01, 3.94616246e-01, 3.94616246e-01,
          5.19691641e-03, 3.74194607e-03, 6.03441298e-01, 6.52378142e-01,
          5.74615523e-02, 7.94843119e-03, 1.73778478e-02, 3.98275495e-01,
          2.03511521e-01, 9.80904885e-03, 3.47962999e-03, 4.66844648e-01,
          5.07602394e-01, 9.35271196e-03, 7.16021704e-03, 6.13095202e-02,
          5.07602394e-01, 5.07602394e-01, 4.23947692e-01, 1.14090152e-01,
          4.34094280e-01, 4.34094280e-01, 2.15118453e-01, 4.99975532e-02,
          1.97068937e-02, 4.34094280e-01, 4.34094280e-01, 8.19864497e-02,
          1.27442911e-01, 6.57641351e-01, 6.57641351e-01, 1.48266792e-01,
          1.87484339e-01, 1.93416834e-01, 3.44249755e-02, 9.87820327e-02,
          7.75378989e-03, 4.60038334e-02, 5.88565111e-01, 5.88565111e-01,
          1.06888134e-02, 6.33600634e-03, 1.96322966e-02, 4.80644375e-01,
          2.59942174e-01, 1.32965168e-03, 3.21387574e-02, 4.48759317e-01,
          5.12754738e-01, 4.96285856e-02, 1.27995238e-02, 3.28676403e-02,
          5.12754738e-01, 5.12754738e-01, 5.33417583e-01, 2.72033215e-01,
          5.29457629e-02, 7.97820687e-02, 5.33417583e-01, 5.33417583e-01,
          7.86191821e-02, 2.64134887e-03, 2.27401942e-01, 4.73117113e-01,
          3.21687400e-01, 7.76385665e-02, 3.94619495e-01, 4.73117113e-01,
          4.54120457e-01, 1.29550789e-02, 3.66375968e-02, 2.73174405e-01,
          3.92760366e-01, 3.92760366e-01, 1.89483210e-01, 1.32581383e-01,
          1.30501077e-01, 3.92760366e-01, 3.92760366e-01, 3.92760366e-01,
          3.92760366e-01, 4.39896077e-01, 4.39896077e-01, 2.41242394e-01,
          1.17360130e-01, 3.44103098e-01, 4.39896077e-01, 4.28139567e-01,
          6.13450520e-02, 1.93998128e-01, 3.41523856e-01, 3.36588800e-01,
          3.41523856e-01, 3.41523856e-01, 3.13440025e-01, 3.24729890e-01,
          3.41523856e-01, 3.41523856e-01, 3.10497522e-01, 6.81968182e-02,
          4.49896097e-01, 4.49896097e-01, 2.84464657e-01, 6.18559904e-02,
          4.49896097e-01, 4.49896097e-01, 3.10261905e-01, 1.48501378e-02,
          2.14369625e-01, 3.08656722e-01, 3.94616246e-01, 3.94616246e-01,
          3.94616246e-01, 1.40048936e-01, 2.37930521e-01, 3.94616246e-01,
          3.94616246e-01, 4.14367169e-01, 4.14367169e-01, 3.18587393e-01,
          1.78293258e-01, 3.39260757e-01, 4.14367169e-01, 4.14367169e-01,
          1.94234312e-01, 1.51489183e-01, 2.00559348e-01, 4.85592574e-01,
          4.85592574e-01, 1.61472745e-02, 1.08311884e-03, 4.85592574e-01,
          4.85592574e-01, 1.06549181e-01, 1.05283633e-02, 2.14369625e-01,
          3.08656722e-01, 3.94616246e-01, 3.94616246e-01, 3.94616246e-01,
          1.40048936e-01, 2.37930521e-01, 3.94616246e-01, 3.94616246e-01,
          4.14367169e-01, 4.14367169e-01, 3.18587393e-01, 1.78293258e-01,
          3.39260757e-01, 4.14367169e-01, 4.14367169e-01, 1.94234312e-01,
          1.51489183e-01, 2.00559348e-01, 4.85592574e-01, 4.85592574e-01,
          1.61472745e-02, 1.08311884e-03, 4.85592574e-01, 4.85592574e-01,
          1.06549181e-01, 1.05283633e-02, 4.23947692e-01, 1.14090152e-01,
          4.34094280e-01, 4.34094280e-01, 2.15118453e-01, 4.99975532e-02,
          1.97068937e-02, 4.34094280e-01, 4.34094280e-01, 3.97767514e-01,
          3.97767514e-01, 3.40036780e-01, 2.46213645e-01, 1.65583611e-01,
          3.97767514e-01, 3.97767514e-01, 9.82374996e-02, 3.87086213e-01,
          5.42954095e-02, 4.91262972e-01, 4.91262972e-01, 9.62899812e-03,
          2.72644614e-03, 4.91262972e-01, 4.91262972e-01, 1.62391350e-01,
          1.78074539e-02, 1.32965168e-03, 3.21387574e-02, 4.48759317e-01,
          5.12754738e-01, 4.96285856e-02, 1.27995238e-02, 3.28676403e-02,
          5.12754738e-01, 5.12754738e-01, 6.38296381e-02, 4.05035704e-01,
          3.76733959e-01, 4.05035704e-01, 3.02781284e-01, 4.05035704e-01,
          4.05035704e-01, 2.94246286e-01, 1.24410152e-01, 4.09544893e-02,
          4.91789341e-01, 4.91789341e-01, 9.62799788e-02, 2.98890397e-02,
          4.91789341e-01, 4.91789341e-01, 1.22698322e-01, 2.76742131e-02 ]
      - [ 5.80292761e-01, 5.80292761e-01, 1.73276197e-02, 2.90294108e-03,
          2.97626495e-01, 4.21671838e-01, 5.09154005e-03, 5.54217724e-04,
          2.32384607e-01, 5.00060499e-01, 4.40303415e-01, 1.58589054e-02,
          6.10164693e-03, 5.00060499e-01, 5.00060499e-01, 2.75141560e-03,
          6.10932009e-04, 2.25078836e-01, 4.91934359e-01, 4.14507508e-01,
          1.12699039e-01, 4.40427661e-02, 4.91934359e-01, 4.91934359e-01,
          3.52919870e-03, 2.82886485e-03, 2.87420779e-01, 5.15278220e-01,
          4.23617482e-01, 1.91896327e-03, 2.79385261e-02, 5.15278220e-01,
          5.15278220e-01, 6.15933537e-02, 1.00228740e-02, 1.19116433e-01,
          4.81599540e-01, 4.81599540e-01, 6.66623339e-02, 1.29547432e-01,
          4.81599540e-01, 4.81599540e-01, 9.11557451e-02, 6.25044899e-03,
          1.94582924e-01, 4.30821806e-01, 4.30821806e-01, 3.91277045e-01,
          2.64673024e-01, 4.30821806e-01, 4.30821806e-01, 4.54230905e-02,
          3.10750469e-03, 1.67464614e-01, 4.29711878e-01, 2.84845233e-01,
          3.67773697e-02, 4.29711878e-01, 4.29711878e-01, 1.09616660e-01,
          4.29711878e-01, 2.40064636e-01, 3.23978484e-01, 3.60479802e-01,
          1.16568945e-01, 2.70537078e-01, 3.60479802e-01, 3.60479802e-01,
          3.60479802e-01, 3.60479802e-01, 3.60479802e-01, 3.60479802e-01,
          3.83140534e-01, 2.34168828e-01, 3.54762912e-01, 3.83140534e-01,
          3.83140534e-01, 3.83140534e-01, 5.53140268e-02, 2.80066729e-01,
          3.83140534e-01, 4.29711878e-01, 2.84845233e-01, 3.67773697e-02,
          4.29711878e-01, 4.29711878e-01, 1.09616660e-01, 4.29711878e-01,
          2.40064636e-01, 3.23978484e-01, 3.60479802e-01, 1.16568945e-01,
          2.70537078e-01, 3.60479802e-01, 3.60479802e-01, 3.60479802e-01,
          3.60479802e-01, 3.60479802e-01, 3.60479802e-01, 3.83140534e-01,
          2.34168828e-01, 3.54762912e-01, 3.83140534e-01, 3.83140534e-01,
          3.83140534e-01, 5.53140268e-02, 2.80066729e-01, 3.83140534e-01,
          5.56043759e-02, 2.68351374e-04, 1.67649649e-02, 5.14959991e-01,
          4.41352010e-01, 1.29519077e-02, 3.11967656e-02, 5.14959991e-01,
          5.14959991e-01, 1.57273188e-01, 2.94517521e-02, 3.99373621e-02,
          5.02230823e-01, 5.02230823e-01, 3.10429139e-03, 2.29516607e-02,
          4.58849490e-01, 5.02230823e-01, 4.31424290e-01, 2.83169895e-01,
          2.35890746e-01, 4.31424290e-01, 4.05635685e-01, 5.42225083e-03,
          9.48791858e-03, 3.69892150e-01, 4.31424290e-01, 2.01350395e-02,
          8.88847280e-03, 2.05471385e-02, 5.78812718e-01, 5.78812718e-01,
          1.75968353e-02, 1.62206939e-03, 2.09347665e-01, 5.28324306e-01,
          4.25009280e-02, 1.41875949e-02, 1.01747243e-02, 4.98179495e-01,
          4.98179495e-01, 1.14415977e-02, 7.14096799e-03, 4.98179495e-01,
          4.98179495e-01, 2.81114746e-02, 1.15529969e-02, 7.19608516e-02,
          4.97134268e-01, 4.97134268e-01, 1.35690467e-02, 1.33670708e-02,
          4.97134268e-01, 4.97134268e-01, 4.91934359e-01, 4.14507508e-01,
          1.12699039e-01, 4.40427661e-02, 4.91934359e-01, 4.91934359e-01,
          3.52919870e-03, 2.82886485e-03, 2.87420779e-01, 4.69253540e-01,
          4.69253540e-01, 2.10960526e-02, 1.53152738e-02, 4.26068515e-01,
          4.69253540e-01, 1.74864933e-01, 6.63271919e-02, 3.42819452e-01,
          4.70537245e-01, 3.32393140e-01, 2.23910832e-03, 4.65794727e-02,
          4.70537245e-01, 4.70537245e-01, 3.26987714e-01, 1.28749400e-01,
          3.08102250e-01, 4.30821806e-01, 4.30821806e-01, 3.91277045e-01,
          2.64673024e-01, 4.30821806e-01, 4.30821806e-01, 4.54230905e-02,
          3.10750469e-03, 1.67464614e-01, 4.38602448e-01, 3.33250672e-01,
          1.50097460e-01, 5.68135083e-02, 4.38602448e-01, 4.38602448e-01,
          4.38602448e-01, 2.31937632e-01, 1.88473850e-01, 4.35546160e-01,
          2.42295429e-01, 4.51630950e-02, 5.62672876e-02, 4.35546160e-01,
          4.35546160e-01, 4.35546160e-01, 2.67360240e-01, 3.18517119e-01,
          3.83140534e-01, 2.34168828e-01, 3.54762912e-01, 3.83140534e-01,
          3.83140534e-01, 3.83140534e-01, 5.53140268e-02, 2.80066729e-01,
          3.83140534e-01, 3.68505657e-01, 3.68505657e-01, 3.68505657e-01,
          3.68505657e-01, 3.68505657e-01, 3.68505657e-01, 1.44471794e-01,
          1.57706782e-01, 3.68505657e-01, 3.57603282e-01, 3.57603282e-01,
          1.59385577e-01, 3.57603282e-01, 3.57603282e-01, 3.57603282e-01,
          3.47783923e-01, 2.87731290e-01, 3.57603282e-01, 3.83140534e-01,
          2.34168828e-01, 3.54762912e-01, 3.83140534e-01, 3.83140534e-01,
          3.83140534e-01, 5.53140268e-02, 2.80066729e-01, 3.83140534e-01,
          3.68505657e-01, 3.68505657e-01, 3.68505657e-01, 3.68505657e-01,
          3.68505657e-01, 3.68505657e-01, 1.44471794e-01, 1.57706782e-01,
          3.68505657e-01, 3.57603282e-01, 3.57603282e-01, 1.59385577e-01,
          3.57603282e-01, 3.57603282e-01, 3.57603282e-01, 3.47783923e-01,
          2.87731290e-01, 3.57603282e-01, 4.31424290e-01, 2.83169895e-01,
          2.35890746e-01, 4.31424290e-01, 4.05635685e-01, 5.42225083e-03,
          9.48791858e-03, 3.69892150e-01, 4.31424290e-01, 4.00171250e-01,
          2.08321482e-01, 2.03996763e-01, 3.04464728e-01, 1.97787970e-01,
          2.43241772e-01, 4.31876153e-01, 4.31876153e-01, 4.31876153e-01,
          2.12789953e-01, 7.38032088e-02, 3.02958131e-01, 4.16446269e-01,
          4.16446269e-01, 1.96105972e-01, 3.48083705e-01, 4.16446269e-01,
          4.16446269e-01, 2.81114746e-02, 1.15529969e-02, 7.19608516e-02,
          4.97134268e-01, 4.97134268e-01, 1.35690467e-02, 1.33670708e-02,
          4.97134268e-01, 4.97134268e-01, 1.88220739e-02, 4.82963165e-03,
          4.66357842e-02, 4.47171688e-01, 4.47171688e-01, 6.87524006e-02,
          4.47171688e-01, 4.47171688e-01, 4.34055090e-01, 1.17010921e-01,
          3.88983376e-02, 7.86114186e-02, 4.69133765e-01, 4.69133765e-01,
          5.14036752e-02, 3.01564932e-01, 4.69133765e-01, 4.69133765e-01 ]
      - [ 3.87584478e-01, 2.45656773e-01, 3.87584478e-01, 3.87584478e-01,
          1.62923202e-01, 1.13179244e-01, 3.81206751e-01, 3.87584478e-01,
          3.87584478e-01, 4.27599430e-01, 1.76474854e-01, 4.32739794e-01,
          1.60608098e-01, 2.78804284e-02, 7.78818354e-02, 4.32739794e-01,
          4.32739794e-01, 4.32739794e-01, 3.83157700e-01, 3.83157700e-01,
          3.83157700e-01, 3.62374097e-01, 5.52905425e-02, 2.53918767e-01,
          2.51547605e-01, 3.83157700e-01, 3.83157700e-01, 2.83235431e-01,
          1.93697557e-01, 4.00500923e-01, 4.00500923e-01, 4.00500923e-01,
          1.95405021e-01, 4.00500923e-01, 4.00500923e-01, 1.95115268e-01,
          5.54879233e-02, 4.42816131e-02, 3.70381355e-01, 4.40843880e-01,
          4.40843880e-01, 2.54493356e-01, 4.40843880e-01, 4.40843880e-01,
          1.05991751e-01, 2.64236242e-01, 3.60212177e-01, 3.60212177e-01,
          3.60212177e-01, 2.98900664e-01, 3.60212177e-01, 3.60212177e-01,
          3.36571604e-01, 2.74215609e-01, 3.50368112e-01, 3.18585873e-01,
          3.50368112e-01, 3.50368112e-01, 3.01597893e-01, 3.50368112e-01,
          3.50368112e-01, 3.50368112e-01, 2.59796590e-01, 1.59706041e-01,
          1.03357710e-01, 3.28554988e-01, 4.42149013e-01, 4.42149013e-01,
          1.28785670e-01, 2.29950652e-01, 4.42149013e-01, 4.42149013e-01,
          3.57113853e-02, 6.27591461e-02, 4.37276185e-01, 4.37276185e-01,
          4.37276185e-01, 2.91647673e-01, 8.93030912e-02, 4.37276185e-01,
          3.64064336e-01, 3.50368112e-01, 3.18585873e-01, 3.50368112e-01,
          3.50368112e-01, 3.01597893e-01, 3.50368112e-01, 3.50368112e-01,
          3.50368112e-01, 2.59796590e-01, 1.59706041e-01, 1.03357710e-01,
          3.28554988e-01, 4.42149013e-01, 4.42149013e-01, 1.28785670e-01,
          2.29950652e-01, 4.42149013e-01, 4.42149013e-01, 3.57113853e-02,
          6.27591461e-02, 4.37276185e-01, 4.37276185e-01, 4.37276185e-01,
          2.91647673e-01, 8.93030912e-02, 4.37276185e-01, 3.64064336e-01,
          3.98016900e-01, 3.98016900e-01, 3.31805497e-01, 2.63010204e-01,
          1.22259110e-01, 3.46963525e-01, 3.98016900e-01, 3.98016900e-01,
          2.18526572e-01, 2.79714733e-01, 3.72334182e-01, 3.72334182e-01,
          2.11409882e-01, 3.16650122e-01, 3.72334182e-01, 3.72334182e-01,
          3.72334182e-01, 2.82691777e-01, 1.08438142e-01, 2.36557111e-01,
          4.11352456e-01, 4.11352456e-01, 3.33799362e-01, 2.20808133e-01,
          3.01912159e-01, 4.11352456e-01, 4.11352456e-01, 1.39174342e-01,
          3.84470195e-01, 3.84470195e-01, 3.84470195e-01, 3.84470195e-01,
          2.74076045e-01, 3.84470195e-01, 3.84470195e-01, 1.21522583e-01,
          1.77987352e-01, 4.49056953e-01, 4.54844713e-01, 1.19968005e-01,
          5.05065732e-02, 1.97595239e-01, 4.54844713e-01, 4.54844713e-01,
          2.92381614e-01, 3.66519839e-01, 3.66519839e-01, 3.66519839e-01,
          1.56675234e-01, 1.92019999e-01, 3.66519839e-01, 3.66519839e-01,
          3.66519839e-01, 3.59024614e-01, 3.83157700e-01, 3.83157700e-01,
          3.83157700e-01, 3.62374097e-01, 5.52905425e-02, 2.53918767e-01,
          2.51547605e-01, 3.83157700e-01, 3.83157700e-01, 4.39550132e-01,
          1.15442105e-01, 3.31358671e-01, 3.01621050e-01, 1.64586194e-02,
          9.17641595e-02, 4.39550132e-01, 4.39550132e-01, 4.39550132e-01,
          2.71674067e-01, 2.05078926e-02, 1.33183151e-01, 7.37220943e-02,
          1.79127135e-04, 2.95649227e-02, 2.72188812e-01, 6.40796900e-01,
          6.40796900e-01, 2.64236242e-01, 3.60212177e-01, 3.60212177e-01,
          3.60212177e-01, 2.98900664e-01, 3.60212177e-01, 3.60212177e-01,
          3.36571604e-01, 2.74215609e-01, 2.14737639e-01, 3.56186390e-01,
          4.01972145e-01, 4.01972145e-01, 2.76247084e-01, 2.90378690e-01,
          4.01972145e-01, 4.01972145e-01, 1.26667187e-01, 2.15263307e-01,
          3.95945638e-01, 3.95945638e-01, 3.95945638e-01, 4.90789600e-02,
          8.16069990e-02, 3.95945638e-01, 3.95945638e-01, 3.95945638e-01,
          3.57113853e-02, 6.27591461e-02, 4.37276185e-01, 4.37276185e-01,
          4.37276185e-01, 2.91647673e-01, 8.93030912e-02, 4.37276185e-01,
          3.64064336e-01, 1.40959799e-01, 3.82273823e-01, 3.82273823e-01,
          3.82273823e-01, 3.82273823e-01, 3.82273823e-01, 3.01131099e-01,
          3.82273823e-01, 9.39774290e-02, 1.28595918e-01, 3.36419195e-01,
          3.28596115e-01, 4.40136880e-01, 3.13962489e-01, 9.95012373e-02,
          2.61302531e-01, 4.40136880e-01, 4.40136880e-01, 3.57113853e-02,
          6.27591461e-02, 4.37276185e-01, 4.37276185e-01, 4.37276185e-01,
          2.91647673e-01, 8.93030912e-02, 4.37276185e-01, 3.64064336e-01,
          1.40959799e-01, 3.82273823e-01, 3.82273823e-01, 3.82273823e-01,
          3.82273823e-01, 3.82273823e-01, 3.01131099e-01, 3.82273823e-01,
          9.39774290e-02, 1.28595918e-01, 3.36419195e-01, 3.28596115e-01,
          4.40136880e-01, 3.13962489e-01, 9.95012373e-02, 2.61302531e-01,
          4.40136880e-01, 4.40136880e-01, 1.08438142e-01, 2.36557111e-01,
          4.11352456e-01, 4.11352456e-01, 3.33799362e-01, 2.20808133e-01,
          3.01912159e-01, 4.11352456e-01, 4.11352456e-01, 7.01182336e-02,
          1.21869631e-01, 4.31196183e-01, 4.31196183e-01, 4.31196183e-01,
          8.86284858e-02, 1.96005404e-01, 4.31196183e-01, 4.31196183e-01,
          1.92268733e-02, 1.16032057e-01, 3.62545788e-01, 4.81211662e-01,
          4.81211662e-01, 1.64030164e-01, 3.12777579e-01, 4.81211662e-01,
          1.74618140e-01, 3.66519839e-01, 3.66519839e-01, 3.66519839e-01,
          1.56675234e-01, 1.92019999e-01, 3.66519839e-01, 3.66519839e-01,
          3.66519839e-01, 3.59024614e-01, 1.23268969e-01, 4.06006485e-01,
          4.06006485e-01, 4.06006485e-01, 1.44418970e-01, 1.97507158e-01,
          4.06006485e-01, 4.06006485e-01, 3.10928553e-01, 1.26536876e-01,
          3.41428667e-01, 3.67019355e-01, 3.67019355e-01, 3.67019355e-01,
          2.35645309e-01, 3.67019355e-01, 3.67019355e-01, 3.67019355e-01 ]
      - [ 5.80393255e-01, 5.80393255e-01, 7.32402503e-02, 1.56729948e-02,
          1.36768535e-01, 2.48082325e-01, 2.33502477e-01, 2.90914029e-01,
          3.08993697e-01, 5.27007759e-01, 5.27007759e-01, 1.50441397e-02,
          2.83292099e-03, 3.88635248e-01, 5.27007759e-01, 2.73222439e-02,
          4.17606272e-02, 8.81091356e-02, 5.10978401e-01, 4.42800224e-01,
          5.74222766e-02, 4.11518179e-02, 5.10978401e-01, 5.10978401e-01,
          1.39587773e-02, 2.60806810e-02, 9.82967094e-02, 5.11649251e-01,
          4.50181335e-01, 6.97238697e-03, 1.32165188e-02, 5.11649251e-01,
          5.11649251e-01, 2.63146241e-03, 1.65564462e-03, 8.14810917e-02,
          5.02966106e-01, 5.02966106e-01, 1.17129767e-02, 1.97900236e-02,
          4.68077600e-01, 5.02966106e-01, 1.19000167e-01, 6.53614243e-03,
          4.71438058e-02, 5.04814446e-01, 5.04814446e-01, 9.87223815e-03,
          2.39188801e-02, 4.25085425e-01, 5.04814446e-01, 2.07419902e-01,
          1.31103219e-02, 7.67028406e-02, 5.65129817e-01, 5.65129817e-01,
          9.43418220e-03, 1.83794156e-01, 3.72532994e-01, 4.01257783e-01,
          6.16447907e-03, 8.81907530e-03, 1.47781953e-01, 4.71439362e-01,
          4.71439362e-01, 9.30101126e-02, 4.38923463e-02, 4.36378717e-02,
          4.71439362e-01, 4.71439362e-01, 2.84280211e-01, 1.13902926e-01,
          4.33712631e-01, 4.33712631e-01, 4.33712631e-01, 1.99410215e-01,
          6.31899908e-02, 4.33712631e-01, 4.33712631e-01, 8.58861506e-02,
          6.32501319e-02, 5.65129817e-01, 5.65129817e-01, 9.43418220e-03,
          1.83794156e-01, 3.72532994e-01, 4.01257783e-01, 6.16447907e-03,
          8.81907530e-03, 1.47781953e-01, 4.71439362e-01, 4.71439362e-01,
          9.30101126e-02, 4.38923463e-02, 4.36378717e-02, 4.71439362e-01,
          4.71439362e-01, 2.84280211e-01, 1.13902926e-01, 4.33712631e-01,
          4.33712631e-01, 4.33712631e-01, 1.99410215e-01, 6.31899908e-02,
          4.33712631e-01, 4.33712631e-01, 8.58861506e-02, 6.32501319e-02,
          1.43534020e-01, 8.97163451e-02, 3.17578055e-02, 5.47383726e-01,
          5.47383726e-01, 1.82223525e-02, 2.56495667e-03, 2.56219953e-01,
          5.47383726e-01, 1.14576936e-01, 4.77128327e-02, 1.88245680e-02,
          4.80576515e-01, 4.80576515e-01, 9.73740146e-02, 4.42615569e-01,
          4.80576515e-01, 2.84938008e-01, 1.71921521e-01, 2.30083972e-01,
          2.48890519e-01, 4.44237679e-01, 4.44237679e-01, 5.42006828e-02,
          2.42475301e-01, 4.44237679e-01, 4.44237679e-01, 2.35253479e-02,
          1.72849428e-02, 3.27296294e-02, 4.98253435e-01, 4.98253435e-01,
          8.19764845e-03, 2.65131169e-03, 4.98253435e-01, 4.98253435e-01,
          4.68075499e-02, 3.13529279e-03, 2.87868129e-03, 4.98123854e-01,
          4.98123854e-01, 1.50595699e-02, 8.92621931e-03, 4.98123854e-01,
          4.98123854e-01, 4.04841788e-02, 2.17907177e-03, 1.28775381e-03,
          4.98124361e-01, 4.98124361e-01, 2.35816520e-02, 1.76617391e-02,
          4.98124361e-01, 4.98124361e-01, 5.10978401e-01, 4.42800224e-01,
          5.74222766e-02, 4.11518179e-02, 5.10978401e-01, 5.10978401e-01,
          1.39587773e-02, 2.60806810e-02, 9.82967094e-02, 4.92512673e-01,
          4.92512673e-01, 1.13545172e-02, 3.64331864e-02, 4.92512673e-01,
          4.92512673e-01, 1.15139402e-01, 3.34836841e-02, 9.47180092e-02,
          6.19522691e-01, 6.19522691e-01, 4.92036948e-03, 3.38089950e-02,
          1.21849135e-01, 7.90273547e-02, 2.40822300e-01, 1.43894196e-01,
          3.53888422e-01, 5.04814446e-01, 5.04814446e-01, 9.87223815e-03,
          2.39188801e-02, 4.25085425e-01, 5.04814446e-01, 2.07419902e-01,
          1.31103219e-02, 7.67028406e-02, 4.23547566e-01, 3.57155472e-01,
          3.23104680e-01, 2.20316440e-01, 4.23547566e-01, 4.23547566e-01,
          5.59903458e-02, 1.09270439e-01, 4.02517617e-01, 1.81133479e-01,
          1.20844683e-02, 4.13947970e-01, 4.13947970e-01, 4.13947970e-01,
          2.65815258e-01, 3.21372449e-01, 4.13947970e-01, 3.21807086e-01,
          4.33712631e-01, 4.33712631e-01, 4.33712631e-01, 1.99410215e-01,
          6.31899908e-02, 4.33712631e-01, 4.33712631e-01, 8.58861506e-02,
          6.32501319e-02, 4.37084526e-01, 4.37084526e-01, 2.77790815e-01,
          9.73946005e-02, 2.16704771e-01, 2.18020394e-01, 2.24310338e-01,
          4.37084526e-01, 4.37084526e-01, 5.59272431e-02, 1.23382449e-01,
          4.32114750e-01, 4.32114750e-01, 9.51557755e-02, 1.86177507e-01,
          4.32114750e-01, 4.32114750e-01, 4.32114750e-01, 4.33712631e-01,
          4.33712631e-01, 4.33712631e-01, 1.99410215e-01, 6.31899908e-02,
          4.33712631e-01, 4.33712631e-01, 8.58861506e-02, 6.32501319e-02,
          4.37084526e-01, 4.37084526e-01, 2.77790815e-01, 9.73946005e-02,
          2.16704771e-01, 2.18020394e-01, 2.24310338e-01, 4.37084526e-01,
          4.37084526e-01, 5.59272431e-02, 1.23382449e-01, 4.32114750e-01,
          4.32114750e-01, 9.51557755e-02, 1.86177507e-01, 4.32114750e-01,
          4.32114750e-01, 4.32114750e-01, 1.71921521e-01, 2.30083972e-01,
          2.48890519e-01, 4.44237679e-01, 4.44237679e-01, 5.42006828e-02,
          2.42475301e-01, 4.44237679e-01, 4.44237679e-01, 2.74267465e-01,
          1.32066548e-01, 6.49053678e-02, 4.82493609e-01, 4.82493609e-01,
          4.82493609e-01, 7.40223005e-02, 1.61258921e-01, 4.10390168e-01,
          4.27748054e-01, 4.27748054e-01, 2.34283671e-01, 6.82422891e-02,
          4.27748054e-01, 4.27748054e-01, 4.27748054e-01, 1.15237698e-01,
          8.97743106e-02, 4.04841788e-02, 2.17907177e-03, 1.28775381e-03,
          4.98124361e-01, 4.98124361e-01, 2.35816520e-02, 1.76617391e-02,
          4.98124361e-01, 4.98124361e-01, 4.76067126e-01, 1.40968651e-01,
          1.14031304e-02, 4.76067126e-01, 4.76067126e-01, 1.92137420e-01,
          4.40108590e-03, 1.78176776e-01, 4.76067126e-01, 4.20062989e-01,
          4.20062989e-01, 1.18396237e-01, 4.20062989e-01, 4.20062989e-01,
          2.36252367e-01, 2.36303285e-01, 6.96952343e-02, 3.99327636e-01 ]
      - [ 4.46638495e-01, 4.46638495e-01, 4.13719386e-01, 3.00895333e-01,
          2.32185885e-01, 4.28361595e-02, 1.42090112e-01, 2.43811965e-01,
          4.46638495e-01, 6.58501804e-01, 6.58501804e-01, 2.30357736e-01,
          3.15273032e-02, 7.59414285e-02, 4.54851426e-02, 7.37018660e-02,
          5.28424270e-02, 2.36764953e-01, 5.47748744e-01, 5.47748744e-01,
          4.75068763e-02, 3.48392478e-03, 2.15742320e-01, 5.47748744e-01,
          3.07802688e-02, 3.85401631e-03, 2.11347505e-01, 6.50875509e-01,
          6.50875509e-01, 8.33892524e-02, 1.32167488e-02, 1.04329966e-01,
          3.29223812e-01, 1.11912629e-02, 1.60228461e-02, 1.39429376e-01,
          5.26923776e-01, 5.26923776e-01, 1.77231617e-03, 2.44196365e-03,
          3.85806710e-01, 5.26923776e-01, 6.52365088e-02, 8.47664196e-04,
          9.31625962e-02, 4.95766133e-01, 4.95766133e-01, 2.27308571e-02,
          1.68269165e-02, 4.88869041e-01, 4.95766133e-01, 7.91409388e-02,
          0., 1.07889473e-01, 5.06253660e-01, 5.06253660e-01,
          1.32580921e-01, 1.03828974e-01, 4.31066602e-01, 5.06253660e-01,
          5.17675802e-02, 7.32835941e-03, 9.56836641e-02, 4.50979918e-01,
          4.50979918e-01, 5.44433258e-02, 6.57955334e-02, 4.50979918e-01,
          4.50979918e-01, 3.62641245e-01, 1.22392818e-01, 1.67874411e-01,
          4.08824742e-01, 4.08824742e-01, 3.26399177e-01, 2.61311322e-01,
          4.08824742e-01, 4.08824742e-01, 1.91198021e-01, 1.91682264e-01,
          2.81507671e-01, 5.06253660e-01, 5.06253660e-01, 1.32580921e-01,
          1.03828974e-01, 4.31066602e-01, 5.06253660e-01, 5.17675802e-02,
          7.32835941e-03, 9.56836641e-02, 4.50979918e-01, 4.50979918e-01,
          5.44433258e-02, 6.57955334e-02, 4.50979918e-01, 4.50979918e-01,
          3.62641245e-01, 1.22392818e-01, 1.67874411e-01, 4.08824742e-01,
          4.08824742e-01, 3.26399177e-01, 2.61311322e-01, 4.08824742e-01,
          4.08824742e-01, 1.91198021e-01, 1.91682264e-01, 2.81507671e-01,
          3.12699765e-01, 2.23778650e-01, 2.79290766e-01, 4.23745960e-01,
          4.23745960e-01, 2.89225072e-01, 2.53513101e-02, 3.83314371e-01,
          4.23745960e-01, 4.23034728e-01, 1.00910820e-01, 9.60746855e-02,
          4.23034728e-01, 4.23034728e-01, 8.68508741e-02, 2.72076964e-01,
          4.23034728e-01, 4.23034728e-01, 3.93844306e-01, 3.93844306e-01,
          9.31060687e-02, 3.93844306e-01, 3.93844306e-01, 2.11686343e-01,
          1.09113201e-01, 3.93844306e-01, 3.93844306e-01, 6.80536702e-02,
          0., 4.82193939e-02, 6.33864224e-01, 6.33864224e-01,
          1.09765483e-02, 0., 1.19132429e-01, 4.10894543e-01,
          2.06279278e-01, 0., 4.12020721e-02, 5.18176913e-01,
          5.18176913e-01, 1.06367096e-02, 5.10834623e-03, 3.80677134e-01,
          5.18176913e-01, 3.15623999e-01, 7.11102984e-05, 1.99869648e-02,
          4.72929001e-01, 4.72929001e-01, 2.28073224e-02, 9.52805765e-03,
          4.72929001e-01, 4.72929001e-01, 5.47748744e-01, 5.47748744e-01,
          4.75068763e-02, 3.48392478e-03, 2.15742320e-01, 5.47748744e-01,
          3.07802688e-02, 3.85401631e-03, 2.11347505e-01, 4.98759240e-01,
          4.98759240e-01, 1.63638089e-02, 6.56187721e-03, 4.82024342e-01,
          4.98759240e-01, 6.77267611e-02, 1.11677386e-02, 1.06612913e-01,
          4.54439074e-01, 4.54439074e-01, 1.37297958e-01, 5.72613515e-02,
          4.54439074e-01, 4.54439074e-01, 2.82863677e-01, 1.98442683e-01,
          1.66973919e-01, 4.95766133e-01, 4.95766133e-01, 2.27308571e-02,
          1.68269165e-02, 4.88869041e-01, 4.95766133e-01, 7.91409388e-02,
          0., 1.07889473e-01, 4.43232864e-01, 4.43232864e-01,
          1.38436919e-02, 6.64585689e-03, 3.01990449e-01, 4.43232864e-01,
          4.43232864e-01, 2.65693128e-01, 2.18458444e-01, 4.16594267e-01,
          4.16594267e-01, 1.76759914e-01, 8.51494372e-02, 4.16594267e-01,
          4.16594267e-01, 4.16594267e-01, 2.19928041e-01, 2.03031391e-01,
          4.08824742e-01, 4.08824742e-01, 3.26399177e-01, 2.61311322e-01,
          4.08824742e-01, 4.08824742e-01, 1.91198021e-01, 1.91682264e-01,
          2.81507671e-01, 3.43530864e-01, 3.63570541e-01, 3.63570541e-01,
          2.49264345e-01, 3.63570541e-01, 3.63570541e-01, 3.63570541e-01,
          1.52053684e-01, 3.63570541e-01, 3.69653523e-01, 3.69653523e-01,
          2.41605207e-01, 2.71842122e-01, 3.69653523e-01, 3.69653523e-01,
          3.69653523e-01, 2.10174590e-01, 3.69653523e-01, 4.08824742e-01,
          4.08824742e-01, 3.26399177e-01, 2.61311322e-01, 4.08824742e-01,
          4.08824742e-01, 1.91198021e-01, 1.91682264e-01, 2.81507671e-01,
          3.43530864e-01, 3.63570541e-01, 3.63570541e-01, 2.49264345e-01,
          3.63570541e-01, 3.63570541e-01, 3.63570541e-01, 1.52053684e-01,
          3.63570541e-01, 3.69653523e-01, 3.69653523e-01, 2.41605207e-01,
          2.71842122e-01, 3.69653523e-01, 3.69653523e-01, 3.69653523e-01,
          2.10174590e-01, 3.69653523e-01, 3.93844306e-01, 3.93844306e-01,
          9.31060687e-02, 3.93844306e-01, 3.93844306e-01, 2.11686343e-01,
          1.09113201e-01, 3.93844306e-01, 3.93844306e-01, 3.62403899e-01,
          3.62403899e-01, 1.98928714e-01, 3.14173579e-01, 3.62403899e-01,
          2.64730453e-01, 3.62403899e-01, 3.62403899e-01, 3.62403899e-01,
          3.85202914e-01, 2.49126062e-01, 1.36740580e-01, 3.85202914e-01,
          3.85202914e-01, 1.58437222e-01, 3.85202914e-01, 3.85202914e-01,
          3.85202914e-01, 3.15623999e-01, 7.11102984e-05, 1.99869648e-02,
          4.72929001e-01, 4.72929001e-01, 2.28073224e-02, 9.52805765e-03,
          4.72929001e-01, 4.72929001e-01, 1.41457528e-01, 3.92691419e-03,
          9.09927562e-02, 4.71242964e-01, 4.71242964e-01, 6.30931631e-02,
          2.73362994e-01, 4.71242964e-01, 4.71242964e-01, 1.65692702e-01,
          1.72113210e-01, 1.93128198e-01, 4.28657830e-01, 4.28657830e-01,
          7.91877434e-02, 4.00102228e-01, 4.28657830e-01, 4.28657830e-01 ]
      - [ 5.38376212e-01, 5.38376212e-01, 2.25598410e-01, 1.58955619e-01,
          4.81579565e-02, 5.56317344e-02, 1.35903686e-01, 3.78116250e-01,
          4.14618284e-01, 6.13698125e-01, 6.13698125e-01, 3.43283713e-02,
          4.85992432e-03, 1.83894306e-01, 2.53810197e-01, 2.33106874e-02,
          1.83453914e-02, 3.74570489e-01, 4.71783608e-01, 4.71783608e-01,
          1.31144095e-02, 3.01402416e-02, 4.71783608e-01, 4.71783608e-01,
          5.58945835e-02, 1.38373789e-03, 3.17430288e-01, 4.68756825e-01,
          4.68756825e-01, 1.04022399e-02, 2.00323258e-02, 4.68756825e-01,
          4.68756825e-01, 7.55792186e-02, 1.44854737e-02, 3.31594020e-01,
          4.68620390e-01, 4.68620390e-01, 1.33836921e-02, 6.85424060e-02,
          4.68620390e-01, 4.68620390e-01, 1.06297567e-01, 3.59247671e-03,
          3.17348033e-01, 4.47176129e-01, 4.47176129e-01, 1.12432837e-01,
          9.34204236e-02, 4.47176129e-01, 4.47176129e-01, 6.35950267e-02,
          2.73031997e-04, 4.12618816e-01, 3.77394289e-01, 3.77394289e-01,
          1.27747700e-01, 3.77394289e-01, 3.77394289e-01, 3.77394289e-01,
          1.23581842e-01, 3.31781447e-01, 3.77394289e-01, 3.52639765e-01,
          3.52639765e-01, 4.04765494e-02, 3.52639765e-01, 3.52639765e-01,
          3.52639765e-01, 3.52639765e-01, 3.52639765e-01, 3.52639765e-01,
          3.75690132e-01, 2.75874168e-01, 2.84011185e-01, 3.57885242e-01,
          3.75690132e-01, 3.75690132e-01, 7.53701776e-02, 3.75690132e-01,
          3.75690132e-01, 3.77394289e-01, 3.77394289e-01, 1.27747700e-01,
          3.77394289e-01, 3.77394289e-01, 3.77394289e-01, 1.23581842e-01,
          3.31781447e-01, 3.77394289e-01, 3.52639765e-01, 3.52639765e-01,
          4.04765494e-02, 3.52639765e-01, 3.52639765e-01, 3.52639765e-01,
          3.52639765e-01, 3.52639765e-01, 3.52639765e-01, 3.75690132e-01,
          2.75874168e-01, 2.84011185e-01, 3.57885242e-01, 3.75690132e-01,
          3.75690132e-01, 7.53701776e-02, 3.75690132e-01, 3.75690132e-01,
          1.38499543e-01, 3.36205736e-02, 1.55441821e-01, 5.10923147e-01,
          5.10923147e-01, 2.76538245e-02, 2.30699382e-03, 4.08074975e-01,
          5.10923147e-01, 2.33591095e-01, 3.17263138e-03, 1.08986937e-01,
          4.81062561e-01, 4.81062561e-01, 4.95613813e-02, 2.45172679e-02,
          4.81062561e-01, 4.81062561e-01, 4.36342329e-01, 6.88700080e-02,
          1.81502730e-01, 4.36342329e-01, 4.36342329e-01, 7.72830024e-02,
          3.04323924e-03, 4.36342329e-01, 4.36342329e-01, 1.05397262e-01,
          1.07227422e-01, 4.51663643e-01, 5.95533729e-01, 5.95533729e-01,
          1.69913292e-01, 1.23325296e-01, 8.20572823e-02, 8.55183676e-02,
          9.64622498e-02, 1.64769255e-02, 1.77951857e-01, 6.28718495e-01,
          6.28718495e-01, 1.51772406e-02, 2.83148903e-02, 1.95884392e-01,
          3.50003958e-01, 1.72244549e-01, 3.77635763e-04, 1.53520033e-01,
          4.88590539e-01, 4.88590539e-01, 2.74446271e-02, 9.85449180e-04,
          4.74306971e-01, 4.88590539e-01, 4.71783608e-01, 4.71783608e-01,
          1.31144095e-02, 3.01402416e-02, 4.71783608e-01, 4.71783608e-01,
          5.58945835e-02, 1.38373789e-03, 3.17430288e-01, 4.62230921e-01,
          4.62230921e-01, 2.83743385e-02, 7.77385011e-02, 4.62230921e-01,
          4.62230921e-01, 1.94249138e-01, 1.52993798e-02, 3.09738696e-01,
          4.42934662e-01, 4.42934662e-01, 3.28230485e-02, 1.75315291e-01,
          4.42934662e-01, 4.42934662e-01, 3.44883710e-01, 1.46091416e-01,
          1.96751118e-01, 4.47176129e-01, 4.47176129e-01, 1.12432837e-01,
          9.34204236e-02, 4.47176129e-01, 4.47176129e-01, 6.35950267e-02,
          2.73031997e-04, 4.12618816e-01, 3.99122417e-01, 3.99122417e-01,
          9.58715603e-02, 3.19224186e-02, 3.99122417e-01, 3.99122417e-01,
          3.99122417e-01, 1.73234329e-01, 3.99122417e-01, 3.90171379e-01,
          3.90171379e-01, 2.53790747e-02, 2.19262555e-01, 3.90171379e-01,
          3.90171379e-01, 3.90171379e-01, 2.13756680e-01, 3.74862254e-01,
          3.75690132e-01, 2.75874168e-01, 2.84011185e-01, 3.57885242e-01,
          3.75690132e-01, 3.75690132e-01, 7.53701776e-02, 3.75690132e-01,
          3.75690132e-01, 3.35291743e-01, 3.35291743e-01, 3.35291743e-01,
          3.35291743e-01, 3.35291743e-01, 3.35291743e-01, 3.35291743e-01,
          3.11905980e-01, 3.35291743e-01, 3.50567549e-01, 3.46909016e-01,
          2.15686172e-01, 3.03719342e-01, 3.50567549e-01, 3.50567549e-01,
          3.50567549e-01, 3.50567549e-01, 3.50567549e-01, 3.75690132e-01,
          2.75874168e-01, 2.84011185e-01, 3.57885242e-01, 3.75690132e-01,
          3.75690132e-01, 7.53701776e-02, 3.75690132e-01, 3.75690132e-01,
          3.35291743e-01, 3.35291743e-01, 3.35291743e-01, 3.35291743e-01,
          3.35291743e-01, 3.35291743e-01, 3.35291743e-01, 3.11905980e-01,
          3.35291743e-01, 3.50567549e-01, 3.46909016e-01, 2.15686172e-01,
          3.03719342e-01, 3.50567549e-01, 3.50567549e-01, 3.50567549e-01,
          3.50567549e-01, 3.50567549e-01, 4.36342329e-01, 6.88700080e-02,
          1.81502730e-01, 4.36342329e-01, 4.36342329e-01, 7.72830024e-02,
          3.04323924e-03, 4.36342329e-01, 4.36342329e-01, 3.88699859e-01,
          1.73556760e-01, 1.78714454e-01, 3.88699859e-01, 3.88699859e-01,
          1.65923119e-01, 3.88699859e-01, 3.88699859e-01, 3.88699859e-01,
          2.82660007e-01, 1.26086295e-01, 1.57429710e-01, 4.06704992e-01,
          4.06704992e-01, 3.03895086e-01, 3.48382652e-01, 4.06704992e-01,
          4.06704992e-01, 1.72244549e-01, 3.77635763e-04, 1.53520033e-01,
          4.88590539e-01, 4.88590539e-01, 2.74446271e-02, 9.85449180e-04,
          4.74306971e-01, 4.88590539e-01, 2.42566258e-01, 1.53973210e-03,
          1.22448832e-01, 4.74441499e-01, 4.74441499e-01, 3.56827043e-02,
          1.40622497e-01, 4.74441499e-01, 4.74441499e-01, 2.23402083e-01,
          1.54508770e-01, 2.85874993e-01, 4.45758909e-01, 4.45758909e-01,
          5.37481233e-02, 2.05787644e-01, 4.45758909e-01, 4.45758909e-01 ]
      - [ 4.31529135e-01, 4.66976672e-01, 1.77509040e-01, 7.95279071e-02,
          1.30542144e-01, 5.35386205e-01, 4.63145167e-01, 9.67881978e-02,
          1.58061892e-01, 3.92700881e-01, 3.92700881e-01, 3.92700881e-01,
          3.92700881e-01, 3.92421365e-01, 3.92700881e-01, 5.20366207e-02,
          8.07401687e-02, 2.48567060e-01, 6.07625484e-01, 1.06288239e-01,
          9.44437459e-02, 2.21413836e-01, 4.06288534e-01, 1.20439187e-01,
          1.40872374e-02, 8.06238726e-02, 6.07625484e-01, 3.88319343e-01,
          3.88319343e-01, 3.88319343e-01, 1.55932577e-02, 3.99676897e-02,
          3.88319343e-01, 3.88319343e-01, 3.88319343e-01, 2.99213171e-01,
          1.76763624e-01, 1.37055501e-01, 4.08867568e-01, 4.08867568e-01,
          2.75432616e-01, 1.84822902e-01, 4.08867568e-01, 4.08867568e-01,
          4.08867568e-01, 1.06358841e-01, 2.74285339e-02, 4.77570236e-01,
          5.26449621e-01, 5.26449621e-01, 2.96808630e-02, 2.61176437e-01,
          3.41202259e-01, 1.21627524e-01, 3.24811824e-02, 5.35987496e-01,
          5.35987496e-01, 3.06422487e-02, 4.03900966e-02, 7.62229413e-02,
          5.35987496e-01, 3.50523025e-01, 2.23155282e-02, 1.60764918e-01,
          4.55108970e-01, 4.55108970e-01, 3.28116000e-01, 1.02735765e-01,
          8.83285627e-02, 4.55108970e-01, 4.55108970e-01, 1.22863151e-01,
          2.04883069e-01, 3.34622473e-01, 3.83434355e-01, 3.83434355e-01,
          3.49224925e-01, 6.95502013e-02, 3.56843412e-01, 3.83434355e-01,
          3.83434355e-01, 3.24811824e-02, 5.35987496e-01, 5.35987496e-01,
          3.06422487e-02, 4.03900966e-02, 7.62229413e-02, 5.35987496e-01,
          3.50523025e-01, 2.23155282e-02, 1.60764918e-01, 4.55108970e-01,
          4.55108970e-01, 3.28116000e-01, 1.02735765e-01, 8.83285627e-02,
          4.55108970e-01, 4.55108970e-01, 1.22863151e-01, 2.04883069e-01,
          3.34622473e-01, 3.83434355e-01, 3.83434355e-01, 3.49224925e-01,
          6.95502013e-02, 3.56843412e-01, 3.83434355e-01, 3.83434355e-01,
          1.86124202e-02, 2.68824726e-01, 4.73186225e-01, 4.73186225e-01,
          3.48982983e-03, 7.35915974e-02, 4.73186225e-01, 4.73186225e-01,
          1.47009760e-01, 3.01393420e-02, 3.76919687e-01, 4.15418476e-01,
          4.15418476e-01, 2.56749213e-01, 9.44663584e-02, 4.15418476e-01,
          4.15418476e-01, 2.96208233e-01, 2.17501163e-01, 2.59374171e-01,
          3.62567931e-01, 3.80330145e-01, 3.80330145e-01, 3.80330145e-01,
          1.64036721e-01, 3.80330145e-01, 3.80330145e-01, 5.21711856e-02,
          4.86821048e-02, 4.80505794e-01, 4.88655150e-01, 6.90739676e-02,
          3.32020968e-02, 1.92137599e-01, 4.88655150e-01, 4.88655150e-01,
          4.36122417e-01, 1.53275533e-02, 1.87483266e-01, 4.36122417e-01,
          4.36122417e-01, 2.63723712e-02, 9.24625173e-02, 4.36122417e-01,
          4.36122417e-01, 4.59187418e-01, 4.57513362e-01, 7.36565515e-02,
          2.76499540e-01, 4.59187418e-01, 2.47536555e-01, 9.31474660e-03,
          1.01476386e-01, 4.59187418e-01, 6.07625484e-01, 1.06288239e-01,
          9.44437459e-02, 2.21413836e-01, 4.06288534e-01, 1.20439187e-01,
          1.40872374e-02, 8.06238726e-02, 6.07625484e-01, 4.79749531e-01,
          3.52166891e-02, 3.71312164e-02, 4.54118967e-01, 3.07125241e-01,
          2.03825943e-02, 3.38376760e-02, 4.79749531e-01, 4.79749531e-01,
          6.20191991e-02, 5.29926158e-02, 2.83087909e-01, 5.18836677e-01,
          2.38660604e-01, 3.65909487e-02, 2.05310971e-01, 5.18836677e-01,
          5.18836677e-01, 1.06358841e-01, 2.74285339e-02, 4.77570236e-01,
          5.26449621e-01, 5.26449621e-01, 2.96808630e-02, 2.61176437e-01,
          3.41202259e-01, 1.21627524e-01, 2.64974032e-02, 8.79257265e-03,
          1.40398219e-02, 6.66719496e-01, 6.66719496e-01, 7.06937015e-02,
          8.68155137e-02, 2.47035950e-01, 1.72558084e-01, 2.13498417e-02,
          1.08237907e-01, 3.28996271e-01, 4.17849064e-01, 4.17849064e-01,
          4.92621288e-02, 4.17849064e-01, 4.17849064e-01, 4.17849064e-01,
          2.04883069e-01, 3.34622473e-01, 3.83434355e-01, 3.83434355e-01,
          3.49224925e-01, 6.95502013e-02, 3.56843412e-01, 3.83434355e-01,
          3.83434355e-01, 4.11065668e-01, 2.71689504e-01, 2.22147182e-01,
          4.11065668e-01, 4.11065668e-01, 1.13854773e-01, 1.33432135e-01,
          4.07507122e-01, 4.11065668e-01, 3.71327698e-01, 3.71327698e-01,
          3.71327698e-01, 2.57760137e-01, 3.71327698e-01, 4.06648703e-02,
          3.71327698e-01, 3.17633122e-01, 3.71327698e-01, 2.04883069e-01,
          3.34622473e-01, 3.83434355e-01, 3.83434355e-01, 3.49224925e-01,
          6.95502013e-02, 3.56843412e-01, 3.83434355e-01, 3.83434355e-01,
          4.11065668e-01, 2.71689504e-01, 2.22147182e-01, 4.11065668e-01,
          4.11065668e-01, 1.13854773e-01, 1.33432135e-01, 4.07507122e-01,
          4.11065668e-01, 3.71327698e-01, 3.71327698e-01, 3.71327698e-01,
          2.57760137e-01, 3.71327698e-01, 4.06648703e-02, 3.71327698e-01,
          3.17633122e-01, 3.71327698e-01, 2.17501163e-01, 2.59374171e-01,
          3.62567931e-01, 3.80330145e-01, 3.80330145e-01, 3.80330145e-01,
          1.64036721e-01, 3.80330145e-01, 3.80330145e-01, 3.46144170e-01,
          3.62853587e-01, 4.04460907e-01, 4.04460907e-01, 2.06911981e-01,
          1.40215084e-01, 1.66294068e-01, 4.04460907e-01, 4.04460907e-01,
          2.51032710e-01, 1.52779669e-01, 4.09697503e-01, 4.09697503e-01,
          1.01769403e-01, 4.09697503e-01, 4.09697503e-01, 4.09262598e-01,
          2.45534763e-01, 4.59187418e-01, 4.57513362e-01, 7.36565515e-02,
          2.76499540e-01, 4.59187418e-01, 2.47536555e-01, 9.31474660e-03,
          1.01476386e-01, 4.59187418e-01, 3.65137309e-01, 3.65137309e-01,
          1.70195356e-01, 3.08527708e-01, 3.65137309e-01, 3.65137309e-01,
          2.68783838e-01, 3.65137309e-01, 3.65137309e-01, 3.73495966e-01,
          3.73495966e-01, 2.32832193e-01, 3.73495966e-01, 3.73495966e-01,
          3.73495966e-01, 3.38414550e-01, 3.49963576e-01, 8.69638622e-02 ]
      - [ 4.22574803e-02, 1.08813345e-01, 1.57393873e-01, 1.06677920e-01,
          3.44221354e-01, 7.84576178e-01, 4.55278695e-01, 3.04363668e-02,
          1.17240520e-02, 2.28348091e-01, 5.34789145e-01, 1.53954804e-01,
          2.00624004e-01, 5.34789145e-01, 5.34789145e-01, 1.41710311e-01,
          1.79868490e-02, 1.26799485e-02, 5.69332898e-01, 5.69332898e-01,
          1.03071749e-01, 1.29419267e-01, 4.06231403e-01, 1.59321412e-01,
          1.28139257e-01, 3.05851936e-01, 1.35238320e-01, 3.63139696e-02,
          1.50159180e-01, 2.90148914e-01, 2.49210954e-01, 2.26195201e-01,
          6.08692348e-01, 6.08692348e-01, 1.71007708e-01, 4.84027602e-02,
          3.46961170e-01, 4.64372128e-01, 4.64372128e-01, 4.64372128e-01,
          4.64372128e-01, 1.02832295e-01, 1.83770061e-02, 3.18482965e-02,
          2.20754668e-02, 4.48511660e-01, 4.48511660e-01, 4.48511660e-01,
          4.08442467e-01, 4.48511660e-01, 6.78464770e-02, 1.24312714e-01,
          6.25734776e-02, 8.46896600e-03, 2.26838559e-01, 2.49598652e-01,
          4.03845638e-01, 3.86497378e-01, 4.03845638e-01, 2.94445336e-01,
          4.03845638e-01, 3.85703832e-01, 8.99484158e-02, 1.05860814e-01,
          5.14230430e-01, 5.14230430e-01, 4.68874484e-01, 4.77301538e-01,
          2.25029942e-02, 1.78127419e-02, 2.47777048e-02, 7.54609704e-02,
          4.12295153e-03, 5.17579436e-01, 5.17579436e-01, 1.89997196e-01,
          2.58103430e-01, 2.57380754e-01, 5.17579436e-01, 1.48853615e-01,
          5.47942892e-03, 2.26838559e-01, 2.49598652e-01, 4.03845638e-01,
          3.86497378e-01, 4.03845638e-01, 2.94445336e-01, 4.03845638e-01,
          3.85703832e-01, 8.99484158e-02, 1.05860814e-01, 5.14230430e-01,
          5.14230430e-01, 4.68874484e-01, 4.77301538e-01, 2.25029942e-02,
          1.78127419e-02, 2.47777048e-02, 7.54609704e-02, 4.12295153e-03,
          5.17579436e-01, 5.17579436e-01, 1.89997196e-01, 2.58103430e-01,
          2.57380754e-01, 5.17579436e-01, 1.48853615e-01, 5.47942892e-03,
          8.20958465e-02, 1.78757906e-01, 4.97988701e-01, 4.10901397e-01,
          1.58976197e-01, 3.90443057e-02, 4.97988701e-01, 4.97988701e-01,
          1.29290700e-01, 3.45072336e-02, 6.34943068e-01, 6.34943068e-01,
          4.02518123e-01, 1.32119611e-01, 1.58636440e-02, 2.41998043e-02,
          3.74186337e-02, 6.67132214e-02, 2.61189276e-03, 5.20685077e-01,
          5.20685077e-01, 7.39416257e-02, 2.94846520e-02, 3.30444545e-01,
          5.20685077e-01, 2.56702840e-01, 5.25974063e-03, 7.78532922e-02,
          1.07819863e-01, 1.88148394e-01, 1.69368237e-01, 5.15110604e-02,
          2.20199600e-02, 1.10270292e-01, 6.69420421e-01, 6.69420421e-01,
          2.43410811e-01, 4.99398291e-01, 4.99398291e-01, 2.80651271e-01,
          9.28653032e-02, 6.74462467e-02, 7.88033158e-02, 2.99030960e-01,
          4.99398291e-01, 1.42289791e-02, 4.56323922e-01, 4.56323922e-01,
          1.90880150e-01, 2.00012162e-01, 4.56323922e-01, 4.56323922e-01,
          2.91266739e-01, 3.22013050e-02, 5.69332898e-01, 5.69332898e-01,
          1.03071749e-01, 1.29419267e-01, 4.06231403e-01, 1.59321412e-01,
          1.28139257e-01, 3.05851936e-01, 1.35238320e-01, 2.66984165e-01,
          3.07399094e-01, 4.89348844e-02, 4.23081696e-01, 4.23081696e-01,
          6.57447129e-02, 4.23081696e-01, 4.23081696e-01, 3.27550650e-01,
          2.91340221e-02, 4.69549112e-02, 5.38472295e-01, 7.51117289e-01,
          3.44578028e-01, 6.46298751e-02, 7.08634183e-02, 8.56437087e-02,
          7.24001043e-03, 4.48511660e-01, 4.48511660e-01, 4.48511660e-01,
          4.08442467e-01, 4.48511660e-01, 6.78464770e-02, 1.24312714e-01,
          6.25734776e-02, 8.46896600e-03, 2.22827606e-02, 5.22227846e-02,
          4.93232980e-02, 2.99967378e-01, 5.04610717e-01, 1.84010029e-01,
          5.22617877e-01, 5.22617877e-01, 2.53758132e-01, 5.64622320e-02,
          1.46161363e-01, 4.51149911e-01, 4.51149911e-01, 3.10196966e-01,
          1.73357889e-01, 4.51149911e-01, 4.51149911e-01, 1.74706683e-01,
          4.12295153e-03, 5.17579436e-01, 5.17579436e-01, 1.89997196e-01,
          2.58103430e-01, 2.57380754e-01, 5.17579436e-01, 1.48853615e-01,
          5.47942892e-03, 5.26083726e-03, 2.68578995e-02, 6.04501516e-02,
          4.24538285e-01, 4.49452639e-01, 4.49452639e-01, 4.49452639e-01,
          4.49452639e-01, 5.33273555e-02, 1.11992866e-01, 3.93664211e-01,
          3.93664211e-01, 2.95319647e-01, 3.93664211e-01, 3.24600130e-01,
          3.93664211e-01, 3.93664211e-01, 1.26839712e-01, 4.12295153e-03,
          5.17579436e-01, 5.17579436e-01, 1.89997196e-01, 2.58103430e-01,
          2.57380754e-01, 5.17579436e-01, 1.48853615e-01, 5.47942892e-03,
          5.26083726e-03, 2.68578995e-02, 6.04501516e-02, 4.24538285e-01,
          4.49452639e-01, 4.49452639e-01, 4.49452639e-01, 4.49452639e-01,
          5.33273555e-02, 1.11992866e-01, 3.93664211e-01, 3.93664211e-01,
          2.95319647e-01, 3.93664211e-01, 3.24600130e-01, 3.93664211e-01,
          3.93664211e-01, 1.26839712e-01, 2.61189276e-03, 5.20685077e-01,
          5.20685077e-01, 7.39416257e-02, 2.94846520e-02, 3.30444545e-01,
          5.20685077e-01, 2.56702840e-01, 5.25974063e-03, 5.90312630e-02,
          9.74644274e-02, 1.46621749e-01, 1.15693554e-01, 1.18074179e-01,
          5.74872673e-01, 5.74872673e-01, 5.16577780e-01, 6.81276172e-02,
          4.00647432e-01, 5.04582226e-01, 5.04582226e-01, 3.94656360e-01,
          3.39526445e-01, 1.31809801e-01, 4.54137512e-02, 8.17310736e-02,
          1.67594284e-01, 1.42289791e-02, 4.56323922e-01, 4.56323922e-01,
          1.90880150e-01, 2.00012162e-01, 4.56323922e-01, 4.56323922e-01,
          2.91266739e-01, 3.22013050e-02, 4.32332724e-01, 4.32332724e-01,
          2.14154229e-01, 2.31616981e-02, 8.22087750e-03, 3.96073550e-01,
          4.32332724e-01, 4.32332724e-01, 2.11410925e-01, 6.87340021e-01,
          6.87340021e-01, 1.82782799e-01, 8.62969607e-02, 1.48726841e-02,
          4.26677708e-03, 1.10349841e-02, 3.82230766e-02, 7.47454911e-02 ]
      - [ 1.45425489e-02, 1.54714501e-02, 2.90351640e-02, 3.58477011e-02,
          2.15751559e-01, 6.86637521e-01, 6.86637521e-01, 1.91663671e-02,
          2.66144220e-02, 3.45868260e-01, 5.13448834e-01, 1.80195913e-01,
          8.81348625e-02, 5.13448834e-01, 5.13448834e-01, 1.95482105e-01,
          4.41840850e-02, 6.28843084e-02, 5.36384583e-01, 5.36384583e-01,
          1.00736387e-01, 3.28764915e-02, 2.80704856e-01, 8.06164294e-02,
          1.00502290e-01, 5.36384583e-01, 1.57779321e-01, 4.34400328e-02,
          1.06562302e-01, 1.66071892e-01, 1.41121536e-01, 1.85588568e-01,
          6.65605605e-01, 6.65605605e-01, 1.00860484e-01, 4.40437831e-02,
          4.26243097e-01, 4.57649320e-01, 4.57649320e-01, 4.20381427e-01,
          4.57021505e-01, 7.21878111e-02, 4.25630957e-02, 2.93273069e-02,
          3.72525305e-02, 3.86303663e-01, 4.59708929e-01, 4.59708929e-01,
          3.58496875e-01, 4.59708929e-01, 1.16069056e-01, 2.13096946e-01,
          1.51554495e-01, 4.25417572e-02, 2.46737719e-01, 4.65775907e-01,
          2.49094263e-01, 2.25924820e-01, 1.47569343e-01, 3.16907316e-01,
          4.86963093e-01, 4.86963093e-01, 8.80151019e-02, 1.10175312e-01,
          4.91692454e-01, 4.91692454e-01, 4.91692454e-01, 4.91692454e-01,
          1.00556195e-01, 6.07974753e-02, 3.92408855e-02, 2.36021187e-02,
          7.03614391e-03, 5.37973106e-01, 5.37973106e-01, 1.61613330e-01,
          2.17527494e-01, 1.58231288e-01, 5.37973106e-01, 1.66886240e-01,
          2.77288514e-03, 2.46737719e-01, 4.65775907e-01, 2.49094263e-01,
          2.25924820e-01, 1.47569343e-01, 3.16907316e-01, 4.86963093e-01,
          4.86963093e-01, 8.80151019e-02, 1.10175312e-01, 4.91692454e-01,
          4.91692454e-01, 4.91692454e-01, 4.91692454e-01, 1.00556195e-01,
          6.07974753e-02, 3.92408855e-02, 2.36021187e-02, 7.03614391e-03,
          5.37973106e-01, 5.37973106e-01, 1.61613330e-01, 2.17527494e-01,
          1.58231288e-01, 5.37973106e-01, 1.66886240e-01, 2.77288514e-03,
          1.01879872e-01, 1.72752976e-01, 2.62011409e-01, 2.00456873e-01,
          1.57702848e-01, 1.04143769e-01, 6.12461269e-01, 6.12461269e-01,
          2.42683008e-01, 1.32012650e-01, 6.80136800e-01, 6.80136800e-01,
          1.99791312e-01, 6.83448240e-02, 3.50832939e-02, 3.50172743e-02,
          5.01280725e-02, 3.24548632e-02, 1.35390712e-02, 5.32017231e-01,
          5.32017231e-01, 7.51581881e-03, 4.73554665e-03, 6.13720976e-02,
          5.32017231e-01, 3.76093954e-01, 9.18580219e-03, 3.84816639e-02,
          6.43712133e-02, 6.49388283e-02, 5.74705079e-02, 3.23369950e-02,
          9.76394024e-03, 1.14144497e-01, 6.94891691e-01, 6.94891691e-01,
          1.80889457e-01, 4.87055302e-01, 4.87055302e-01, 1.82916880e-01,
          1.09279558e-01, 5.11266813e-02, 7.46021839e-03, 4.50194985e-01,
          4.87055302e-01, 2.39643287e-02, 5.18149018e-01, 5.18149018e-01,
          1.28144264e-01, 1.59927309e-01, 1.14718638e-01, 5.18149018e-01,
          3.64663512e-01, 2.60425638e-02, 5.36384583e-01, 5.36384583e-01,
          1.00736387e-01, 3.28764915e-02, 2.80704856e-01, 8.06164294e-02,
          1.00502290e-01, 5.36384583e-01, 1.57779321e-01, 1.27639726e-01,
          1.78354174e-01, 3.60377021e-02, 4.78821665e-01, 3.82904798e-01,
          5.61244898e-02, 4.35651809e-01, 4.78821665e-01, 3.84340912e-01,
          2.39839237e-02, 9.03159007e-03, 5.27787864e-01, 7.66161203e-01,
          3.44236642e-01, 1.21009173e-02, 4.27818075e-02, 7.16152117e-02,
          2.29964983e-02, 3.86303663e-01, 4.59708929e-01, 4.59708929e-01,
          3.58496875e-01, 4.59708929e-01, 1.16069056e-01, 2.13096946e-01,
          1.51554495e-01, 4.25417572e-02, 2.20838655e-02, 8.43630172e-03,
          6.69454737e-03, 1.98456064e-01, 4.55398679e-01, 3.21128219e-01,
          5.41384995e-01, 5.41384995e-01, 2.40621015e-01, 1.69794023e-01,
          1.04821317e-01, 4.58444208e-01, 4.58444208e-01, 1.63659990e-01,
          2.08535418e-01, 4.58444208e-01, 4.58444208e-01, 2.11298704e-01,
          7.03614391e-03, 5.37973106e-01, 5.37973106e-01, 1.61613330e-01,
          2.17527494e-01, 1.58231288e-01, 5.37973106e-01, 1.66886240e-01,
          2.77288514e-03, 3.97461234e-03, 3.29473126e-03, 1.71757024e-02,
          3.04833859e-01, 4.74669546e-01, 4.74669546e-01, 4.74669546e-01,
          4.74669546e-01, 2.77259219e-02, 3.08773875e-01, 1.13551348e-01,
          3.78581733e-01, 3.78581733e-01, 3.78581733e-01, 2.44192719e-01,
          3.78581733e-01, 3.78581733e-01, 3.34263355e-01, 7.03614391e-03,
          5.37973106e-01, 5.37973106e-01, 1.61613330e-01, 2.17527494e-01,
          1.58231288e-01, 5.37973106e-01, 1.66886240e-01, 2.77288514e-03,
          3.97461234e-03, 3.29473126e-03, 1.71757024e-02, 3.04833859e-01,
          4.74669546e-01, 4.74669546e-01, 4.74669546e-01, 4.74669546e-01,
          2.77259219e-02, 3.08773875e-01, 1.13551348e-01, 3.78581733e-01,
          3.78581733e-01, 3.78581733e-01, 2.44192719e-01, 3.78581733e-01,
          3.78581733e-01, 3.34263355e-01, 1.35390712e-02, 5.32017231e-01,
          5.32017231e-01, 7.51581881e-03, 4.73554665e-03, 6.13720976e-02,
          5.32017231e-01, 3.76093954e-01, 9.18580219e-03, 3.64433303e-02,
          2.17944905e-02, 3.22230086e-02, 1.41858170e-02, 4.87666950e-02,
          3.19802761e-01, 6.64002359e-01, 6.64002359e-01, 6.22740164e-02,
          4.66334671e-01, 4.66334671e-01, 4.66334671e-01, 3.46913695e-01,
          2.05167532e-01, 5.71593866e-02, 1.71309859e-01, 2.46308684e-01,
          2.95318037e-01, 2.39643287e-02, 5.18149018e-01, 5.18149018e-01,
          1.28144264e-01, 1.59927309e-01, 1.14718638e-01, 5.18149018e-01,
          3.64663512e-01, 2.60425638e-02, 3.53433549e-01, 1.24624997e-01,
          2.98441276e-02, 1.02487765e-02, 3.26397792e-02, 1.55551314e-01,
          6.23378992e-01, 6.23378992e-01, 2.23314255e-01, 6.89130962e-01,
          6.89130962e-01, 1.62779078e-01, 4.28432003e-02, 2.24796161e-02,
          7.35655427e-03, 1.74283013e-02, 8.50837771e-03, 1.18530549e-01 ]
      - [ 5.28837681e-01, 5.28837681e-01, 7.29268193e-02, 1.19684460e-02,
          6.87843934e-02, 5.28837681e-01, 3.79815519e-01, 2.43035727e-03,
          3.53841260e-02, 5.01201689e-01, 5.01201689e-01, 2.75696144e-02,
          5.81901567e-03, 3.17547113e-01, 5.01201689e-01, 1.90617487e-01,
          2.82462150e-01, 1.53736457e-01, 3.75872642e-01, 3.60406458e-01,
          3.07988338e-02, 3.75872642e-01, 3.75872642e-01, 1.33123964e-01,
          3.75872642e-01, 3.75872642e-01, 3.75872642e-01, 2.82081753e-01,
          4.97718155e-01, 4.13661540e-01, 2.89479066e-02, 1.64533444e-02,
          4.97718155e-01, 4.97718155e-01, 5.58038475e-03, 5.76395774e-03,
          4.43814576e-01, 4.43814576e-01, 4.18263346e-01, 2.53197193e-01,
          8.25096145e-02, 1.08560577e-01, 4.43814576e-01, 3.82918894e-01,
          1.94781758e-02, 2.28167027e-01, 5.23440063e-01, 2.23298177e-01,
          1.21864446e-01, 1.93563789e-01, 1.33856043e-01, 5.23440063e-01,
          5.23440063e-01, 2.54238527e-02, 3.80821787e-02, 4.42596048e-01,
          4.42596048e-01, 2.42248282e-01, 4.42596048e-01, 4.42596048e-01,
          3.83595616e-01, 6.87640533e-02, 2.28908402e-03, 4.87775475e-01,
          1.67133778e-01, 1.45000160e-01, 1.52960256e-01, 5.52286565e-01,
          5.52286565e-01, 2.54941374e-01, 6.92599192e-02, 6.61156625e-02,
          3.88041049e-01, 3.88041049e-01, 2.09108368e-01, 3.19376886e-01,
          3.88041049e-01, 3.88041049e-01, 3.88041049e-01, 1.19167656e-01,
          2.88644016e-01, 3.80821787e-02, 4.42596048e-01, 4.42596048e-01,
          2.42248282e-01, 4.42596048e-01, 4.42596048e-01, 3.83595616e-01,
          6.87640533e-02, 2.28908402e-03, 4.87775475e-01, 1.67133778e-01,
          1.45000160e-01, 1.52960256e-01, 5.52286565e-01, 5.52286565e-01,
          2.54941374e-01, 6.92599192e-02, 6.61156625e-02, 3.88041049e-01,
          3.88041049e-01, 2.09108368e-01, 3.19376886e-01, 3.88041049e-01,
          3.88041049e-01, 3.88041049e-01, 1.19167656e-01, 2.88644016e-01,
          3.62970799e-01, 3.62970799e-01, 3.62970799e-01, 3.62970799e-01,
          3.62970799e-01, 3.62970799e-01, 2.65976846e-01, 3.62970799e-01,
          5.82693927e-02, 4.89310950e-01, 4.89310950e-01, 8.80028158e-02,
          8.97908658e-02, 4.03694451e-01, 4.89310950e-01, 1.28541157e-01,
          2.67922878e-01, 9.87715498e-02, 3.61820310e-01, 3.61820310e-01,
          2.61297792e-01, 3.42898816e-01, 3.61820310e-01, 3.61820310e-01,
          3.29670995e-01, 3.61820310e-01, 2.17431217e-01, 7.88522735e-02,
          1.21283479e-01, 4.91194069e-01, 4.91194069e-01, 7.13036731e-02,
          3.60517087e-03, 6.31104261e-02, 4.91194069e-01, 4.91194069e-01,
          1.24848261e-01, 5.29835038e-02, 1.92643017e-01, 4.05494839e-01,
          4.05494839e-01, 4.05494839e-01, 4.05494839e-01, 4.05494839e-01,
          3.43966931e-01, 3.43998730e-01, 3.43998730e-01, 3.43998730e-01,
          3.43998730e-01, 3.08288813e-01, 3.43998730e-01, 3.43998730e-01,
          3.43998730e-01, 2.70509094e-01, 3.75872642e-01, 3.60406458e-01,
          3.07988338e-02, 3.75872642e-01, 3.75872642e-01, 1.33123964e-01,
          3.75872642e-01, 3.75872642e-01, 3.75872642e-01, 3.83868188e-01,
          3.83868188e-01, 3.83868188e-01, 3.83868188e-01, 3.83868188e-01,
          2.88815219e-02, 3.11522316e-02, 3.32011700e-01, 3.83868188e-01,
          3.38678695e-02, 1.90661754e-02, 3.37896407e-01, 5.27585924e-01,
          1.77927479e-01, 2.65667234e-02, 1.07898898e-01, 5.27585924e-01,
          5.27585924e-01, 2.28167027e-01, 5.23440063e-01, 2.23298177e-01,
          1.21864446e-01, 1.93563789e-01, 1.33856043e-01, 5.23440063e-01,
          5.23440063e-01, 2.54238527e-02, 4.52852339e-01, 4.52852339e-01,
          3.39621395e-01, 1.73672915e-01, 4.52852339e-01, 4.52852339e-01,
          1.27402261e-01, 7.41412938e-02, 8.91200379e-02, 3.84326309e-01,
          1.32939190e-01, 1.94010302e-01, 2.33682036e-01, 3.84326309e-01,
          3.84326309e-01, 3.84326309e-01, 3.84326309e-01, 3.84326309e-01,
          3.88041049e-01, 3.88041049e-01, 2.09108368e-01, 3.19376886e-01,
          3.88041049e-01, 3.88041049e-01, 3.88041049e-01, 1.19167656e-01,
          2.88644016e-01, 4.76064593e-01, 4.76064593e-01, 1.54300675e-01,
          1.69365138e-01, 4.76064593e-01, 4.76064593e-01, 2.27085240e-02,
          7.31676538e-03, 1.88766107e-01, 4.42418307e-01, 4.28079784e-01,
          3.98299731e-02, 1.24260122e-02, 2.36977369e-01, 3.33993971e-01,
          4.42418307e-01, 3.60093951e-01, 3.48915160e-01, 3.88041049e-01,
          3.88041049e-01, 2.09108368e-01, 3.19376886e-01, 3.88041049e-01,
          3.88041049e-01, 3.88041049e-01, 1.19167656e-01, 2.88644016e-01,
          4.76064593e-01, 4.76064593e-01, 1.54300675e-01, 1.69365138e-01,
          4.76064593e-01, 4.76064593e-01, 2.27085240e-02, 7.31676538e-03,
          1.88766107e-01, 4.42418307e-01, 4.28079784e-01, 3.98299731e-02,
          1.24260122e-02, 2.36977369e-01, 3.33993971e-01, 4.42418307e-01,
          3.60093951e-01, 3.48915160e-01, 3.61820310e-01, 3.61820310e-01,
          2.61297792e-01, 3.42898816e-01, 3.61820310e-01, 3.61820310e-01,
          3.29670995e-01, 3.61820310e-01, 2.17431217e-01, 4.83634144e-01,
          4.83634144e-01, 4.83634144e-01, 3.76892716e-01, 3.74127030e-01,
          3.99204642e-02, 6.50023520e-02, 5.61164394e-02, 4.97641861e-02,
          8.83971304e-02, 3.93806636e-01, 1.33567691e-01, 6.48431182e-02,
          5.50522581e-02, 6.29672587e-01, 6.29672587e-01, 1.12157315e-01,
          1.36206299e-02, 3.43998730e-01, 3.43998730e-01, 3.43998730e-01,
          3.43998730e-01, 3.08288813e-01, 3.43998730e-01, 3.43998730e-01,
          3.43998730e-01, 2.70509094e-01, 3.38150710e-01, 4.39410925e-01,
          4.39410925e-01, 3.26716185e-01, 4.39410925e-01, 4.39410925e-01,
          4.56629172e-02, 7.01527018e-03, 7.69149419e-03, 5.15839756e-01,
          5.15839756e-01, 2.45996453e-02, 1.44129395e-02, 1.60828009e-01,
          5.15839756e-01, 4.12154734e-01, 2.09048693e-03, 4.70560184e-03 ]
      - [ 4.84652430e-01, 4.84652430e-01, 2.08702773e-01, 4.84652430e-01,
          4.84652430e-01, 4.03099554e-03, 1.61639638e-02, 1.61547754e-02,
          1.07294701e-01, 5.14897764e-01, 5.14897764e-01, 7.09462017e-02,
          5.14897764e-01, 3.46905231e-01, 2.58414954e-01, 4.89371605e-02,
          6.14986643e-02, 3.41596417e-02, 5.34812629e-01, 5.34812629e-01,
          6.70684949e-02, 3.65471616e-02, 3.26722980e-01, 5.34812629e-01,
          9.03157592e-02, 8.70875567e-02, 9.08980221e-02, 5.54712415e-01,
          5.54712415e-01, 9.45828483e-03, 8.54383595e-03, 2.33345151e-01,
          5.54712415e-01, 2.69503295e-02, 9.31874663e-03, 1.26165092e-01,
          5.13850808e-01, 5.13850808e-01, 4.87068063e-03, 2.95940656e-02,
          4.36106682e-01, 5.13850808e-01, 5.54887317e-02, 3.19265760e-02,
          8.69098231e-02, 4.75541830e-01, 4.75541830e-01, 8.94199237e-02,
          9.21498388e-02, 4.75541830e-01, 4.75541830e-01, 1.90245301e-01,
          1.02201432e-01, 1.66024432e-01, 3.81008625e-01, 3.81008625e-01,
          1.86407283e-01, 3.81008625e-01, 3.81008625e-01, 3.81008625e-01,
          1.48759484e-01, 2.61363566e-01, 3.81008625e-01, 4.08577055e-01,
          4.08577055e-01, 3.62397507e-02, 4.08577055e-01, 2.80462980e-01,
          2.77400672e-01, 4.06921685e-01, 3.79050940e-01, 1.70070529e-01,
          2.13582188e-01, 3.21997344e-01, 4.27659512e-01, 2.12312832e-01,
          3.33872795e-01, 3.66014719e-01, 4.27659512e-01, 4.27659512e-01,
          8.50635096e-02, 3.81008625e-01, 3.81008625e-01, 1.86407283e-01,
          3.81008625e-01, 3.81008625e-01, 3.81008625e-01, 1.48759484e-01,
          2.61363566e-01, 3.81008625e-01, 4.08577055e-01, 4.08577055e-01,
          3.62397507e-02, 4.08577055e-01, 2.80462980e-01, 2.77400672e-01,
          4.06921685e-01, 3.79050940e-01, 1.70070529e-01, 2.13582188e-01,
          3.21997344e-01, 4.27659512e-01, 2.12312832e-01, 3.33872795e-01,
          3.66014719e-01, 4.27659512e-01, 4.27659512e-01, 8.50635096e-02,
          9.42424238e-02, 6.26401007e-02, 7.21759573e-02, 5.16564727e-01,
          4.71348405e-01, 7.13995518e-03, 9.47371684e-03, 4.69934016e-01,
          5.16564727e-01, 1.48281734e-02, 4.04210016e-03, 5.51914684e-02,
          5.04661977e-01, 4.70745564e-01, 3.99357341e-02, 6.65576011e-02,
          5.04661977e-01, 5.04661977e-01, 4.13110346e-01, 8.38350952e-02,
          2.68979907e-01, 4.13110346e-01, 2.50447333e-01, 2.16781143e-02,
          4.13110346e-01, 4.13110346e-01, 4.13110346e-01, 2.27740586e-01,
          9.46668312e-02, 2.52386987e-01, 6.26525640e-01, 6.26525640e-01,
          1.43261880e-01, 5.45963235e-02, 1.51084527e-01, 1.94467902e-01,
          3.54409851e-02, 3.12286224e-02, 1.49400115e-01, 6.01271033e-01,
          6.01271033e-01, 3.54747400e-02, 5.83004672e-03, 3.27009887e-01,
          3.71702939e-01, 2.61174999e-02, 6.56543160e-03, 8.79256874e-02,
          4.99282211e-01, 4.88548040e-01, 5.37585327e-03, 9.63866594e-04,
          4.99282211e-01, 4.99282211e-01, 5.34812629e-01, 5.34812629e-01,
          6.70684949e-02, 3.65471616e-02, 3.26722980e-01, 5.34812629e-01,
          9.03157592e-02, 8.70875567e-02, 9.08980221e-02, 4.97348785e-01,
          4.97348785e-01, 7.85310101e-03, 1.04283774e-02, 4.97348785e-01,
          4.97348785e-01, 3.40644047e-02, 1.79201085e-02, 6.29084259e-02,
          4.11566317e-01, 3.45080554e-01, 1.55568779e-01, 6.64735287e-02,
          3.60082418e-01, 4.11566317e-01, 3.09840053e-01, 3.38181794e-01,
          4.11566317e-01, 4.75541830e-01, 4.75541830e-01, 8.94199237e-02,
          9.21498388e-02, 4.75541830e-01, 4.75541830e-01, 1.90245301e-01,
          1.02201432e-01, 1.66024432e-01, 4.11220938e-01, 4.11220938e-01,
