%YAML:1.0
---
opencv_ml_svm:
   format: 3
   svmType: C_SVC
   kernel:
      type: RBF
      gamma: 5.0624999999999998e-01
   C: 1.2500000000000000e+01
   term_criteria: { epsilon:1.1920928955078125e-07, iterations:1000 }
   var_count: 324
   class_count: 12
   class_labels: !!opencv-matrix
      rows: 12
      cols: 1
      dt: i
      data: [ 0, 1, 2, 3, 4, 5, 6, 7, 8, 9, 10, 11 ]
   sv_total: 623
   support_vectors:
      - [ 2.16233641e-01, 3.54608893e-01, 4.44951981e-01, 4.44951981e-01,
          1.96742311e-01, 2.30555713e-01, 2.34038800e-01, 2.87169784e-01,
          4.44951981e-01, 4.30839300e-01, 3.92443061e-01, 3.20771128e-01,
          1.95938662e-01, 8.73403102e-02, 3.36473018e-01, 4.03472364e-01,
          2.13357076e-01, 4.30839300e-01, 3.40124279e-01, 4.92933482e-01,
          2.69287080e-01, 4.18558046e-02, 1.23251744e-01, 4.92933482e-01,
          4.92933482e-01, 2.06922904e-01, 1.34783164e-01, 2.93116748e-01,
          1.81918502e-01, 3.79223198e-01, 3.79223198e-01, 3.79223198e-01,
          1.19742788e-01, 3.79223198e-01, 3.79223198e-01, 3.79223198e-01,
          3.90611202e-01, 3.90611202e-01, 1.27738997e-01, 3.49010617e-01,
          3.90611202e-01, 3.90611202e-01, 3.90611202e-01, 1.33929297e-01,
          2.77757913e-01, 2.56909013e-01, 3.41062695e-01, 3.41062695e-01,
          3.41062695e-01, 3.41062695e-01, 3.41062695e-01, 3.41062695e-01,
          3.41062695e-01, 3.41062695e-01, 4.31035131e-01, 4.31035131e-01,
          3.34572226e-01, 1.23052932e-01, 2.53668636e-01, 4.31035131e-01,
          4.31035131e-01, 2.25924700e-01, 1.00292534e-01, 4.14264768e-01,
          4.14264768e-01, 3.34645122e-01, 2.57366270e-01, 3.50253701e-01,
          3.39175731e-01, 2.26190925e-01, 1.17944427e-01, 4.14264768e-01,
          1.92930758e-01, 8.39376152e-02, 2.21164420e-01, 4.70227689e-01,
          1.13201015e-01, 6.96498752e-02, 4.70227689e-01, 4.70227689e-01,
          4.70227689e-01, 4.31035131e-01, 4.31035131e-01, 3.34572226e-01,
          1.23052932e-01, 2.53668636e-01, 4.31035131e-01, 4.31035131e-01,
          2.25924700e-01, 1.00292534e-01, 4.14264768e-01, 4.14264768e-01,
          3.34645122e-01, 2.57366270e-01, 3.50253701e-01, 3.39175731e-01,
          2.26190925e-01, 1.17944427e-01, 4.14264768e-01, 1.92930758e-01,
          8.39376152e-02, 2.21164420e-01, 4.70227689e-01, 1.13201015e-01,
          6.96498752e-02, 4.70227689e-01, 4.70227689e-01, 4.70227689e-01,
          3.82306963e-01, 3.82306963e-01, 3.82306963e-01, 3.82306963e-01,
          3.82306963e-01, 3.82306963e-01, 3.25592846e-01, 6.35354444e-02,
          9.58195701e-02, 4.28619057e-01, 4.28619057e-01, 4.28619057e-01,
          2.77019054e-01, 4.15383369e-01, 2.49623343e-01, 2.59094298e-01,
          1.41350701e-01, 2.14175522e-01, 1.26953736e-01, 3.08402389e-01,
          1.06548436e-01, 1.18634000e-01, 1.53876647e-01, 5.13139188e-01,
          5.13139188e-01, 5.13139188e-01, 2.11200953e-01, 2.61021733e-01,
          1.49021134e-01, 5.70064723e-01, 5.70064723e-01, 2.40147322e-01,
          1.76521108e-01, 1.40921116e-01, 2.68018752e-01, 2.71103203e-01,
          1.24096714e-01, 1.57626167e-01, 5.34287095e-01, 5.34287095e-01,
          5.34287095e-01, 1.95940405e-01, 2.10009202e-01, 7.59682804e-02,
          9.88054425e-02, 3.68457809e-02, 5.43279588e-01, 2.57887185e-01,
          5.04633076e-02, 1.94776833e-01, 5.43279588e-01, 5.43279588e-01,
          2.35519521e-02, 1.46235060e-02, 3.40124279e-01, 4.92933482e-01,
          2.69287080e-01, 4.18558046e-02, 1.23251744e-01, 4.92933482e-01,
          4.92933482e-01, 2.06922904e-01, 1.34783164e-01, 4.68717664e-01,
          4.68717664e-01, 4.68717664e-01, 2.67963056e-02, 2.18844321e-02,
          3.45105529e-01, 4.41031128e-01, 9.70236212e-02, 1.09602481e-01,
          4.81857270e-01, 4.63755041e-01, 2.04018578e-01, 1.40129998e-02,
          7.93954208e-02, 1.69451386e-02, 1.87479734e-01, 4.81857270e-01,
          4.81857270e-01, 2.56909013e-01, 3.41062695e-01, 3.41062695e-01,
          3.41062695e-01, 3.41062695e-01, 3.41062695e-01, 3.41062695e-01,
          3.41062695e-01, 3.41062695e-01, 1.31774455e-01, 4.88146216e-01,
          4.88146216e-01, 4.88146216e-01, 4.65988040e-01, 1.20769978e-01,
          6.35879487e-02, 1.56580955e-01, 5.10756932e-02, 1.47340611e-01,
          1.71641007e-01, 1.24733575e-01, 3.98144245e-01, 4.27666754e-01,
          4.27666754e-01, 4.27666754e-01, 4.24699724e-01, 2.03504890e-01,
          1.92930758e-01, 8.39376152e-02, 2.21164420e-01, 4.70227689e-01,
          1.13201015e-01, 6.96498752e-02, 4.70227689e-01, 4.70227689e-01,
          4.70227689e-01, 4.59077628e-03, 1.57950558e-02, 4.91524905e-01,
          4.91524905e-01, 4.91524905e-01, 3.00795715e-02, 1.03117004e-01,
          4.91524905e-01, 1.29982367e-01, 7.55516216e-02, 2.11466197e-02,
          1.05296001e-01, 3.97184432e-01, 6.15815461e-01, 6.15815461e-01,
          2.31993541e-01, 1.55526362e-02, 7.95820281e-02, 1.92930758e-01,
          8.39376152e-02, 2.21164420e-01, 4.70227689e-01, 1.13201015e-01,
          6.96498752e-02, 4.70227689e-01, 4.70227689e-01, 4.70227689e-01,
          4.59077628e-03, 1.57950558e-02, 4.91524905e-01, 4.91524905e-01,
          4.91524905e-01, 3.00795715e-02, 1.03117004e-01, 4.91524905e-01,
          1.29982367e-01, 7.55516216e-02, 2.11466197e-02, 1.05296001e-01,
          3.97184432e-01, 6.15815461e-01, 6.15815461e-01, 2.31993541e-01,
          1.55526362e-02, 7.95820281e-02, 1.26953736e-01, 3.08402389e-01,
          1.06548436e-01, 1.18634000e-01, 1.53876647e-01, 5.13139188e-01,
          5.13139188e-01, 5.13139188e-01, 2.11200953e-01, 3.53090525e-01,
          3.53090525e-01, 2.11725548e-01, 3.53090525e-01, 2.80952305e-01,
          3.53090525e-01, 3.53090525e-01, 3.53090525e-01, 3.53090525e-01,
          5.01157939e-01, 1.29427239e-01, 5.16336933e-02, 1.21792004e-01,
          5.01157939e-01, 3.56303900e-01, 1.64969862e-01, 2.30431408e-01,
          5.01157939e-01, 3.68457809e-02, 5.43279588e-01, 2.57887185e-01,
          5.04633076e-02, 1.94776833e-01, 5.43279588e-01, 5.43279588e-01,
          2.35519521e-02, 1.46235060e-02, 2.57476807e-01, 4.73697811e-01,
          4.73697811e-01, 1.07539684e-01, 9.94690061e-02, 4.73697811e-01,
          4.73697811e-01, 2.66797412e-02, 9.61520821e-02, 4.18436587e-01,
          1.15812413e-01, 7.87532777e-02, 5.91743737e-02, 3.11862290e-01,
          4.18436587e-01, 4.18436587e-01, 4.18436587e-01, 4.18436587e-01 ]
      - [ 5.36396742e-01, 5.02814591e-01, 3.98221463e-02, 3.93915251e-02,
          4.00240034e-01, 5.39606698e-02, 1.13092391e-02, 2.93026911e-03,
          5.36396742e-01, 6.51483178e-01, 5.40099442e-02, 1.87970977e-02,
          1.94527619e-02, 3.68237674e-01, 7.25692436e-02, 1.05436966e-02,
          3.14841978e-03, 6.51483178e-01, 5.60602367e-01, 6.47233799e-02,
          5.50034828e-02, 6.27074167e-02, 1.79817140e-01, 3.83035503e-02,
          8.14169943e-02, 5.60602367e-01, 5.60602367e-01, 4.69198197e-01,
          4.69198197e-01, 4.69198197e-01, 4.69198197e-01, 3.20068151e-01,
          5.78267910e-02, 0., 0., 9.45431814e-02, 4.10914332e-01,
          4.10914332e-01, 3.90993118e-01, 3.80164802e-01, 4.10914332e-01,
          4.10914332e-01, 4.68841195e-02, 2.59581599e-02, 1.42197058e-01,
          2.38837317e-01, 2.41910949e-01, 3.67628902e-01, 3.99509043e-01,
          3.10275704e-01, 2.85653889e-01, 3.09518337e-01, 3.99509043e-01,
          3.90394658e-01, 5.52929819e-01, 5.52929819e-01, 4.93734896e-01,
          3.28237414e-01, 6.65097311e-02, 6.52827835e-03, 0.,
          4.48345626e-03, 1.64363191e-01, 4.06917572e-01, 5.03501356e-01,
          5.03501356e-01, 5.03501356e-01, 2.12062702e-01, 4.33885306e-02,
          1.91394705e-02, 1.68602429e-02, 1.46098420e-01, 3.14813733e-01,
          1.23948507e-01, 2.34450638e-01, 4.89014387e-01, 4.89679068e-01,
          4.89679068e-01, 2.67743260e-01, 9.16400775e-02, 1.63953006e-01,
          5.52929819e-01, 5.52929819e-01, 4.93734896e-01, 3.28237414e-01,
          6.65097311e-02, 6.52827835e-03, 0., 4.48345626e-03,
          1.64363191e-01, 4.06917572e-01, 5.03501356e-01, 5.03501356e-01,
          5.03501356e-01, 2.12062702e-01, 4.33885306e-02, 1.91394705e-02,
          1.68602429e-02, 1.46098420e-01, 3.14813733e-01, 1.23948507e-01,
          2.34450638e-01, 4.89014387e-01, 4.89679068e-01, 4.89679068e-01,
          2.67743260e-01, 9.16400775e-02, 1.63953006e-01, 1.98844835e-01,
          4.67330545e-01, 5.11245012e-01, 5.11245012e-01, 4.26315010e-01,
          4.24659671e-03, 2.38404758e-02, 1.21574149e-01, 1.30778119e-01,
          3.11937243e-01, 2.40261748e-01, 2.86718488e-01, 5.36490142e-01,
          6.08542860e-01, 2.31413066e-01, 9.42519680e-02, 9.61190090e-02,
          1.63907290e-01, 2.43164539e-01, 3.14677596e-01, 2.20153123e-01,
          3.87804955e-01, 4.88608360e-01, 1.97083563e-01, 2.22048998e-01,
          2.69230157e-01, 4.88608360e-01, 2.51188334e-02, 5.95244654e-02,
          5.59677243e-01, 5.59677243e-01, 5.59677243e-01, 2.61286628e-02,
          3.94950844e-02, 1.91809759e-01, 1.07180431e-01, 7.41834790e-02,
          6.21438473e-02, 1.12850018e-01, 4.96532917e-01, 7.49814749e-01,
          3.31687450e-01, 1.02853596e-01, 1.47981897e-01, 1.38399988e-01,
          1.77820683e-01, 3.75332654e-01, 1.08449519e-01, 2.78067142e-01,
          6.52738273e-01, 5.19898117e-01, 1.52777463e-01, 8.07364136e-02,
          7.54000098e-02, 5.60602367e-01, 6.47233799e-02, 5.50034828e-02,
          6.27074167e-02, 1.79817140e-01, 3.83035503e-02, 8.14169943e-02,
          5.60602367e-01, 5.60602367e-01, 4.68576029e-02, 6.44763559e-02,
          4.89650637e-01, 4.89650637e-01, 5.77918924e-02, 5.24110347e-02,
          1.53748870e-01, 4.89650637e-01, 4.89650637e-01, 7.59413913e-02,
          1.03828304e-01, 6.64612234e-01, 6.64612234e-01, 1.89441785e-01,
          4.08798791e-02, 1.08366668e-01, 1.32712945e-01, 1.62736207e-01,
          2.38837317e-01, 2.41910949e-01, 3.67628902e-01, 3.99509043e-01,
          3.10275704e-01, 2.85653889e-01, 3.09518337e-01, 3.99509043e-01,
          3.90394658e-01, 1.95557922e-01, 1.39156720e-02, 1.11730814e-01,
          2.12217420e-01, 6.20210730e-02, 3.17429185e-01, 5.14553726e-01,
          5.14553726e-01, 5.14553726e-01, 1.52944952e-01, 6.29790425e-02,
          4.63893950e-01, 4.63893950e-01, 2.50521719e-01, 1.10756926e-01,
          2.77905971e-01, 4.12498593e-01, 4.63893950e-01, 3.14813733e-01,
          1.23948507e-01, 2.34450638e-01, 4.89014387e-01, 4.89679068e-01,
          4.89679068e-01, 2.67743260e-01, 9.16400775e-02, 1.63953006e-01,
          4.09927845e-01, 4.48482670e-02, 5.94402477e-02, 7.91690275e-02,
          3.91023874e-01, 4.09927845e-01, 4.09927845e-01, 3.98785293e-01,
          4.09927845e-01, 1.93538681e-01, 2.23180145e-01, 1.53958663e-01,
          1.61232561e-01, 1.56227320e-01, 4.56636101e-01, 4.56636101e-01,
          4.56636101e-01, 4.56636101e-01, 3.14813733e-01, 1.23948507e-01,
          2.34450638e-01, 4.89014387e-01, 4.89679068e-01, 4.89679068e-01,
          2.67743260e-01, 9.16400775e-02, 1.63953006e-01, 4.09927845e-01,
          4.48482670e-02, 5.94402477e-02, 7.91690275e-02, 3.91023874e-01,
          4.09927845e-01, 4.09927845e-01, 3.98785293e-01, 4.09927845e-01,
          1.93538681e-01, 2.23180145e-01, 1.53958663e-01, 1.61232561e-01,
          1.56227320e-01, 4.56636101e-01, 4.56636101e-01, 4.56636101e-01,
          4.56636101e-01, 2.43164539e-01, 3.14677596e-01, 2.20153123e-01,
          3.87804955e-01, 4.88608360e-01, 1.97083563e-01, 2.22048998e-01,
          2.69230157e-01, 4.88608360e-01, 1.76970527e-01, 2.74948061e-01,
          1.53175935e-01, 5.01483679e-02, 4.33995575e-02, 6.44276500e-01,
          6.44276500e-01, 1.02909021e-01, 1.34226322e-01, 3.79990846e-01,
          5.21210134e-01, 1.62297890e-01, 2.14890093e-02, 8.92625079e-02,
          5.21210134e-01, 5.21210134e-01, 2.20656674e-02, 1.28327450e-02,
          1.77820683e-01, 3.75332654e-01, 1.08449519e-01, 2.78067142e-01,
          6.52738273e-01, 5.19898117e-01, 1.52777463e-01, 8.07364136e-02,
          7.54000098e-02, 1.76224813e-01, 4.81369585e-01, 1.75643891e-01,
          7.15603307e-02, 4.81369585e-01, 4.81369585e-01, 4.81369585e-01,
          1.84858013e-02, 3.09329182e-02, 4.93423313e-01, 4.93423313e-01,
          4.05307859e-01, 6.56092465e-02, 5.53622022e-02, 3.57480109e-01,
          4.44464892e-01, 2.61763181e-03, 1.05578184e-01 ]
      - [ 4.10449296e-01, 4.34600890e-01, 4.34600890e-01, 5.71608590e-03,
          4.09744270e-02, 4.34600890e-01, 4.34600890e-01, 2.08084419e-01,
          1.63302496e-01, 2.76659012e-01, 4.63531554e-01, 3.91677409e-01,
          3.71238799e-03, 2.76392728e-01, 4.63531554e-01, 4.63531554e-01,
          1.33027598e-01, 1.63496494e-01, 6.17778972e-02, 3.19067121e-01,
          2.17470378e-01, 4.35685128e-01, 4.35685128e-01, 4.35685128e-01,
          4.35685128e-01, 2.64253706e-01, 1.16696909e-01, 3.29474479e-01,
          5.10902226e-01, 2.70267218e-01, 6.09329948e-03, 1.85454190e-02,
          5.10902226e-01, 5.10902226e-01, 1.65864244e-01, 4.84196097e-02,
          2.82207251e-01, 4.65471804e-01, 1.98652387e-01, 4.74050231e-02,
          1.91174135e-01, 5.32015741e-01, 5.32015741e-01, 1.79507583e-01,
          1.47715926e-01, 3.20898563e-01, 3.71497363e-01, 3.41887295e-01,
          7.68724903e-02, 3.31681162e-01, 3.71497363e-01, 3.71497363e-01,
          3.29336733e-01, 3.71497363e-01, 1.44803688e-01, 5.09308577e-01,
          2.75517017e-01, 1.76508613e-02, 2.11267527e-02, 5.63279510e-01,
          5.63279510e-01, 3.43396924e-02, 3.99689600e-02, 3.73942405e-01,
          3.73942405e-01, 3.17502350e-01, 9.78450701e-02, 3.30048591e-01,
          3.73942405e-01, 3.73942405e-01, 2.78901160e-01, 3.73942405e-01,
          3.75048310e-01, 3.75048310e-01, 3.75048310e-01, 1.54055178e-01,
          3.11189353e-01, 3.32294673e-01, 2.48908088e-01, 3.75048310e-01,
          3.75048310e-01, 1.44803688e-01, 5.09308577e-01, 2.75517017e-01,
          1.76508613e-02, 2.11267527e-02, 5.63279510e-01, 5.63279510e-01,
          3.43396924e-02, 3.99689600e-02, 3.73942405e-01, 3.73942405e-01,
          3.17502350e-01, 9.78450701e-02, 3.30048591e-01, 3.73942405e-01,
          3.73942405e-01, 2.78901160e-01, 3.73942405e-01, 3.75048310e-01,
          3.75048310e-01, 3.75048310e-01, 1.54055178e-01, 3.11189353e-01,
          3.32294673e-01, 2.48908088e-01, 3.75048310e-01, 3.75048310e-01,
          6.28990307e-02, 4.95505005e-01, 4.95505005e-01, 5.80039136e-02,
          5.69818951e-02, 4.95505005e-01, 4.95505005e-01, 4.06873412e-02,
          2.69638319e-02, 2.54496664e-01, 4.90145177e-01, 4.90145177e-01,
          4.31984723e-01, 1.33277357e-01, 1.23406254e-01, 2.57430434e-01,
          2.90376544e-01, 2.82240808e-01, 6.36890680e-02, 3.48500609e-01,
          4.89219755e-01, 2.48934343e-01, 2.32746527e-01, 3.65832746e-02,
          4.89219755e-01, 4.89219755e-01, 1.84714168e-01, 3.18989992e-01,
          4.61585730e-01, 4.61585730e-01, 7.30998218e-02, 1.67941883e-01,
          4.61585730e-01, 4.61585730e-01, 7.42105991e-02, 4.83112969e-02,
          4.57882553e-01, 4.57882553e-01, 4.57882553e-01, 3.22878659e-01,
          7.87528008e-02, 6.36505708e-02, 1.44740313e-01, 1.55217484e-01,
          4.54874605e-01, 4.63970393e-01, 3.39009762e-01, 4.05110806e-01,
          1.17886096e-01, 1.74665958e-01, 3.69739793e-02, 3.34229261e-01,
          3.58196586e-01, 4.63970393e-01, 6.17778972e-02, 3.19067121e-01,
          2.17470378e-01, 4.35685128e-01, 4.35685128e-01, 4.35685128e-01,
          4.35685128e-01, 2.64253706e-01, 1.16696909e-01, 6.06730990e-02,
          3.37300539e-01, 5.39523602e-01, 5.39523602e-01, 4.02333915e-01,
          3.27206701e-02, 1.20025955e-01, 3.25884193e-01, 1.06947221e-01,
          1.79249063e-01, 7.39688277e-02, 2.22516343e-01, 5.07608414e-01,
          2.17869639e-01, 1.01822525e-01, 5.07608414e-01, 5.07608414e-01,
          2.77455032e-01, 3.20898563e-01, 3.71497363e-01, 3.41887295e-01,
          7.68724903e-02, 3.31681162e-01, 3.71497363e-01, 3.71497363e-01,
          3.29336733e-01, 3.71497363e-01, 3.12833905e-01, 3.71394515e-01,
          3.71394515e-01, 3.71394515e-01, 2.91478664e-01, 3.71394515e-01,
          3.55179071e-01, 2.83899546e-01, 2.34473974e-01, 1.10234223e-01,
          1.45985588e-01, 5.18227935e-01, 5.18227935e-01, 3.81521285e-01,
          1.45485505e-01, 4.37910855e-01, 2.50510752e-01, 5.47246523e-02,
          3.75048310e-01, 3.75048310e-01, 3.75048310e-01, 1.54055178e-01,
          3.11189353e-01, 3.32294673e-01, 2.48908088e-01, 3.75048310e-01,
          3.75048310e-01, 4.27044392e-01, 4.27044392e-01, 4.27044392e-01,
          9.48824063e-02, 7.20173419e-02, 1.37900591e-01, 4.27044392e-01,
          4.27044392e-01, 2.25152925e-01, 1.35052875e-01, 4.32049513e-01,
          4.32049513e-01, 4.32049513e-01, 9.12581980e-02, 4.35159132e-02,
          4.32049513e-01, 4.32049513e-01, 1.84090227e-01, 3.75048310e-01,
          3.75048310e-01, 3.75048310e-01, 1.54055178e-01, 3.11189353e-01,
          3.32294673e-01, 2.48908088e-01, 3.75048310e-01, 3.75048310e-01,
          4.27044392e-01, 4.27044392e-01, 4.27044392e-01, 9.48824063e-02,
          7.20173419e-02, 1.37900591e-01, 4.27044392e-01, 4.27044392e-01,
          2.25152925e-01, 1.35052875e-01, 4.32049513e-01, 4.32049513e-01,
          4.32049513e-01, 9.12581980e-02, 4.35159132e-02, 4.32049513e-01,
          4.32049513e-01, 1.84090227e-01, 6.36890680e-02, 3.48500609e-01,
          4.89219755e-01, 2.48934343e-01, 2.32746527e-01, 3.65832746e-02,
          4.89219755e-01, 4.89219755e-01, 1.84714168e-01, 2.16259733e-02,
          2.81473219e-01, 4.75226939e-01, 2.96368659e-01, 6.45060539e-02,
          3.78692806e-01, 4.75226939e-01, 4.75226939e-01, 5.13127409e-02,
          3.73427160e-02, 3.08544904e-01, 4.24105465e-01, 3.84637982e-01,
          1.52260974e-01, 4.24105465e-01, 4.24105465e-01, 4.24105465e-01,
          9.26147327e-02, 4.63970393e-01, 3.39009762e-01, 4.05110806e-01,
          1.17886096e-01, 1.74665958e-01, 3.69739793e-02, 3.34229261e-01,
          3.58196586e-01, 4.63970393e-01, 4.12894696e-01, 4.12894696e-01,
          3.27151120e-01, 9.00022537e-02, 1.05560638e-01, 1.36466369e-01,
          4.11160320e-01, 4.12894696e-01, 4.12894696e-01, 4.26839828e-01,
          4.26839828e-01, 4.08330977e-01, 1.21054813e-01, 2.56882310e-02,
          1.04843006e-01, 4.26839828e-01, 4.26839828e-01, 2.71894753e-01 ]
      - [ 1.99063152e-01, 5.82279079e-02, 1.31163806e-01, 5.50643742e-01,
          4.16920334e-01, 9.13503394e-03, 1.33977821e-02, 3.92145306e-01,
          5.50643742e-01, 5.73138520e-02, 1.38588371e-02, 2.61220276e-01,
          6.88777208e-01, 2.70260513e-01, 1.34414863e-02, 2.05102880e-02,
          4.52397466e-01, 4.10720944e-01, 4.38677706e-02, 2.02766620e-03,
          2.52868712e-01, 5.20071685e-01, 1.61462694e-01, 6.61699623e-02,
          2.95063943e-01, 5.20071685e-01, 5.20071685e-01, 9.97817740e-02,
          2.01969534e-01, 4.43002015e-01, 3.80324423e-01, 2.21255854e-01,
          1.80360585e-01, 3.17299306e-01, 4.59132522e-01, 4.59132522e-01,
          1.66890454e-02, 1.78694241e-02, 2.15434954e-01, 5.55518985e-01,
          1.07094206e-01, 2.86756288e-02, 9.66798663e-02, 5.55518985e-01,
          5.55518985e-01, 2.14264672e-02, 9.66834079e-04, 3.62328380e-01,
          6.37306273e-01, 2.98276335e-01, 1.88915003e-02, 1.00311324e-01,
          4.70252007e-01, 3.67710561e-01, 3.51221524e-02, 2.32952878e-01,
          4.78676707e-01, 4.78676707e-01, 8.74394774e-02, 1.75743461e-01,
          4.78676707e-01, 4.57079351e-01, 6.97940141e-02, 8.37097317e-02,
          8.36551860e-02, 4.65656340e-01, 3.69724125e-01, 4.16029431e-02,
          1.31196782e-01, 4.18565035e-01, 4.65656340e-01, 4.65656340e-01,
          4.58784141e-02, 8.15863442e-03, 1.20651163e-01, 5.39972067e-01,
          1.49491891e-01, 2.26404145e-01, 1.71939641e-01, 5.39972067e-01,
          5.39972067e-01, 3.51221524e-02, 2.32952878e-01, 4.78676707e-01,
          4.78676707e-01, 8.74394774e-02, 1.75743461e-01, 4.78676707e-01,
          4.57079351e-01, 6.97940141e-02, 8.37097317e-02, 8.36551860e-02,
          4.65656340e-01, 3.69724125e-01, 4.16029431e-02, 1.31196782e-01,
          4.18565035e-01, 4.65656340e-01, 4.65656340e-01, 4.58784141e-02,
          8.15863442e-03, 1.20651163e-01, 5.39972067e-01, 1.49491891e-01,
          2.26404145e-01, 1.71939641e-01, 5.39972067e-01, 5.39972067e-01,
          3.52082759e-01, 4.41859245e-01, 4.41859245e-01, 2.17961237e-01,
          1.62082478e-01, 4.41859245e-01, 4.41859245e-01, 9.33696851e-02,
          9.03881341e-02, 1.36272863e-01, 4.88879651e-01, 4.88879651e-01,
          9.55317244e-02, 3.42313722e-02, 4.88879651e-01, 4.88879651e-01,
          9.63915363e-02, 3.07298843e-02, 1.10473819e-01, 1.47819787e-01,
          3.97922486e-01, 1.24132909e-01, 1.21023297e-01, 5.06664932e-01,
          5.06664932e-01, 4.57506597e-01, 2.23059639e-01, 4.53224152e-01,
          4.53224152e-01, 1.36187434e-01, 1.55190185e-01, 4.53224152e-01,
          4.53224152e-01, 3.30979884e-01, 1.24576665e-01, 7.82711133e-02,
          4.41434175e-01, 4.82401222e-01, 1.99756667e-01, 8.39217193e-03,
          4.32382338e-03, 1.32768840e-01, 4.82401222e-01, 4.82401222e-01,
          2.11105019e-01, 4.49023068e-01, 4.28560942e-01, 8.69408995e-02,
          1.04531441e-02, 5.35616360e-04, 7.94941112e-02, 4.49023068e-01,
          4.49023068e-01, 4.39314902e-01, 4.38677706e-02, 2.02766620e-03,
          2.52868712e-01, 5.20071685e-01, 1.61462694e-01, 6.61699623e-02,
          2.95063943e-01, 5.20071685e-01, 5.20071685e-01, 1.24947049e-01,
          8.35967585e-02, 7.61301368e-02, 1.24427862e-01, 1.69175342e-01,
          2.03260779e-01, 5.41841209e-01, 5.41841209e-01, 5.41841209e-01,
          4.88783807e-01, 4.77452837e-02, 1.88560784e-02, 6.24976568e-02,
          2.22696915e-01, 3.08202565e-01, 3.56743068e-01, 4.88783807e-01,
          4.88783807e-01, 2.14264672e-02, 9.66834079e-04, 3.62328380e-01,
          6.37306273e-01, 2.98276335e-01, 1.88915003e-02, 1.00311324e-01,
          4.70252007e-01, 3.67710561e-01, 2.77928352e-01, 1.76216379e-01,
          1.05734654e-01, 4.85233456e-01, 3.68289381e-01, 1.08355582e-01,
          3.18104655e-01, 3.95228654e-01, 4.85233456e-01, 6.15208447e-01,
          2.94453382e-01, 7.54161477e-02, 2.76157677e-01, 1.68151572e-01,
          6.31728992e-02, 8.63603875e-02, 1.68870106e-01, 6.15208447e-01,
          4.58784141e-02, 8.15863442e-03, 1.20651163e-01, 5.39972067e-01,
          1.49491891e-01, 2.26404145e-01, 1.71939641e-01, 5.39972067e-01,
          5.39972067e-01, 1.72764678e-02, 4.54760157e-03, 4.77818586e-02,
          5.37712097e-01, 5.29489994e-01, 4.89950515e-02, 1.93028636e-02,
          5.16943157e-01, 3.90551478e-01, 3.10459256e-01, 6.84912875e-02,
          3.09754103e-01, 7.64013290e-01, 4.20165062e-01, 2.83779707e-02,
          2.63493769e-02, 8.67188871e-02, 1.61481306e-01, 4.58784141e-02,
          8.15863442e-03, 1.20651163e-01, 5.39972067e-01, 1.49491891e-01,
          2.26404145e-01, 1.71939641e-01, 5.39972067e-01, 5.39972067e-01,
          1.72764678e-02, 4.54760157e-03, 4.77818586e-02, 5.37712097e-01,
          5.29489994e-01, 4.89950515e-02, 1.93028636e-02, 5.16943157e-01,
          3.90551478e-01, 3.10459256e-01, 6.84912875e-02, 3.09754103e-01,
          7.64013290e-01, 4.20165062e-01, 2.83779707e-02, 2.63493769e-02,
          8.67188871e-02, 1.61481306e-01, 1.10473819e-01, 1.47819787e-01,
          3.97922486e-01, 1.24132909e-01, 1.21023297e-01, 5.06664932e-01,
          5.06664932e-01, 4.57506597e-01, 2.23059639e-01, 1.28542379e-01,
          1.70635954e-01, 4.74642426e-01, 4.74642426e-01, 1.68058321e-01,
          1.26607403e-01, 6.48445413e-02, 4.74642426e-01, 4.74642426e-01,
          2.17935722e-02, 2.72093602e-02, 4.41898942e-01, 5.08415639e-01,
          1.45545810e-01, 5.80691313e-03, 4.19014171e-02, 5.08415639e-01,
          5.08415639e-01, 4.49023068e-01, 4.28560942e-01, 8.69408995e-02,
          1.04531441e-02, 5.35616360e-04, 7.94941112e-02, 4.49023068e-01,
          4.49023068e-01, 4.39314902e-01, 3.98556501e-01, 3.75560641e-01,
          3.98556501e-01, 3.98556501e-01, 1.91426903e-01, 7.02048140e-03,
          1.55057535e-01, 3.98556501e-01, 3.98556501e-01, 5.29589765e-02,
          1.03313588e-01, 4.92559493e-01, 4.92559493e-01, 6.29678518e-02,
          6.93748472e-03, 8.44374448e-02, 4.92559493e-01, 4.92559493e-01 ]
      - [ 3.06691919e-02, 1.45687873e-03, 6.10231049e-02, 4.46207821e-02,
          2.87120223e-01, 5.35351157e-01, 5.35351157e-01, 5.35351157e-01,
          2.13904962e-01, 3.60597461e-01, 3.60597461e-01, 3.60597461e-01,
          2.95337647e-01, 3.60597461e-01, 1.92968845e-01, 3.02907199e-01,
          3.60597461e-01, 3.60597461e-01, 5.33547163e-01, 5.33547163e-01,
          5.33547163e-01, 3.55127245e-01, 5.68795353e-02, 4.10153270e-02,
          3.41733582e-02, 4.28165533e-02, 8.13632905e-02, 1.30292356e-01,
          7.49796554e-02, 7.44939297e-02, 1.50051609e-01, 4.04001057e-01,
          5.10271549e-01, 5.10271549e-01, 4.93055940e-01, 1.31018043e-01,
          2.63535202e-01, 2.53171057e-01, 3.55166376e-01, 3.55166376e-01,
          3.55166376e-01, 3.25647354e-01, 3.55166376e-01, 3.55166376e-01,
          3.55166376e-01, 2.58797444e-02, 1.85338944e-01, 6.73134089e-01,
          6.73134089e-01, 1.55722469e-01, 5.79921566e-02, 1.23348996e-01,
          8.08468312e-02, 5.17400019e-02, 1.31337553e-01, 7.11472481e-02,
          2.08765835e-01, 1.73249468e-01, 4.24229234e-01, 4.24229234e-01,
          4.24229234e-01, 4.24229234e-01, 4.24229234e-01, 1.07599847e-01,
          1.56947911e-01, 2.93486118e-01, 4.08083886e-01, 4.08083886e-01,
          4.08083886e-01, 4.08083886e-01, 4.08083886e-01, 2.02278361e-01,
          8.51428509e-02, 5.54803967e-01, 5.54803967e-01, 5.54803967e-01,
          3.27119753e-02, 2.49242466e-02, 1.34704128e-01, 1.82838231e-01,
          1.02575488e-01, 1.31337553e-01, 7.11472481e-02, 2.08765835e-01,
          1.73249468e-01, 4.24229234e-01, 4.24229234e-01, 4.24229234e-01,
          4.24229234e-01, 4.24229234e-01, 1.07599847e-01, 1.56947911e-01,
          2.93486118e-01, 4.08083886e-01, 4.08083886e-01, 4.08083886e-01,
          4.08083886e-01, 4.08083886e-01, 2.02278361e-01, 8.51428509e-02,
          5.54803967e-01, 5.54803967e-01, 5.54803967e-01, 3.27119753e-02,
          2.49242466e-02, 1.34704128e-01, 1.82838231e-01, 1.02575488e-01,
          8.13192129e-02, 1.78248789e-02, 2.82618344e-01, 4.15053457e-01,
          4.15053457e-01, 2.63811678e-01, 3.87783349e-01, 4.15053457e-01,
          4.15053457e-01, 1.25549093e-01, 2.66902566e-01, 3.82998884e-01,
          3.82998884e-01, 3.64437610e-01, 2.95776248e-01, 3.82998884e-01,
          3.82998884e-01, 3.19567233e-01, 1.70936644e-01, 5.04153132e-01,
          5.04153132e-01, 5.04153132e-01, 4.26950306e-01, 1.18398868e-01,
          3.65412980e-02, 5.84945790e-02, 4.66113761e-02, 1.14056602e-01,
          3.07081603e-02, 2.72589147e-01, 4.12703425e-01, 4.12703425e-01,
          2.36642689e-01, 4.12703425e-01, 4.12703425e-01, 4.12703425e-01,
          4.34875220e-01, 1.88925594e-01, 1.57285377e-01, 3.28639030e-01,
          2.36584201e-01, 1.21585503e-01, 4.34875220e-01, 4.34875220e-01,
          4.34875220e-01, 3.82739544e-01, 3.82739544e-01, 3.82739544e-01,
          3.82739544e-01, 3.82739544e-01, 2.01494008e-01, 2.43747473e-01,
          3.82739544e-01, 1.31248489e-01, 5.33547163e-01, 5.33547163e-01,
          5.33547163e-01, 3.55127245e-01, 5.68795353e-02, 4.10153270e-02,
          3.41733582e-02, 4.28165533e-02, 8.13632905e-02, 1.40706584e-01,
          3.76110494e-01, 3.56014907e-01, 3.26754637e-02, 6.48149699e-02,
          4.73332465e-01, 4.73332465e-01, 4.73332465e-01, 1.72825366e-01,
          4.47251350e-02, 2.17121523e-02, 8.31017643e-02, 1.26032159e-01,
          2.55606860e-01, 1.65540516e-01, 8.63501072e-01, 3.46797258e-01,
          7.87519664e-02, 2.58797444e-02, 1.85338944e-01, 6.73134089e-01,
          6.73134089e-01, 1.55722469e-01, 5.79921566e-02, 1.23348996e-01,
          8.08468312e-02, 5.17400019e-02, 1.40066877e-01, 2.05979764e-01,
          4.81663704e-01, 4.81663704e-01, 0., 3.93602950e-03,
          7.16074631e-02, 4.81663704e-01, 4.81663704e-01, 5.35243034e-01,
          0., 0., 0., 0., 0., 1.49445355e-01, 3.26287657e-01,
          7.59693861e-01, 8.51428509e-02, 5.54803967e-01, 5.54803967e-01,
          5.54803967e-01, 3.27119753e-02, 2.49242466e-02, 1.34704128e-01,
          1.82838231e-01, 1.02575488e-01, 6.96718842e-02, 4.86708790e-01,
          4.86708790e-01, 4.13968652e-01, 1.57071929e-02, 1.37835190e-01,
          2.83645958e-01, 2.04513580e-01, 4.51240242e-01, 4.29675668e-01,
          2.26026833e-01, 8.12274441e-02, 0., 0., 9.62700099e-02,
          1.27273157e-01, 5.75864494e-01, 6.27962291e-01, 8.51428509e-02,
          5.54803967e-01, 5.54803967e-01, 5.54803967e-01, 3.27119753e-02,
          2.49242466e-02, 1.34704128e-01, 1.82838231e-01, 1.02575488e-01,
          6.96718842e-02, 4.86708790e-01, 4.86708790e-01, 4.13968652e-01,
          1.57071929e-02, 1.37835190e-01, 2.83645958e-01, 2.04513580e-01,
          4.51240242e-01, 4.29675668e-01, 2.26026833e-01, 8.12274441e-02,
          0., 0., 9.62700099e-02, 1.27273157e-01, 5.75864494e-01,
          6.27962291e-01, 1.70936644e-01, 5.04153132e-01, 5.04153132e-01,
          5.04153132e-01, 4.26950306e-01, 1.18398868e-01, 3.65412980e-02,
          5.84945790e-02, 4.66113761e-02, 7.28793740e-02, 4.49465811e-01,
          5.81962764e-01, 5.81962764e-01, 2.21537992e-01, 8.71107429e-02,
          1.52603731e-01, 6.33280128e-02, 1.59784093e-01, 3.64853501e-01,
          2.77286232e-01, 2.28262320e-01, 4.23077196e-01, 4.23077196e-01,
          2.73268580e-01, 2.81002343e-01, 2.07468584e-01, 4.23077196e-01,
          3.82739544e-01, 3.82739544e-01, 3.82739544e-01, 3.82739544e-01,
          3.82739544e-01, 2.01494008e-01, 2.43747473e-01, 3.82739544e-01,
          1.31248489e-01, 9.38575417e-02, 3.10072631e-01, 5.35986245e-01,
          5.35986245e-01, 5.35986245e-01, 7.64823034e-02, 2.79716253e-02,
          1.01002187e-01, 1.04956910e-01, 5.55098765e-02, 6.19314089e-02,
          2.22521350e-01, 5.42435229e-01, 5.42435229e-01, 1.74490452e-01,
          1.37741357e-01, 5.00985980e-01, 2.21972600e-01 ]
      - [ 3.87957364e-01, 1.42654300e-01, 2.26932257e-01, 1.57559633e-01,
          3.87957364e-01, 3.87957364e-01, 3.87957364e-01, 3.83270234e-01,
          3.87957364e-01, 4.76312011e-01, 2.82271594e-01, 7.56670311e-02,
          4.27250385e-01, 4.76312011e-01, 1.72498867e-01, 6.42532557e-02,
          1.13107137e-01, 4.76312011e-01, 5.17690361e-01, 6.25170395e-02,
          1.20496601e-02, 2.48441845e-01, 5.17690361e-01, 2.82611638e-01,
          2.91802566e-02, 2.10528642e-01, 5.17690361e-01, 3.93753082e-01,
          8.42140689e-02, 1.30852953e-01, 2.12984711e-01, 3.93753082e-01,
          3.93753082e-01, 3.88949662e-01, 3.93753082e-01, 3.93753082e-01,
          3.92699808e-01, 3.64476740e-01, 8.78973007e-02, 3.92699808e-01,
          3.92699808e-01, 3.92699808e-01, 8.16274956e-02, 2.78888732e-01,
          3.92699808e-01, 4.68740761e-01, 6.42859638e-02, 2.41933353e-02,
          3.87736320e-01, 4.68740761e-01, 3.86505663e-01, 3.04158181e-02,
          1.75485387e-01, 4.68740761e-01, 3.76124114e-01, 3.76124114e-01,
          1.52007759e-01, 2.19430596e-01, 3.41010779e-01, 3.76124114e-01,
          3.18356991e-01, 3.76124114e-01, 3.76124114e-01, 4.58633006e-01,
          3.17187190e-01, 1.76437311e-02, 1.24910787e-01, 4.58633006e-01,
          4.58633006e-01, 3.58980149e-01, 1.58207193e-01, 3.06542635e-01,
          3.74029279e-01, 6.79662973e-02, 5.08448035e-02, 4.74763781e-01,
          4.74763781e-01, 3.27190042e-01, 1.51818886e-01, 2.04575434e-01,
          4.74763781e-01, 3.76124114e-01, 3.76124114e-01, 1.52007759e-01,
          2.19430596e-01, 3.41010779e-01, 3.76124114e-01, 3.18356991e-01,
          3.76124114e-01, 3.76124114e-01, 4.58633006e-01, 3.17187190e-01,
          1.76437311e-02, 1.24910787e-01, 4.58633006e-01, 4.58633006e-01,
          3.58980149e-01, 1.58207193e-01, 3.06542635e-01, 3.74029279e-01,
          6.79662973e-02, 5.08448035e-02, 4.74763781e-01, 4.74763781e-01,
          3.27190042e-01, 1.51818886e-01, 2.04575434e-01, 4.74763781e-01,
          3.90442699e-01, 1.96452424e-01, 3.09020519e-01, 2.23335162e-01,
          3.90442699e-01, 3.90442699e-01, 3.41695637e-01, 2.92567372e-01,
          3.90442699e-01, 5.14562070e-01, 1.98473945e-01, 1.06517442e-01,
          1.33012921e-01, 3.28641444e-01, 5.14562070e-01, 1.08377799e-01,
          1.11162998e-01, 5.14562070e-01, 7.17957556e-01, 1.61951169e-01,
          7.19985738e-02, 1.58774197e-01, 2.42903903e-01, 9.13881138e-02,
          1.11401543e-01, 1.26098886e-01, 5.70161045e-01, 4.28539366e-01,
          2.59873152e-01, 4.28539366e-01, 4.28539366e-01, 4.28539366e-01,
          9.32389274e-02, 1.63235441e-02, 3.15475874e-02, 4.28539366e-01,
          4.36909258e-01, 1.84190005e-01, 1.99967116e-01, 4.36909258e-01,
          4.36909258e-01, 4.36909258e-01, 1.55246213e-01, 1.06934346e-02,
          3.65989804e-01, 5.90845466e-01, 3.65048312e-02, 2.43565794e-02,
          3.97190362e-01, 5.90845466e-01, 3.54897380e-01, 1.06675504e-02,
          4.55606292e-04, 1.00753985e-01, 5.17690361e-01, 6.25170395e-02,
          1.20496601e-02, 2.48441845e-01, 5.17690361e-01, 2.82611638e-01,
          2.91802566e-02, 2.10528642e-01, 5.17690361e-01, 4.98590142e-01,
          1.22605730e-03, 3.68540436e-02, 4.83447850e-01, 4.98590142e-01,
          1.17606685e-01, 9.38845053e-03, 1.55829843e-02, 4.98590142e-01,
          4.84872073e-01, 2.72642961e-03, 2.73848902e-02, 2.93262333e-01,
          4.84872073e-01, 4.36986148e-01, 4.06818129e-02, 1.02384418e-01,
          4.84872073e-01, 4.68740761e-01, 6.42859638e-02, 2.41933353e-02,
          3.87736320e-01, 4.68740761e-01, 3.86505663e-01, 3.04158181e-02,
          1.75485387e-01, 4.68740761e-01, 4.86525267e-01, 1.90403745e-01,
          8.17395747e-02, 4.86525267e-01, 4.86525267e-01, 1.63251776e-02,
          2.30188016e-03, 7.14609548e-02, 4.86525267e-01, 4.13323164e-01,
          7.43716508e-02, 5.77347279e-02, 3.36357445e-01, 4.13323164e-01,
          3.78299862e-01, 2.69365877e-01, 3.81697983e-01, 4.13323164e-01,
          3.74029279e-01, 6.79662973e-02, 5.08448035e-02, 4.74763781e-01,
          4.74763781e-01, 3.27190042e-01, 1.51818886e-01, 2.04575434e-01,
          4.74763781e-01, 4.32337821e-01, 4.32337821e-01, 1.22976542e-01,
          4.32337821e-01, 4.32337821e-01, 1.43830493e-01, 7.31799612e-03,
          1.58863157e-01, 4.32337821e-01, 3.85180801e-01, 3.85180801e-01,
          1.03502572e-01, 4.31878939e-02, 3.58211666e-01, 3.36804181e-01,
          3.85180801e-01, 3.85180801e-01, 3.85180801e-01, 3.74029279e-01,
          6.79662973e-02, 5.08448035e-02, 4.74763781e-01, 4.74763781e-01,
          3.27190042e-01, 1.51818886e-01, 2.04575434e-01, 4.74763781e-01,
          4.32337821e-01, 4.32337821e-01, 1.22976542e-01, 4.32337821e-01,
          4.32337821e-01, 1.43830493e-01, 7.31799612e-03, 1.58863157e-01,
          4.32337821e-01, 3.85180801e-01, 3.85180801e-01, 1.03502572e-01,
          4.31878939e-02, 3.58211666e-01, 3.36804181e-01, 3.85180801e-01,
          3.85180801e-01, 3.85180801e-01, 7.17957556e-01, 1.61951169e-01,
          7.19985738e-02, 1.58774197e-01, 2.42903903e-01, 9.13881138e-02,
          1.11401543e-01, 1.26098886e-01, 5.70161045e-01, 5.92047751e-01,
          5.92047751e-01, 5.39539494e-02, 7.18702897e-02, 3.36350322e-01,
          3.99795949e-01, 1.64546091e-02, 2.69140769e-02, 1.04916610e-01,
          4.36804444e-01, 4.36804444e-01, 1.56895202e-02, 4.25666524e-03,
          1.20054111e-01, 4.36804444e-01, 4.36804444e-01, 4.31255907e-01,
          1.78284347e-01, 5.90845466e-01, 3.65048312e-02, 2.43565794e-02,
          3.97190362e-01, 5.90845466e-01, 3.54897380e-01, 1.06675504e-02,
          4.55606292e-04, 1.00753985e-01, 2.62970984e-01, 3.75620611e-02,
          3.68312513e-03, 1.18296012e-01, 6.62883162e-01, 6.62883162e-01,
          1.68358520e-01, 3.91353928e-02, 1.02819689e-02, 9.34396610e-02,
          2.30699964e-02, 1.20649792e-01, 4.32297707e-01, 5.63002944e-01,
          5.63002944e-01, 3.50662440e-01, 1.12289168e-01, 1.18993305e-01 ]
      - [ 1.57625705e-01, 3.76399517e-01, 3.76399517e-01, 3.76399517e-01,
          1.80294231e-01, 2.98040360e-01, 3.76399517e-01, 3.76399517e-01,
          3.76399517e-01, 4.69429225e-01, 1.38397992e-01, 2.30916321e-01,
          4.69429225e-01, 4.69429225e-01, 2.92228516e-02, 1.20818041e-01,
          1.61024496e-01, 4.69429225e-01, 5.12594044e-01, 9.32257771e-02,
          1.88393906e-01, 5.12594044e-01, 3.97028834e-01, 2.41778661e-02,
          5.06332666e-02, 4.07342799e-02, 5.12594044e-01, 1.37429506e-01,
          2.70427138e-01, 2.22166076e-01, 8.45360458e-02, 1.60558373e-02,
          6.78226426e-02, 6.46319866e-01, 6.46319866e-01, 6.86235577e-02,
          4.22942489e-01, 4.22942489e-01, 4.22942489e-01, 4.22942489e-01,
          2.12845013e-01, 2.51464155e-02, 2.97163785e-01, 2.24305779e-01,
          3.09352249e-01, 3.88473988e-01, 3.88473988e-01, 3.88473988e-01,
          3.88473988e-01, 3.88473988e-01, 2.47276887e-01, 1.08106799e-01,
          1.33468539e-01, 3.88473988e-01, 4.64249432e-01, 5.24871014e-02,
          7.70634189e-02, 2.05729343e-02, 1.68939337e-01, 3.09185117e-01,
          4.64249432e-01, 4.64249432e-01, 4.64249432e-01, 5.48238158e-01,
          1.22600093e-01, 3.02041590e-01, 2.43381515e-01, 4.44729090e-01,
          2.83604525e-02, 1.32617489e-01, 1.08281419e-01, 5.48238158e-01,
          5.44140935e-01, 7.41946250e-02, 4.77456115e-02, 2.83444166e-01,
          5.44140935e-01, 1.33196473e-01, 1.74299572e-02, 1.13135539e-02,
          5.44140935e-01, 4.64249432e-01, 5.24871014e-02, 7.70634189e-02,
          2.05729343e-02, 1.68939337e-01, 3.09185117e-01, 4.64249432e-01,
          4.64249432e-01, 4.64249432e-01, 5.48238158e-01, 1.22600093e-01,
          3.02041590e-01, 2.43381515e-01, 4.44729090e-01, 2.83604525e-02,
          1.32617489e-01, 1.08281419e-01, 5.48238158e-01, 5.44140935e-01,
          7.41946250e-02, 4.77456115e-02, 2.83444166e-01, 5.44140935e-01,
          1.33196473e-01, 1.74299572e-02, 1.13135539e-02, 5.44140935e-01,
          3.49225521e-01, 2.41688620e-02, 0., 9.06885341e-02,
          4.41496998e-01, 4.41496998e-01, 4.41496998e-01, 2.91795284e-01,
          4.41496998e-01, 5.66736639e-01, 1.30067602e-01, 2.71914955e-02,
          4.06562656e-01, 5.66736639e-01, 1.21917315e-01, 1.15241315e-02,
          1.18384231e-02, 3.92266393e-01, 4.36219901e-01, 1.50753200e-01,
          4.36219901e-01, 4.36219901e-01, 4.36219901e-01, 1.46159589e-01,
          1.07022207e-02, 0., 4.36219901e-01, 4.35875982e-01,
          1.68896951e-02, 0., 4.57077026e-02, 4.35875982e-01,
          2.89845318e-01, 4.35875982e-01, 3.86406124e-01, 4.35875982e-01,
          5.55534005e-01, 1.31739631e-01, 3.49441655e-02, 1.91227302e-01,
          5.55534005e-01, 1.14898145e-01, 6.58613816e-03, 1.44671118e-02,
          5.55534005e-01, 4.32536930e-01, 1.47672161e-01, 4.32536930e-01,
          4.32536930e-01, 4.32536930e-01, 1.90642342e-01, 3.51768769e-02,
          2.91436836e-02, 4.32536930e-01, 5.12594044e-01, 9.32257771e-02,
          1.88393906e-01, 5.12594044e-01, 3.97028834e-01, 2.41778661e-02,
          5.06332666e-02, 4.07342799e-02, 5.12594044e-01, 5.52258432e-01,
          3.44352536e-02, 8.39583650e-02, 2.57747978e-01, 5.52258432e-01,
          3.30527835e-02, 3.68528515e-02, 4.89627905e-02, 5.52258432e-01,
          5.31748414e-01, 1.47203460e-01, 7.47812837e-02, 1.06152721e-01,
          5.31748414e-01, 1.56436160e-01, 7.68138468e-02, 2.78421164e-01,
          5.31748414e-01, 3.88473988e-01, 3.88473988e-01, 3.88473988e-01,
          3.88473988e-01, 3.88473988e-01, 2.47276887e-01, 1.08106799e-01,
          1.33468539e-01, 3.88473988e-01, 4.92835581e-01, 5.16075790e-02,
          8.23739320e-02, 4.92835581e-01, 4.92835581e-01, 4.46217619e-02,
          9.73647535e-02, 5.10914214e-02, 4.92835581e-01, 4.74308223e-01,
          8.37042928e-03, 2.41581742e-02, 1.36814475e-01, 4.74308223e-01,
          4.74308223e-01, 1.88030645e-01, 2.01648116e-01, 4.74308223e-01,
          5.44140935e-01, 7.41946250e-02, 4.77456115e-02, 2.83444166e-01,
          5.44140935e-01, 1.33196473e-01, 1.74299572e-02, 1.13135539e-02,
          5.44140935e-01, 5.08318543e-01, 2.92618126e-02, 1.18831042e-02,
          4.65046197e-01, 5.08318543e-01, 4.83551398e-02, 8.23865552e-03,
          9.40391887e-03, 5.08318543e-01, 4.40196961e-01, 1.76004693e-02,
          1.28382938e-02, 5.03501520e-02, 4.93701696e-01, 3.48748118e-01,
          1.50941238e-01, 4.07915294e-01, 4.93701696e-01, 5.44140935e-01,
          7.41946250e-02, 4.77456115e-02, 2.83444166e-01, 5.44140935e-01,
          1.33196473e-01, 1.74299572e-02, 1.13135539e-02, 5.44140935e-01,
          5.08318543e-01, 2.92618126e-02, 1.18831042e-02, 4.65046197e-01,
          5.08318543e-01, 4.83551398e-02, 8.23865552e-03, 9.40391887e-03,
          5.08318543e-01, 4.40196961e-01, 1.76004693e-02, 1.28382938e-02,
          5.03501520e-02, 4.93701696e-01, 3.48748118e-01, 1.50941238e-01,
          4.07915294e-01, 4.93701696e-01, 4.36219901e-01, 1.50753200e-01,
          4.36219901e-01, 4.36219901e-01, 4.36219901e-01, 1.46159589e-01,
          1.07022207e-02, 0., 4.36219901e-01, 4.73892272e-01,
          7.46380165e-02, 1.46919280e-01, 2.59548247e-01, 4.73892272e-01,
          4.73892272e-01, 3.74576151e-02, 3.23512293e-02, 4.73892272e-01,
          1.42297968e-01, 1.70184970e-01, 9.39171761e-02, 2.87419707e-01,
          4.50065672e-01, 4.38068777e-01, 2.35118642e-01, 4.50065672e-01,
          4.50065672e-01, 4.32536930e-01, 1.47672161e-01, 4.32536930e-01,
          4.32536930e-01, 4.32536930e-01, 1.90642342e-01, 3.51768769e-02,
          2.91436836e-02, 4.32536930e-01, 5.17213762e-01, 5.47993369e-02,
          4.36990261e-02, 2.55254090e-01, 5.17213762e-01, 3.42862725e-01,
          4.71153967e-02, 4.96230610e-02, 5.17213762e-01, 4.71218735e-01,
          1.36302620e-01, 4.83906455e-02, 4.71218735e-01, 4.71218735e-01,
          2.35147655e-01, 6.21090718e-02, 1.64417073e-01, 4.71218735e-01 ]
      - [ 3.54581147e-01, 3.54581147e-01, 3.54581147e-01, 3.54581147e-01,
          2.35936061e-01, 2.46367842e-01, 3.54581147e-01, 3.54581147e-01,
          3.54581147e-01, 3.44313681e-01, 2.30927512e-01, 3.44313681e-01,
          3.44313681e-01, 3.36703032e-01, 3.44313681e-01, 3.44313681e-01,
          3.44313681e-01, 3.44313681e-01, 4.15090650e-01, 4.15090650e-01,
          1.57867447e-01, 4.50123241e-03, 3.76117080e-02, 3.28626156e-01,
          4.15090650e-01, 4.15090650e-01, 4.15090650e-01, 1.64952893e-02,
          3.27804893e-01, 4.56820548e-01, 4.56820548e-01, 3.07409555e-01,
          3.95552099e-01, 4.56820548e-01, 1.03253260e-01, 5.53031731e-03,
          3.55783731e-01, 4.16330725e-01, 4.16330725e-01, 4.16330725e-01,
          2.34419569e-01, 1.39313519e-01, 2.80783862e-01, 2.82989085e-01,
          3.40561122e-01, 4.01047289e-01, 1.38250366e-01, 1.02509268e-01,
          3.65872309e-02, 4.01047289e-01, 4.01047289e-01, 4.01047289e-01,
          4.01047289e-01, 4.01047289e-01, 4.14918782e-03, 2.79005408e-01,
          5.52814841e-01, 1.50124788e-01, 2.31853798e-02, 3.13345306e-02,
          5.52814841e-01, 5.30419588e-01, 2.84886570e-03, 3.50523330e-02,
          3.26123595e-01, 4.47606236e-01, 4.30492759e-01, 4.47606236e-01,
          3.06480706e-01, 4.29632276e-01, 1.36700794e-01, 6.86694831e-02,
          1.30100939e-02, 4.08607498e-02, 1.68843076e-01, 2.92058289e-01,
          5.33656538e-01, 5.33656538e-01, 5.33656538e-01, 1.54327601e-01,
          2.89987773e-02, 4.14918782e-03, 2.79005408e-01, 5.52814841e-01,
          1.50124788e-01, 2.31853798e-02, 3.13345306e-02, 5.52814841e-01,
          5.30419588e-01, 2.84886570e-03, 3.50523330e-02, 3.26123595e-01,
          4.47606236e-01, 4.30492759e-01, 4.47606236e-01, 3.06480706e-01,
          4.29632276e-01, 1.36700794e-01, 6.86694831e-02, 1.30100939e-02,
          4.08607498e-02, 1.68843076e-01, 2.92058289e-01, 5.33656538e-01,
          5.33656538e-01, 5.33656538e-01, 1.54327601e-01, 2.89987773e-02,
          3.40333544e-02, 4.03375983e-01, 5.23977458e-01, 7.63458312e-02,
          2.72794310e-02, 2.08298434e-02, 5.23977458e-01, 5.23977458e-01,
          1.52567932e-02, 3.93646270e-01, 3.93646270e-01, 3.93646270e-01,
          3.93646270e-01, 3.93646270e-01, 2.17535809e-01, 1.08092263e-01,
          8.55419263e-02, 3.93646270e-01, 3.95427138e-01, 3.95427138e-01,
          3.95427138e-01, 3.30005407e-01, 3.95427138e-01, 2.42280766e-01,
          1.09608836e-01, 1.86061561e-01, 3.95427138e-01, 4.11460586e-02,
          4.64804947e-01, 4.64804947e-01, 4.03425366e-01, 4.10090387e-02,
          4.09371793e-01, 4.64804947e-01, 1.16087839e-01, 6.15893723e-03,
          3.83814782e-01, 3.83814782e-01, 3.83814782e-01, 3.83814782e-01,
          3.83814782e-01, 3.21858644e-01, 6.16551340e-02, 6.99172094e-02,
          3.83814782e-01, 3.87347311e-01, 1.33784324e-01, 2.77800977e-01,
          3.87347311e-01, 3.87347311e-01, 3.87347311e-01, 2.88276169e-02,
          3.87347311e-01, 3.87347311e-01, 4.15090650e-01, 4.15090650e-01,
          1.57867447e-01, 4.50123241e-03, 3.76117080e-02, 3.28626156e-01,
          4.15090650e-01, 4.15090650e-01, 4.15090650e-01, 2.71397233e-01,
          2.07831934e-01, 6.77116141e-02, 9.33656562e-03, 8.13904312e-03,
          1.06638551e-01, 5.35937488e-01, 5.35937488e-01, 5.35937488e-01,
          4.83895600e-01, 4.83895600e-01, 4.83895600e-01, 9.49425027e-02,
          3.51808220e-02, 8.27744529e-02, 1.56193152e-01, 1.30565360e-01,
          4.83895600e-01, 4.01047289e-01, 1.38250366e-01, 1.02509268e-01,
          3.65872309e-02, 4.01047289e-01, 4.01047289e-01, 4.01047289e-01,
          4.01047289e-01, 4.01047289e-01, 3.92897315e-02, 3.10029183e-02,
          1.04517519e-01, 4.63657714e-02, 1.24856196e-01, 3.68608087e-01,
          6.41747892e-01, 6.41747892e-01, 5.35980314e-02, 1.72900651e-02,
          9.64919031e-02, 4.90692437e-01, 4.90692437e-01, 3.55434000e-01,
          4.44706500e-01, 4.15695786e-01, 8.13416988e-02, 2.03638487e-02,
          1.30100939e-02, 4.08607498e-02, 1.68843076e-01, 2.92058289e-01,
          5.33656538e-01, 5.33656538e-01, 5.33656538e-01, 1.54327601e-01,
          2.89987773e-02, 1.73035320e-02, 2.19781231e-02, 6.91059455e-02,
          1.59624711e-01, 3.87077183e-01, 5.33562779e-01, 5.33562779e-01,
          4.93502885e-01, 2.96852700e-02, 2.02645227e-01, 1.35421306e-01,
          3.92624706e-01, 2.62726009e-01, 4.69140053e-01, 4.69140053e-01,
          4.69140053e-01, 1.78215414e-01, 1.43851310e-01, 1.30100939e-02,
          4.08607498e-02, 1.68843076e-01, 2.92058289e-01, 5.33656538e-01,
          5.33656538e-01, 5.33656538e-01, 1.54327601e-01, 2.89987773e-02,
          1.73035320e-02, 2.19781231e-02, 6.91059455e-02, 1.59624711e-01,
          3.87077183e-01, 5.33562779e-01, 5.33562779e-01, 4.93502885e-01,
          2.96852700e-02, 2.02645227e-01, 1.35421306e-01, 3.92624706e-01,
          2.62726009e-01, 4.69140053e-01, 4.69140053e-01, 4.69140053e-01,
          1.78215414e-01, 1.43851310e-01, 3.95427138e-01, 3.95427138e-01,
          3.95427138e-01, 3.30005407e-01, 3.95427138e-01, 2.42280766e-01,
          1.09608836e-01, 1.86061561e-01, 3.95427138e-01, 4.20586199e-01,
          4.20586199e-01, 1.61123678e-01, 5.22633791e-02, 1.53472975e-01,
          2.93960363e-01, 4.20586199e-01, 3.86740863e-01, 4.20586199e-01,
          5.33266008e-01, 5.13258457e-01, 4.31509428e-02, 2.36671139e-02,
          4.88938913e-02, 4.39728610e-02, 8.81998986e-02, 3.84667844e-01,
          5.33266008e-01, 3.87347311e-01, 1.33784324e-01, 2.77800977e-01,
          3.87347311e-01, 3.87347311e-01, 3.87347311e-01, 2.88276169e-02,
          3.87347311e-01, 3.87347311e-01, 5.24144471e-01, 4.37092185e-01,
          2.09235922e-01, 1.57809600e-01, 5.24144471e-01, 9.47657824e-02,
          2.09260266e-03, 1.33877829e-01, 3.98332983e-01, 4.23950732e-01,
          4.23950732e-01, 2.45159143e-03, 1.22399144e-02, 4.23950732e-01,
          4.23950732e-01, 4.23950732e-01, 1.99554250e-01, 2.38989934e-01 ]
      - [ 4.38953459e-01, 1.20204084e-01, 6.82954025e-03, 2.71063924e-01,
          4.38953459e-01, 4.38953459e-01, 2.62753099e-01, 2.60546386e-01,
          4.38953459e-01, 4.54788417e-01, 3.34010452e-01, 2.67741140e-02,
          4.54788417e-01, 4.54788417e-01, 1.99368536e-01, 3.54779884e-02,
          1.21823557e-01, 4.54788417e-01, 5.00698507e-01, 5.26046045e-02,
          5.81460912e-03, 3.54544908e-01, 5.00698507e-01, 2.31874436e-01,
          8.43410641e-02, 2.31343687e-01, 5.00698507e-01, 3.91920179e-01,
          1.92391202e-01, 3.48748416e-02, 3.23148906e-01, 3.91920179e-01,
          3.38938504e-01, 3.52340579e-01, 3.91920179e-01, 3.91920179e-01,
          4.23157454e-01, 2.47553959e-01, 8.91964063e-02, 4.23157454e-01,
          4.23157454e-01, 4.23157454e-01, 1.19816847e-01, 1.29871801e-01,
          4.23157454e-01, 4.75030631e-01, 1.58809960e-01, 1.74450420e-03,
          4.75030631e-01, 4.75030631e-01, 2.20338270e-01, 3.96047011e-02,
          1.31521150e-01, 4.75030631e-01, 4.17521238e-01, 3.58295649e-01,
          3.78279909e-02, 2.54820473e-02, 4.09773439e-01, 4.17521238e-01,
          3.31268579e-01, 3.13687265e-01, 3.75062943e-01, 4.73213524e-01,
          2.33145446e-01, 1.25008887e-02, 3.52668852e-01, 4.73213524e-01,
          4.73213524e-01, 1.37802720e-01, 1.13867447e-01, 3.35613966e-01,
          4.42793995e-01, 4.85392585e-02, 4.46422882e-02, 4.99950796e-01,
          4.99950796e-01, 9.58213136e-02, 4.64300113e-03, 1.88508630e-01,
          4.99950796e-01, 4.17521238e-01, 3.58295649e-01, 3.78279909e-02,
          2.54820473e-02, 4.09773439e-01, 4.17521238e-01, 3.31268579e-01,
          3.13687265e-01, 3.75062943e-01, 4.73213524e-01, 2.33145446e-01,
          1.25008887e-02, 3.52668852e-01, 4.73213524e-01, 4.73213524e-01,
          1.37802720e-01, 1.13867447e-01, 3.35613966e-01, 4.42793995e-01,
          4.85392585e-02, 4.46422882e-02, 4.99950796e-01, 4.99950796e-01,
          9.58213136e-02, 4.64300113e-03, 1.88508630e-01, 4.99950796e-01,
          4.80792135e-01, 1.64452642e-01, 1.22552902e-01, 6.90444559e-02,
          3.88763040e-01, 4.80792135e-01, 2.74415940e-01, 1.68650284e-01,
          4.80792135e-01, 6.20872557e-01, 1.05719961e-01, 3.98825929e-02,
          1.53508753e-01, 3.11823815e-01, 1.66419297e-01, 1.99906737e-01,
          1.47007167e-01, 6.20872557e-01, 7.87001550e-01, 2.04668194e-01,
          5.73873110e-02, 2.74458259e-01, 3.26383740e-01, 2.79734936e-02,
          4.23188880e-03, 3.71969007e-02, 3.78885299e-01, 4.13914293e-01,
          1.94911122e-01, 3.94317240e-01, 4.13914293e-01, 4.13914293e-01,
          3.35850179e-01, 6.32156059e-02, 1.72333922e-02, 4.13914293e-01,
          4.99659926e-01, 5.39396070e-02, 9.01911631e-02, 4.99659926e-01,
          4.99659926e-01, 3.27802062e-01, 4.55162004e-02, 2.79756286e-03,
          3.54191959e-01, 5.53456724e-01, 2.45954283e-02, 1.60423815e-02,
          2.51664102e-01, 5.53456724e-01, 5.53456724e-01, 6.47945888e-03,
          0., 1.06258668e-01, 5.00698507e-01, 5.26046045e-02,
          5.81460912e-03, 3.54544908e-01, 5.00698507e-01, 2.31874436e-01,
          8.43410641e-02, 2.31343687e-01, 5.00698507e-01, 4.96163905e-01,
          7.25893676e-02, 2.16073915e-02, 4.89706069e-01, 4.96163905e-01,
          9.38166901e-02, 2.13699434e-02, 4.12606746e-02, 4.96163905e-01,
          4.93132919e-01, 6.62215054e-02, 1.30534535e-02, 3.43205154e-01,
          4.93132919e-01, 3.50874126e-01, 6.48861751e-02, 1.25961155e-01,
          4.93132919e-01, 4.75030631e-01, 1.58809960e-01, 1.74450420e-03,
          4.75030631e-01, 4.75030631e-01, 2.20338270e-01, 3.96047011e-02,
          1.31521150e-01, 4.75030631e-01, 4.73678410e-01, 3.31113130e-01,
          5.73488958e-02, 4.55711633e-01, 4.73678410e-01, 8.21299385e-03,
          5.42223034e-03, 3.82157192e-02, 4.73678410e-01, 4.24312651e-01,
          6.38363510e-02, 4.71615233e-02, 4.24312651e-01, 4.24312651e-01,
          4.24312651e-01, 1.02110907e-01, 2.80765861e-01, 4.24312651e-01,
          4.42793995e-01, 4.85392585e-02, 4.46422882e-02, 4.99950796e-01,
          4.99950796e-01, 9.58213136e-02, 4.64300113e-03, 1.88508630e-01,
          4.99950796e-01, 4.37861651e-01, 4.37861651e-01, 1.07406013e-01,
          3.76021653e-01, 4.37861651e-01, 2.04702333e-01, 6.93851057e-03,
          1.83998242e-01, 4.37861651e-01, 3.79441619e-01, 3.79441619e-01,
          5.13954088e-02, 1.87416580e-02, 3.79441619e-01, 3.59667748e-01,
          3.79441619e-01, 3.79441619e-01, 3.79441619e-01, 4.42793995e-01,
          4.85392585e-02, 4.46422882e-02, 4.99950796e-01, 4.99950796e-01,
          9.58213136e-02, 4.64300113e-03, 1.88508630e-01, 4.99950796e-01,
          4.37861651e-01, 4.37861651e-01, 1.07406013e-01, 3.76021653e-01,
          4.37861651e-01, 2.04702333e-01, 6.93851057e-03, 1.83998242e-01,
          4.37861651e-01, 3.79441619e-01, 3.79441619e-01, 5.13954088e-02,
          1.87416580e-02, 3.79441619e-01, 3.59667748e-01, 3.79441619e-01,
          3.79441619e-01, 3.79441619e-01, 7.87001550e-01, 2.04668194e-01,
          5.73873110e-02, 2.74458259e-01, 3.26383740e-01, 2.79734936e-02,
          4.23188880e-03, 3.71969007e-02, 3.78885299e-01, 5.55946350e-01,
          5.55946350e-01, 2.05820929e-02, 4.24557477e-02, 3.97468686e-01,
          4.56819057e-01, 9.87217203e-03, 8.20950121e-02, 2.38214843e-02,
          4.14732903e-01, 3.91259313e-01, 9.02163051e-03, 1.12602056e-03,
          1.86832294e-01, 4.31585133e-01, 4.31585133e-01, 4.31585133e-01,
          2.77155906e-01, 5.53456724e-01, 2.45954283e-02, 1.60423815e-02,
          2.51664102e-01, 5.53456724e-01, 5.53456724e-01, 6.47945888e-03,
          0., 1.06258668e-01, 2.16252536e-01, 3.59666646e-02,
          2.20741727e-03, 9.49243531e-02, 6.78365767e-01, 6.78365767e-01,
          1.25531554e-01, 0., 5.94408205e-03, 1.02165021e-01,
          4.67122644e-02, 5.80710433e-02, 3.49176168e-01, 6.16143584e-01,
          6.16143584e-01, 2.52759427e-01, 8.63607228e-02, 1.59125388e-01 ]
      - [ 3.95174235e-01, 3.95174235e-01, 2.53871650e-01, 2.74979502e-01,
          3.95174235e-01, 3.95174235e-01, 2.43583471e-01, 1.25862896e-01,
          3.95174235e-01, 3.86529416e-01, 3.86529416e-01, 2.79992163e-01,
          1.37600139e-01, 3.86529416e-01, 3.86529416e-01, 3.84282142e-01,
          6.41199425e-02, 3.86529416e-01, 4.73715693e-01, 2.14364827e-01,
          1.79488555e-01, 4.73715693e-01, 4.73715693e-01, 1.26457796e-01,
          8.47972464e-03, 5.83986044e-02, 4.73715693e-01, 4.20218557e-01,
          2.27620482e-01, 5.68608232e-02, 3.69535476e-01, 4.20218557e-01,
          4.20218557e-01, 1.94174513e-01, 2.45281696e-01, 4.20218557e-01,
          4.66545552e-01, 3.12403381e-01, 8.09585527e-02, 4.66545552e-01,
          4.66545552e-01, 1.12598553e-01, 5.06223030e-02, 7.27316439e-02,
          4.66545552e-01, 4.85442162e-01, 1.81543902e-01, 4.10274602e-02,
          4.85442162e-01, 4.85442162e-01, 1.27094567e-01, 0.,
          4.17218171e-02, 4.85442162e-01, 4.10867780e-01, 2.72660166e-01,
          4.26784828e-02, 2.08346874e-01, 4.10867780e-01, 4.10867780e-01,
          3.86487931e-01, 2.27376059e-01, 4.10867780e-01, 4.79218304e-01,
          9.15844142e-02, 7.58001953e-02, 4.79218304e-01, 4.79218304e-01,
          2.05193132e-01, 2.15403028e-02, 1.41106859e-01, 4.79218304e-01,
          4.90097672e-01, 1.20761223e-01, 1.96650494e-02, 4.90097672e-01,
          4.90097672e-01, 1.38443738e-01, 0., 1.36213433e-02,
          4.90097672e-01, 4.10867780e-01, 2.72660166e-01, 4.26784828e-02,
          2.08346874e-01, 4.10867780e-01, 4.10867780e-01, 3.86487931e-01,
          2.27376059e-01, 4.10867780e-01, 4.79218304e-01, 9.15844142e-02,
          7.58001953e-02, 4.79218304e-01, 4.79218304e-01, 2.05193132e-01,
          2.15403028e-02, 1.41106859e-01, 4.79218304e-01, 4.90097672e-01,
          1.20761223e-01, 1.96650494e-02, 4.90097672e-01, 4.90097672e-01,
          1.38443738e-01, 0., 1.36213433e-02, 4.90097672e-01,
          4.43630368e-01, 4.44359444e-02, 9.78980660e-02, 4.14795548e-01,
          4.43630368e-01, 4.06088591e-01, 1.13712184e-01, 2.09027708e-01,
          4.43630368e-01, 5.26695013e-01, 2.98317224e-02, 1.49055505e-02,
          2.03547418e-01, 5.26695013e-01, 3.34658414e-01, 2.92674992e-02,
          8.43837038e-02, 5.26695013e-01, 4.53906029e-01, 2.20671773e-01,
          3.28325108e-02, 3.87310177e-01, 4.53906029e-01, 4.20655787e-01,
          1.52472239e-02, 2.01779660e-02, 4.53906029e-01, 4.61074203e-01,
          2.74446845e-01, 1.40359819e-01, 4.61074203e-01, 4.61074203e-01,
          1.99561834e-01, 3.89418602e-02, 9.31311101e-02, 4.61074203e-01,
          4.88436788e-01, 3.43492962e-02, 6.77149743e-02, 4.88436788e-01,
          4.88436788e-01, 1.77946016e-01, 1.92403644e-02, 5.51308356e-02,
          4.88436788e-01, 4.99963254e-01, 2.41505995e-01, 3.38141657e-02,
          3.51865411e-01, 4.99963254e-01, 2.44839147e-01, 4.42474941e-03,
          4.32815142e-02, 4.99963254e-01, 4.73715693e-01, 2.14364827e-01,
          1.79488555e-01, 4.73715693e-01, 4.73715693e-01, 1.26457796e-01,
          8.47972464e-03, 5.83986044e-02, 4.73715693e-01, 2.34520480e-01,
          1.50061458e-01, 4.92186874e-01, 5.48500478e-01, 5.48500478e-01,
          1.51347086e-01, 7.34165907e-02, 4.56054062e-02, 2.06579551e-01,
          1.10111192e-01, 2.90684272e-02, 3.52042466e-02, 3.10166478e-01,
          4.98217583e-01, 4.98217583e-01, 4.98217583e-01, 2.32232302e-01,
          2.93288112e-01, 4.85442162e-01, 1.81543902e-01, 4.10274602e-02,
          4.85442162e-01, 4.85442162e-01, 1.27094567e-01, 0.,
          4.17218171e-02, 4.85442162e-01, 4.49862778e-01, 2.35641420e-01,
          2.93233842e-01, 4.49862778e-01, 4.49862778e-01, 1.44722417e-01,
          6.50451854e-02, 1.38967812e-01, 4.49862778e-01, 4.22384173e-01,
          1.86290935e-01, 1.19667165e-01, 1.36486366e-01, 4.22384173e-01,
          4.22384173e-01, 3.19783926e-01, 3.35010827e-01, 4.22384173e-01,
          4.90097672e-01, 1.20761223e-01, 1.96650494e-02, 4.90097672e-01,
          4.90097672e-01, 1.38443738e-01, 0., 1.36213433e-02,
          4.90097672e-01, 4.63836581e-01, 2.26005256e-01, 1.41616553e-01,
          4.47361678e-01, 4.63836581e-01, 4.63836581e-01, 1.50586978e-01,
          4.24149781e-02, 2.32792154e-01, 1.28209382e-01, 4.10691321e-01,
          4.10691321e-01, 4.10691321e-01, 4.10691321e-01, 4.10691321e-01,
          2.96379745e-01, 1.91838026e-01, 1.07145585e-01, 4.90097672e-01,
          1.20761223e-01, 1.96650494e-02, 4.90097672e-01, 4.90097672e-01,
          1.38443738e-01, 0., 1.36213433e-02, 4.90097672e-01,
          4.63836581e-01, 2.26005256e-01, 1.41616553e-01, 4.47361678e-01,
          4.63836581e-01, 4.63836581e-01, 1.50586978e-01, 4.24149781e-02,
          2.32792154e-01, 1.28209382e-01, 4.10691321e-01, 4.10691321e-01,
          4.10691321e-01, 4.10691321e-01, 4.10691321e-01, 2.96379745e-01,
          1.91838026e-01, 1.07145585e-01, 4.53906029e-01, 2.20671773e-01,
          3.28325108e-02, 3.87310177e-01, 4.53906029e-01, 4.20655787e-01,
          1.52472239e-02, 2.01779660e-02, 4.53906029e-01, 4.17360991e-01,
          4.17360991e-01, 3.14085811e-01, 4.17360991e-01, 4.17360991e-01,
          7.25453570e-02, 9.59584862e-02, 1.08438909e-01, 4.17360991e-01,
          3.12979311e-01, 3.87082189e-01, 3.87082189e-01, 1.79640800e-01,
          2.38255396e-01, 3.69369209e-01, 2.70880789e-01, 3.87082189e-01,
          3.87082189e-01, 4.99963254e-01, 2.41505995e-01, 3.38141657e-02,
          3.51865411e-01, 4.99963254e-01, 2.44839147e-01, 4.42474941e-03,
          4.32815142e-02, 4.99963254e-01, 5.00434160e-01, 3.07355195e-01,
          3.23190689e-02, 2.56451130e-01, 5.00434160e-01, 3.41865383e-02,
          4.36598435e-02, 2.81682700e-01, 5.00434160e-01, 2.35616773e-01,
          4.24764365e-01, 4.24764365e-01, 1.93903297e-01, 4.24764365e-01,
          2.31562391e-01, 1.12766199e-01, 3.38536441e-01, 4.24764365e-01 ]
      - [ 1.92638531e-01, 4.05831248e-01, 4.05831248e-01, 4.05831248e-01,
          1.06934384e-01, 2.66398758e-01, 4.05831248e-01, 4.05831248e-01,
          2.30082676e-01, 4.40399170e-01, 1.87951282e-01, 3.59514207e-01,
          4.40399170e-01, 4.40399170e-01, 4.79258262e-02, 1.44312963e-01,
          1.79153413e-01, 4.40399170e-01, 4.61277097e-01, 1.38679460e-01,
          3.46076638e-01, 4.61277097e-01, 4.61277097e-01, 7.03560784e-02,
          1.53662860e-02, 9.95874591e-03, 4.61277097e-01, 8.03137496e-02,
          4.01531547e-01, 1.79959252e-01, 7.83631206e-02, 3.00839748e-02,
          1.11614116e-01, 6.18439138e-01, 6.18439138e-01, 9.65635329e-02,
          4.22657639e-01, 4.22657639e-01, 4.22657639e-01, 4.22657639e-01,
          1.89371482e-01, 5.61819784e-02, 3.61197412e-01, 2.93134302e-01,
          1.60657004e-01, 3.73128057e-01, 3.73128057e-01, 3.73128057e-01,
          3.73128057e-01, 3.73128057e-01, 2.94978082e-01, 1.54799400e-02,
          2.71428287e-01, 3.73128057e-01, 4.40500021e-01, 8.05734918e-02,
          1.18883193e-01, 1.75325032e-02, 6.68274239e-02, 4.40500021e-01,
          4.40500021e-01, 4.40500021e-01, 4.40500021e-01, 5.29642880e-01,
          1.98698223e-01, 4.20139045e-01, 2.60116816e-01, 2.29998797e-01,
          6.03248365e-02, 2.51990825e-01, 1.73121631e-01, 5.29642880e-01,
          5.08107841e-01, 3.03077903e-02, 6.56259805e-02, 4.02851850e-01,
          5.08107841e-01, 2.25278839e-01, 2.16208659e-02, 4.08896282e-02,
          5.08107841e-01, 4.40500021e-01, 8.05734918e-02, 1.18883193e-01,
          1.75325032e-02, 6.68274239e-02, 4.40500021e-01, 4.40500021e-01,
          4.40500021e-01, 4.40500021e-01, 5.29642880e-01, 1.98698223e-01,
          4.20139045e-01, 2.60116816e-01, 2.29998797e-01, 6.03248365e-02,
          2.51990825e-01, 1.73121631e-01, 5.29642880e-01, 5.08107841e-01,
          3.03077903e-02, 6.56259805e-02, 4.02851850e-01, 5.08107841e-01,
          2.25278839e-01, 2.16208659e-02, 4.08896282e-02, 5.08107841e-01,
          3.16870719e-01, 5.36074862e-02, 6.17986359e-03, 6.91609159e-02,
          4.53946501e-01, 4.53946501e-01, 4.53946501e-01, 2.51184553e-01,
          4.53946501e-01, 5.93485951e-01, 1.90511584e-01, 2.15263311e-02,
          3.37602288e-01, 5.93485951e-01, 1.12372406e-01, 1.86942741e-02,
          1.05504068e-02, 3.54684740e-01, 4.33326483e-01, 2.20793352e-01,
          4.33326483e-01, 4.33326483e-01, 4.33326483e-01, 1.03346348e-01,
          8.91810749e-03, 1.74535066e-02, 4.29848611e-01, 4.23040628e-01,
          4.88616265e-02, 3.97815974e-03, 2.63180435e-02, 4.23040628e-01,
          3.12827796e-01, 4.23040628e-01, 4.23040628e-01, 4.23040628e-01,
          5.49935937e-01, 2.52545774e-01, 2.79187467e-02, 1.32465571e-01,
          5.49935937e-01, 5.93682714e-02, 1.68063790e-02, 3.61502320e-02,
          5.49935937e-01, 4.25124705e-01, 2.22694665e-01, 4.25124705e-01,
          4.25124705e-01, 4.25124705e-01, 1.74568966e-01, 7.82382768e-03,
          1.09406866e-01, 4.25124705e-01, 4.61277097e-01, 1.38679460e-01,
          3.46076638e-01, 4.61277097e-01, 4.61277097e-01, 7.03560784e-02,
          1.53662860e-02, 9.95874591e-03, 4.61277097e-01, 5.70539355e-01,
          7.19052702e-02, 1.71708226e-01, 2.17481509e-01, 4.98522162e-01,
          1.04081705e-01, 3.12483702e-02, 3.14062387e-02, 5.70539355e-01,
          5.58816552e-01, 8.33679661e-02, 5.89507557e-02, 9.97464731e-02,
          4.53122616e-01, 2.81382054e-01, 7.47748390e-02, 2.43733153e-01,
          5.58816552e-01, 3.73128057e-01, 3.73128057e-01, 3.73128057e-01,
          3.73128057e-01, 3.73128057e-01, 2.94978082e-01, 1.54799400e-02,
          2.71428287e-01, 3.73128057e-01, 4.72273797e-01, 1.62529781e-01,
          1.41377434e-01, 4.72273797e-01, 4.72273797e-01, 2.16639116e-01,
          3.94903757e-02, 9.06483233e-02, 4.72273797e-01, 4.68225569e-01,
          6.38187490e-03, 7.91045930e-03, 2.35080317e-01, 4.68225569e-01,
          4.68225569e-01, 1.62729904e-01, 1.91141993e-01, 4.68225569e-01,
          5.08107841e-01, 3.03077903e-02, 6.56259805e-02, 4.02851850e-01,
          5.08107841e-01, 2.25278839e-01, 2.16208659e-02, 4.08896282e-02,
          5.08107841e-01, 4.94680852e-01, 1.06517553e-01, 3.54871303e-02,
          4.94680852e-01, 4.94680852e-01, 5.94964996e-02, 5.80855366e-03,
          6.63271407e-03, 4.94680852e-01, 4.52859312e-01, 3.98761518e-02,
          6.11545332e-03, 1.48211360e-01, 4.52859312e-01, 4.52859312e-01,
          9.66389850e-02, 3.77116799e-01, 4.52859312e-01, 5.08107841e-01,
          3.03077903e-02, 6.56259805e-02, 4.02851850e-01, 5.08107841e-01,
          2.25278839e-01, 2.16208659e-02, 4.08896282e-02, 5.08107841e-01,
          4.94680852e-01, 1.06517553e-01, 3.54871303e-02, 4.94680852e-01,
          4.94680852e-01, 5.94964996e-02, 5.80855366e-03, 6.63271407e-03,
          4.94680852e-01, 4.52859312e-01, 3.98761518e-02, 6.11545332e-03,
          1.48211360e-01, 4.52859312e-01, 4.52859312e-01, 9.66389850e-02,
          3.77116799e-01, 4.52859312e-01, 4.33326483e-01, 2.20793352e-01,
          4.33326483e-01, 4.33326483e-01, 4.33326483e-01, 1.03346348e-01,
          8.91810749e-03, 1.74535066e-02, 4.29848611e-01, 4.65567678e-01,
          6.13194406e-02, 1.33968636e-01, 3.11249971e-01, 4.65567678e-01,
          4.65567678e-01, 5.38902245e-02, 8.27547833e-02, 4.65567678e-01,
          2.35094130e-01, 1.54687703e-01, 1.26943976e-01, 3.88969749e-01,
          3.88969749e-01, 3.79887581e-01, 3.88969749e-01, 3.88969749e-01,
          3.88969749e-01, 4.25124705e-01, 2.22694665e-01, 4.25124705e-01,
          4.25124705e-01, 4.25124705e-01, 1.74568966e-01, 7.82382768e-03,
          1.09406866e-01, 4.25124705e-01, 4.81633961e-01, 2.12175995e-02,
          1.03115484e-01, 3.54590237e-01, 4.81633961e-01, 3.98766458e-01,
          2.47772802e-02, 5.31943366e-02, 4.81633961e-01, 4.67401594e-01,
          9.43817496e-02, 9.28413570e-02, 4.67401594e-01, 4.67401594e-01,
          2.58988202e-01, 8.18352997e-02, 1.73709422e-01, 4.67401594e-01 ]
      - [ 4.55716997e-01, 7.19960630e-02, 1.31377885e-02, 3.16482395e-01,
          4.55716997e-01, 3.55233014e-01, 2.89367050e-01, 2.38690346e-01,
          4.55716997e-01, 4.72900540e-01, 1.86222151e-01, 2.74839457e-02,
          4.72900540e-01, 4.72900540e-01, 2.30264395e-01, 3.03037129e-02,
          1.06596544e-01, 4.72900540e-01, 5.13227224e-01, 1.39716854e-02,
          1.33857075e-02, 3.62981707e-01, 5.13227224e-01, 2.24690810e-01,
          6.76697269e-02, 1.32183596e-01, 5.13227224e-01, 3.74731243e-01,
          1.91210672e-01, 2.73235701e-02, 3.74731243e-01, 3.74731243e-01,
          3.45540315e-01, 3.70719016e-01, 3.74731243e-01, 3.74731243e-01,
          4.17934805e-01, 2.32284993e-01, 1.06973700e-01, 4.17934805e-01,
          4.17934805e-01, 4.17934805e-01, 1.46433413e-01, 1.88772619e-01,
          4.17934805e-01, 4.81848806e-01, 1.33775860e-01, 1.27937660e-01,
          4.81848806e-01, 4.81848806e-01, 1.36733606e-01, 2.37500314e-02,
          1.13798670e-01, 4.81848806e-01, 4.38367575e-01, 3.33682299e-01,
          5.68942633e-03, 3.59551869e-02, 4.38367575e-01, 4.38367575e-01,
          2.76307464e-01, 1.94786936e-01, 4.38367575e-01, 5.02284765e-01,
          1.38190895e-01, 9.54947527e-03, 2.08745867e-01, 5.02284765e-01,
          4.90100741e-01, 6.92143440e-02, 9.08742175e-02, 4.17604268e-01,
          4.89656359e-01, 7.12848455e-02, 3.64601314e-02, 4.89656359e-01,
          4.89656359e-01, 4.07146774e-02, 2.06100545e-03, 1.67281762e-01,
          4.89656359e-01, 4.38367575e-01, 3.33682299e-01, 5.68942633e-03,
          3.59551869e-02, 4.38367575e-01, 4.38367575e-01, 2.76307464e-01,
          1.94786936e-01, 4.38367575e-01, 5.02284765e-01, 1.38190895e-01,
          9.54947527e-03, 2.08745867e-01, 5.02284765e-01, 4.90100741e-01,
          6.92143440e-02, 9.08742175e-02, 4.17604268e-01, 4.89656359e-01,
          7.12848455e-02, 3.64601314e-02, 4.89656359e-01, 4.89656359e-01,
          4.07146774e-02, 2.06100545e-03, 1.67281762e-01, 4.89656359e-01,
          4.91466582e-01, 2.70072222e-01, 7.79055804e-02, 3.79525349e-02,
          2.85336882e-01, 4.91466582e-01, 2.69740462e-01, 1.89334571e-01,
          4.91466582e-01, 6.25421166e-01, 6.12248294e-02, 9.76977032e-03,
          1.03692822e-01, 3.73983115e-01, 8.66163895e-02, 1.17965341e-01,
          1.88612789e-01, 6.25421166e-01, 7.70352662e-01, 3.57703984e-01,
          2.78096255e-02, 1.90110832e-01, 4.28380907e-01, 4.09556516e-02,
          3.25310440e-03, 2.41381954e-02, 2.19589621e-01, 4.10604566e-01,
          2.02874139e-01, 3.23347569e-01, 4.10604566e-01, 4.10604566e-01,
          4.10604566e-01, 8.18254873e-02, 2.25984082e-02, 4.10604566e-01,
          5.36893010e-01, 2.27612182e-02, 4.55164276e-02, 4.83358830e-01,
          5.36893010e-01, 2.93670893e-01, 3.90626416e-02, 2.18617404e-03,
          3.06808263e-01, 5.70722818e-01, 2.98625045e-02, 3.30844370e-04,
          1.15123518e-01, 5.70722818e-01, 5.70722818e-01, 1.63742602e-02,
          0., 5.20954691e-02, 5.13227224e-01, 1.39716854e-02,
          1.33857075e-02, 3.62981707e-01, 5.13227224e-01, 2.24690810e-01,
          6.76697269e-02, 1.32183596e-01, 5.13227224e-01, 4.94576305e-01,
          5.52413091e-02, 1.53855467e-02, 4.94576305e-01, 4.94576305e-01,
          1.07956201e-01, 2.13885233e-02, 3.51736546e-02, 4.94576305e-01,
          4.70959157e-01, 5.44377901e-02, 2.49892808e-02, 2.72502571e-01,
          4.70959157e-01, 4.28914845e-01, 5.98049760e-02, 2.53965318e-01,
          4.70959157e-01, 4.81848806e-01, 1.33775860e-01, 1.27937660e-01,
          4.81848806e-01, 4.81848806e-01, 1.36733606e-01, 2.37500314e-02,
          1.13798670e-01, 4.81848806e-01, 4.81809229e-01, 1.11223251e-01,
          2.01669201e-01, 4.81809229e-01, 4.81809229e-01, 2.63614394e-02,
          3.97621989e-02, 1.06348723e-01, 4.81809229e-01, 4.26296115e-01,
          4.25374769e-02, 1.44472480e-01, 3.15974236e-01, 4.38370317e-01,
          4.38370317e-01, 1.86964408e-01, 2.82683432e-01, 4.38370317e-01,
          4.89656359e-01, 7.12848455e-02, 3.64601314e-02, 4.89656359e-01,
          4.89656359e-01, 4.07146774e-02, 2.06100545e-03, 1.67281762e-01,
          4.89656359e-01, 4.49171931e-01, 4.49171931e-01, 1.15298614e-01,
          2.46699229e-01, 4.49171931e-01, 1.41845837e-01, 5.53500429e-02,
          3.81436884e-01, 3.83946449e-01, 3.80787253e-01, 3.47226709e-01,
          2.29540631e-01, 3.73521596e-02, 3.80787253e-01, 3.10725927e-01,
          3.80787253e-01, 3.80787253e-01, 3.80787253e-01, 4.89656359e-01,
          7.12848455e-02, 3.64601314e-02, 4.89656359e-01, 4.89656359e-01,
          4.07146774e-02, 2.06100545e-03, 1.67281762e-01, 4.89656359e-01,
          4.49171931e-01, 4.49171931e-01, 1.15298614e-01, 2.46699229e-01,
          4.49171931e-01, 1.41845837e-01, 5.53500429e-02, 3.81436884e-01,
          3.83946449e-01, 3.80787253e-01, 3.47226709e-01, 2.29540631e-01,
          3.73521596e-02, 3.80787253e-01, 3.10725927e-01, 3.80787253e-01,
          3.80787253e-01, 3.80787253e-01, 7.70352662e-01, 3.57703984e-01,
          2.78096255e-02, 1.90110832e-01, 4.28380907e-01, 4.09556516e-02,
          3.25310440e-03, 2.41381954e-02, 2.19589621e-01, 5.23884177e-01,
          5.23884177e-01, 1.87660679e-02, 2.57928539e-02, 4.02582020e-01,
          5.23884177e-01, 5.77483922e-02, 6.59747422e-02, 2.50382964e-02,
          2.54006922e-01, 2.81675190e-01, 1.59355909e-01, 5.79429492e-02,
          1.39013678e-01, 4.78271693e-01, 4.78271693e-01, 4.78271693e-01,
          3.42132926e-01, 5.70722818e-01, 2.98625045e-02, 3.30844370e-04,
          1.15123518e-01, 5.70722818e-01, 5.70722818e-01, 1.63742602e-02,
          0., 5.20954691e-02, 1.27358273e-01, 3.36814225e-02,
          1.29785622e-02, 1.65330842e-01, 6.84799373e-01, 6.84799373e-01,
          1.01438195e-01, 5.75878844e-03, 9.12769232e-03, 2.27334797e-01,
          6.43930435e-02, 1.59815833e-01, 3.22819978e-01, 3.49604905e-01,
          5.42458415e-01, 4.82951790e-01, 2.95352221e-01, 2.68405020e-01 ]
      - [ 3.91946048e-01, 2.95634210e-01, 1.99822187e-01, 2.65373260e-01,
          3.91946048e-01, 3.91946048e-01, 1.73851877e-01, 3.91946048e-01,
          3.91946048e-01, 4.04369891e-01, 1.80617541e-01, 8.36110339e-02,
          4.04369891e-01, 4.04369891e-01, 3.63399327e-01, 8.19312930e-02,
          4.04369891e-01, 4.04369891e-01, 3.67059171e-01, 6.55807555e-02,
          3.00128192e-01, 4.38628525e-01, 4.38628525e-01, 1.60659030e-01,
          3.17840666e-01, 2.49978766e-01, 4.38628525e-01, 3.47280502e-01,
          3.47280502e-01, 1.78045630e-01, 3.47280502e-01, 3.47280502e-01,
          3.47280502e-01, 3.47280502e-01, 3.47280502e-01, 3.47280502e-01,
          3.86743695e-01, 2.62623936e-01, 1.22985378e-01, 3.86743695e-01,
          3.86743695e-01, 3.86743695e-01, 1.20894790e-01, 3.86743695e-01,
          3.86743695e-01, 2.55357146e-01, 2.20940888e-01, 2.03961924e-01,
          4.32434767e-01, 4.32434767e-01, 2.88479805e-01, 9.40103978e-02,
          4.32434767e-01, 4.32434767e-01, 3.52463037e-01, 2.98201680e-01,
          2.34802887e-01, 3.52463037e-01, 3.52463037e-01, 3.52463037e-01,
          3.52463037e-01, 3.52463037e-01, 3.27170581e-01, 3.84501189e-01,
          3.84501189e-01, 1.21593639e-01, 1.76147938e-01, 3.84501189e-01,
          3.84501189e-01, 2.51591861e-01, 3.84501189e-01, 3.84501189e-01,
          3.79669487e-01, 2.32513875e-01, 3.13484967e-01, 3.79669487e-01,
          3.79669487e-01, 3.42490703e-01, 7.63346702e-02, 3.79669487e-01,
          3.79669487e-01, 3.52463037e-01, 2.98201680e-01, 2.34802887e-01,
          3.52463037e-01, 3.52463037e-01, 3.52463037e-01, 3.52463037e-01,
          3.52463037e-01, 3.27170581e-01, 3.84501189e-01, 3.84501189e-01,
          1.21593639e-01, 1.76147938e-01, 3.84501189e-01, 3.84501189e-01,
          2.51591861e-01, 3.84501189e-01, 3.84501189e-01, 3.79669487e-01,
          2.32513875e-01, 3.13484967e-01, 3.79669487e-01, 3.79669487e-01,
          3.42490703e-01, 7.63346702e-02, 3.79669487e-01, 3.79669487e-01,
          3.50204617e-01, 3.50204617e-01, 3.50204617e-01, 3.50204617e-01,
          3.50204617e-01, 1.85220867e-01, 3.50204617e-01, 3.50204617e-01,
          3.22011322e-01, 3.76823157e-01, 2.68469304e-01, 1.03915974e-01,
          3.76823157e-01, 3.76823157e-01, 3.76823157e-01, 2.47763783e-01,
          3.76823157e-01, 3.76823157e-01, 3.80132645e-01, 1.81953073e-01,
          3.80132645e-01, 3.80132645e-01, 3.80132645e-01, 2.61660337e-01,
          1.71788916e-01, 3.77642423e-01, 3.80132645e-01, 3.56756508e-01,
          3.56756508e-01, 3.56756508e-01, 3.56756508e-01, 3.56756508e-01,
          1.57548353e-01, 2.84055859e-01, 3.56756508e-01, 3.56756508e-01,
          3.79799396e-01, 2.82702595e-01, 1.26196548e-01, 3.79799396e-01,
          3.79799396e-01, 2.82430351e-01, 3.15205634e-01, 3.79799396e-01,
          3.79799396e-01, 3.99589986e-01, 3.06061000e-01, 2.73927510e-01,
          3.99589986e-01, 3.78582060e-01, 2.13232338e-01, 2.75321096e-01,
          2.89288521e-01, 3.99589986e-01, 3.67059171e-01, 6.55807555e-02,
          3.00128192e-01, 4.38628525e-01, 4.38628525e-01, 1.60659030e-01,
          3.17840666e-01, 2.49978766e-01, 4.38628525e-01, 3.80503893e-01,
          3.80503893e-01, 3.80503893e-01, 3.80503893e-01, 3.80503893e-01,
          2.77583510e-01, 9.81496871e-02, 2.02023119e-01, 3.80503893e-01,
          2.10074529e-01, 3.31018895e-01, 2.33968213e-01, 3.75890791e-01,
          3.75890791e-01, 3.68570983e-01, 2.94582069e-01, 3.75890791e-01,
          3.75890791e-01, 2.55357146e-01, 2.20940888e-01, 2.03961924e-01,
          4.32434767e-01, 4.32434767e-01, 2.88479805e-01, 9.40103978e-02,
          4.32434767e-01, 4.32434767e-01, 3.68648380e-01, 3.68648380e-01,
          3.68648380e-01, 3.68648380e-01, 3.68648380e-01, 2.72183359e-01,
          2.47931387e-02, 3.25896919e-01, 3.68648380e-01, 1.63621917e-01,
          3.75721246e-01, 3.75721246e-01, 1.03328355e-01, 3.75721246e-01,
          3.34363103e-01, 3.75721246e-01, 3.75721246e-01, 3.75721246e-01,
          3.79669487e-01, 2.32513875e-01, 3.13484967e-01, 3.79669487e-01,
          3.79669487e-01, 3.42490703e-01, 7.63346702e-02, 3.79669487e-01,
          3.79669487e-01, 3.90190572e-01, 3.90190572e-01, 3.90190572e-01,
          3.90190572e-01, 3.90190572e-01, 1.24256678e-01, 7.09969029e-02,
          2.49258190e-01, 3.90190572e-01, 1.83725864e-01, 3.67144197e-01,
          3.67144197e-01, 3.67144197e-01, 2.19183579e-01, 3.25217009e-01,
          3.67144197e-01, 3.67144197e-01, 3.67144197e-01, 3.79669487e-01,
          2.32513875e-01, 3.13484967e-01, 3.79669487e-01, 3.79669487e-01,
          3.42490703e-01, 7.63346702e-02, 3.79669487e-01, 3.79669487e-01,
          3.90190572e-01, 3.90190572e-01, 3.90190572e-01, 3.90190572e-01,
          3.90190572e-01, 1.24256678e-01, 7.09969029e-02, 2.49258190e-01,
          3.90190572e-01, 1.83725864e-01, 3.67144197e-01, 3.67144197e-01,
          3.67144197e-01, 2.19183579e-01, 3.25217009e-01, 3.67144197e-01,
          3.67144197e-01, 3.67144197e-01, 3.80132645e-01, 1.81953073e-01,
          3.80132645e-01, 3.80132645e-01, 3.80132645e-01, 2.61660337e-01,
          1.71788916e-01, 3.77642423e-01, 3.80132645e-01, 3.69677424e-01,
          3.95990640e-01, 3.95990640e-01, 3.95990640e-01, 3.95990640e-01,
          1.92123696e-01, 1.00073658e-01, 1.68563306e-01, 3.95990640e-01,
          2.53423184e-01, 3.69021863e-01, 3.69021863e-01, 3.69021863e-01,
          2.79657185e-01, 1.91882193e-01, 3.69021863e-01, 3.69021863e-01,
          3.69021863e-01, 3.99589986e-01, 3.06061000e-01, 2.73927510e-01,
          3.99589986e-01, 3.78582060e-01, 2.13232338e-01, 2.75321096e-01,
          2.89288521e-01, 3.99589986e-01, 4.53185707e-01, 4.53185707e-01,
          9.30938274e-02, 2.44013026e-01, 4.10612673e-01, 2.85529524e-01,
          2.35374406e-01, 7.48443827e-02, 4.53185707e-01, 3.68152082e-01,
          2.20639870e-01, 3.68152082e-01, 3.64739776e-01, 3.68152082e-01,
          2.60905206e-01, 2.62399673e-01, 3.68152082e-01, 3.68152082e-01 ]
      - [ 4.48697299e-01, 8.40175748e-02, 6.32955208e-02, 2.49035448e-01,
          4.48697299e-01, 3.09855431e-01, 4.18802112e-01, 2.16888696e-01,
          4.48697299e-01, 4.77787256e-01, 2.29833812e-01, 5.11240289e-02,
          4.77787256e-01, 4.77787256e-01, 1.41185343e-01, 4.49681133e-02,
          6.86476529e-02, 4.77787256e-01, 4.97756869e-01, 1.64108817e-02,
          4.88502113e-03, 3.40868711e-01, 4.97756869e-01, 3.47555846e-01,
          2.69575715e-02, 1.17203310e-01, 4.97756869e-01, 3.78630370e-01,
          9.90121737e-02, 5.31284250e-02, 3.78630370e-01, 3.78630370e-01,
          3.51319462e-01, 3.78630370e-01, 3.78630370e-01, 3.78630370e-01,
          4.28426474e-01, 1.03716217e-01, 1.22216873e-01, 4.28426474e-01,
          4.28426474e-01, 4.28426474e-01, 1.63570032e-01, 1.59765199e-01,
          4.28426474e-01, 4.83398259e-01, 1.80570781e-01, 2.48528365e-03,
          4.83398259e-01, 4.83398259e-01, 1.46566510e-01, 2.65131313e-02,
          7.53634721e-02, 4.83398259e-01, 4.08221245e-01, 3.66227716e-01,
          6.77708117e-03, 2.07926035e-02, 4.08221245e-01, 4.08221245e-01,
          3.15554291e-01, 3.08493406e-01, 4.08221245e-01, 4.76276547e-01,
          1.52354419e-01, 2.27388423e-02, 2.24074081e-01, 4.76276547e-01,
          4.76276547e-01, 7.10816607e-02, 9.43123773e-02, 4.76276547e-01,
          4.89761651e-01, 5.40694930e-02, 7.86224660e-03, 4.89761651e-01,
          4.89761651e-01, 6.24803901e-02, 8.49828124e-03, 1.69355288e-01,
          4.89761651e-01, 4.08221245e-01, 3.66227716e-01, 6.77708117e-03,
          2.07926035e-02, 4.08221245e-01, 4.08221245e-01, 3.15554291e-01,
          3.08493406e-01, 4.08221245e-01, 4.76276547e-01, 1.52354419e-01,
          2.27388423e-02, 2.24074081e-01, 4.76276547e-01, 4.76276547e-01,
          7.10816607e-02, 9.43123773e-02, 4.76276547e-01, 4.89761651e-01,
          5.40694930e-02, 7.86224660e-03, 4.89761651e-01, 4.89761651e-01,
          6.24803901e-02, 8.49828124e-03, 1.69355288e-01, 4.89761651e-01,
          4.49645728e-01, 3.04014862e-01, 3.94811779e-02, 2.68246029e-02,
          4.35721040e-01, 4.49645728e-01, 2.89224952e-01, 1.44074991e-01,
          4.49645728e-01, 5.04176974e-01, 7.95845166e-02, 7.49908108e-03,
          2.18509287e-01, 5.04176974e-01, 2.47444764e-01, 2.39001930e-01,
          2.44732901e-01, 5.04176974e-01, 6.21781707e-01, 4.07414913e-01,
          2.69637369e-02, 4.58574891e-01, 4.56324726e-01, 2.90670227e-02,
          4.16940600e-02, 2.59879306e-02, 1.36688322e-01, 4.78772312e-01,
          2.39665195e-01, 3.48634571e-01, 3.28752995e-01, 4.78772312e-01,
          1.18782468e-01, 4.73145396e-02, 6.43213242e-02, 4.78772312e-01,
          5.46067595e-01, 9.80347302e-03, 9.63161886e-02, 2.76694208e-01,
          5.46067595e-01, 1.16641328e-01, 1.65842753e-02, 1.28294742e-02,
          5.46067595e-01, 5.65515697e-01, 1.12867936e-01, 4.82524571e-04,
          6.62615895e-02, 5.65515697e-01, 5.65515697e-01, 1.55662075e-02,
          1.51232537e-03, 1.32493094e-01, 4.97756869e-01, 1.64108817e-02,
          4.88502113e-03, 3.40868711e-01, 4.97756869e-01, 3.47555846e-01,
          2.69575715e-02, 1.17203310e-01, 4.97756869e-01, 4.89691734e-01,
          4.64052372e-02, 1.24885246e-01, 4.89691734e-01, 4.89691734e-01,
          1.16593920e-01, 2.11904030e-02, 6.42192140e-02, 4.89691734e-01,
          4.75006163e-01, 4.17639427e-02, 4.97897901e-02, 2.77562976e-01,
          4.75006163e-01, 4.27322716e-01, 1.49327606e-01, 1.79429919e-01,
          4.75006163e-01, 4.83398259e-01, 1.80570781e-01, 2.48528365e-03,
          4.83398259e-01, 4.83398259e-01, 1.46566510e-01, 2.65131313e-02,
          7.53634721e-02, 4.83398259e-01, 4.82878596e-01, 2.39099517e-01,
          4.87903617e-02, 4.82878596e-01, 4.82878596e-01, 9.03227646e-03,
          2.40818299e-02, 4.77433763e-02, 4.82878596e-01, 4.53016371e-01,
          3.85603718e-02, 1.19169310e-01, 3.58158708e-01, 4.53016371e-01,
          4.11676973e-01, 2.00371429e-01, 1.61898166e-01, 4.53016371e-01,
          4.89761651e-01, 5.40694930e-02, 7.86224660e-03, 4.89761651e-01,
          4.89761651e-01, 6.24803901e-02, 8.49828124e-03, 1.69355288e-01,
          4.89761651e-01, 4.04885441e-01, 4.04885441e-01, 7.32712001e-02,
          3.69913995e-01, 4.04885441e-01, 1.64568320e-01, 8.37039053e-02,
          4.04885441e-01, 4.04885441e-01, 3.77789378e-01, 2.71879613e-01,
          2.38327265e-01, 9.56995860e-02, 3.77789378e-01, 3.77789378e-01,
          3.77789378e-01, 3.77789378e-01, 3.77789378e-01, 4.89761651e-01,
          5.40694930e-02, 7.86224660e-03, 4.89761651e-01, 4.89761651e-01,
          6.24803901e-02, 8.49828124e-03, 1.69355288e-01, 4.89761651e-01,
          4.04885441e-01, 4.04885441e-01, 7.32712001e-02, 3.69913995e-01,
          4.04885441e-01, 1.64568320e-01, 8.37039053e-02, 4.04885441e-01,
          4.04885441e-01, 3.77789378e-01, 2.71879613e-01, 2.38327265e-01,
          9.56995860e-02, 3.77789378e-01, 3.77789378e-01, 3.77789378e-01,
          3.77789378e-01, 3.77789378e-01, 6.21781707e-01, 4.07414913e-01,
          2.69637369e-02, 4.58574891e-01, 4.56324726e-01, 2.90670227e-02,
          4.16940600e-02, 2.59879306e-02, 1.36688322e-01, 5.80427885e-01,
          5.80427885e-01, 2.33000778e-02, 9.83313695e-02, 3.13730508e-01,
          4.38164383e-01, 8.11192542e-02, 1.12865664e-01, 2.15677693e-02,
          3.25828105e-01, 3.86765987e-01, 1.45005226e-01, 4.23997827e-02,
          1.87639281e-01, 4.12943810e-01, 4.12943810e-01, 4.12943810e-01,
          4.12943810e-01, 5.65515697e-01, 1.12867936e-01, 4.82524571e-04,
          6.62615895e-02, 5.65515697e-01, 5.65515697e-01, 1.55662075e-02,
          1.51232537e-03, 1.32493094e-01, 4.03100133e-01, 1.32677570e-01,
          1.88686838e-03, 5.60510419e-02, 6.33464575e-01, 6.33464575e-01,
          8.81540403e-02, 6.74920110e-03, 8.10496043e-03, 6.84117004e-02,
          3.33937220e-02, 1.09751523e-01, 1.61380872e-01, 2.42684707e-01,
          6.37871146e-01, 6.37871146e-01, 2.54303217e-01, 1.11453496e-01 ]
      - [ 4.42073345e-01, 8.33088830e-02, 5.45333847e-02, 2.70471692e-01,
          4.42073345e-01, 4.07650709e-01, 3.39986026e-01, 2.10852444e-01,
          4.42073345e-01, 4.75437611e-01, 2.29547709e-01, 5.71731478e-02,
          4.75437611e-01, 4.75437611e-01, 1.68775752e-01, 4.29663323e-02,
          6.92493320e-02, 4.75437611e-01, 5.30678689e-01, 2.02113651e-02,
          8.96841846e-03, 2.98345834e-01, 5.30678689e-01, 2.22982332e-01,
          3.34059410e-02, 9.74898189e-02, 5.30678689e-01, 3.78461212e-01,
          9.34157595e-02, 5.59556484e-02, 3.78461212e-01, 3.78461212e-01,
          3.53502572e-01, 3.78461212e-01, 3.78461212e-01, 3.78461212e-01,
          4.26419407e-01, 1.07745901e-01, 1.31956503e-01, 4.26419407e-01,
          4.26419407e-01, 4.26419407e-01, 1.73572257e-01, 1.65601194e-01,
          4.26419407e-01, 4.84849930e-01, 1.72934994e-01, 4.17874148e-03,
          4.84849930e-01, 4.84849930e-01, 1.39595836e-01, 2.70060822e-02,
          6.85513243e-02, 4.84849930e-01, 4.13516849e-01, 3.56156081e-01,
          7.89160933e-03, 2.26759389e-02, 3.99511278e-01, 4.13516849e-01,
          3.15096378e-01, 3.10743898e-01, 4.13516849e-01, 4.75539774e-01,
          1.60646752e-01, 2.71464288e-02, 2.19939291e-01, 4.75539774e-01,
          4.75539774e-01, 7.01268390e-02, 1.04223222e-01, 4.75539774e-01,
          4.91115779e-01, 5.71880862e-02, 8.55992548e-03, 4.91115779e-01,
          4.91115779e-01, 5.89551963e-02, 3.20951156e-02, 1.49888724e-01,
          4.91115779e-01, 4.13516849e-01, 3.56156081e-01, 7.89160933e-03,
          2.26759389e-02, 3.99511278e-01, 4.13516849e-01, 3.15096378e-01,
          3.10743898e-01, 4.13516849e-01, 4.75539774e-01, 1.60646752e-01,
          2.71464288e-02, 2.19939291e-01, 4.75539774e-01, 4.75539774e-01,
          7.01268390e-02, 1.04223222e-01, 4.75539774e-01, 4.91115779e-01,
          5.71880862e-02, 8.55992548e-03, 4.91115779e-01, 4.91115779e-01,
          5.89551963e-02, 3.20951156e-02, 1.49888724e-01, 4.91115779e-01,
          4.52280760e-01, 3.10733587e-01, 3.14061046e-02, 2.41416730e-02,
          4.25900161e-01, 4.52280760e-01, 2.85016984e-01, 1.45115286e-01,
          4.52280760e-01, 5.04718602e-01, 9.94053930e-02, 1.18598128e-02,
          2.20771298e-01, 5.04718602e-01, 2.41918713e-01, 2.08601817e-01,
          2.64452457e-01, 5.04718602e-01, 5.84063292e-01, 5.10246694e-01,
          8.61500762e-03, 4.40461069e-01, 4.21101481e-01, 2.39024833e-02,
          3.61500084e-02, 2.54347883e-02, 1.36948109e-01, 4.88847077e-01,
          2.20942065e-01, 3.47388536e-01, 2.85034329e-01, 4.88847077e-01,
          1.46897301e-01, 4.50512357e-02, 6.20959103e-02, 4.88847077e-01,
          5.44698417e-01, 1.14966445e-02, 8.98001492e-02, 2.84651190e-01,
          5.44698417e-01, 1.21908002e-01, 1.30604487e-02, 1.47153921e-02,
          5.44698417e-01, 5.61751962e-01, 1.54971614e-01, 2.27117154e-04,
          8.27275068e-02, 5.61751962e-01, 5.61751962e-01, 1.19979661e-02,
          1.09735958e-03, 1.29187077e-01, 5.30678689e-01, 2.02113651e-02,
          8.96841846e-03, 2.98345834e-01, 5.30678689e-01, 2.22982332e-01,
          3.34059410e-02, 9.74898189e-02, 5.30678689e-01, 4.88379151e-01,
          4.21613492e-02, 1.59845874e-01, 4.88379151e-01, 4.88379151e-01,
          1.00293793e-01, 2.33451165e-02, 5.59764169e-02, 4.88379151e-01,
          4.61413473e-01, 6.62342533e-02, 7.56300911e-02, 2.59636253e-01,
          4.61413473e-01, 4.61413473e-01, 1.32331207e-01, 2.20798805e-01,
          4.61413473e-01, 4.84849930e-01, 1.72934994e-01, 4.17874148e-03,
          4.84849930e-01, 4.84849930e-01, 1.39595836e-01, 2.70060822e-02,
          6.85513243e-02, 4.84849930e-01, 4.86047268e-01, 1.86643317e-01,
          1.07401893e-01, 4.86047268e-01, 4.86047268e-01, 2.24675965e-02,
          3.43831480e-02, 4.60417978e-02, 4.86047268e-01, 4.52813298e-01,
          5.64785339e-02, 1.75373271e-01, 2.64961869e-01, 4.52813298e-01,
          4.52813298e-01, 2.13324249e-01, 1.60186440e-01, 4.52813298e-01,
          4.91115779e-01, 5.71880862e-02, 8.55992548e-03, 4.91115779e-01,
          4.91115779e-01, 5.89551963e-02, 3.20951156e-02, 1.49888724e-01,
          4.91115779e-01, 4.13722724e-01, 4.13722724e-01, 1.44607216e-01,
          2.70773917e-01, 4.13722724e-01, 1.66944340e-01, 1.33919731e-01,
          4.13722724e-01, 4.13722724e-01, 3.76266867e-01, 2.55516112e-01,
          2.71332234e-01, 8.87176916e-02, 3.76266867e-01, 3.76266867e-01,
          3.76266867e-01, 3.76266867e-01, 3.76266867e-01, 4.91115779e-01,
          5.71880862e-02, 8.55992548e-03, 4.91115779e-01, 4.91115779e-01,
          5.89551963e-02, 3.20951156e-02, 1.49888724e-01, 4.91115779e-01,
          4.13722724e-01, 4.13722724e-01, 1.44607216e-01, 2.70773917e-01,
          4.13722724e-01, 1.66944340e-01, 1.33919731e-01, 4.13722724e-01,
          4.13722724e-01, 3.76266867e-01, 2.55516112e-01, 2.71332234e-01,
          8.87176916e-02, 3.76266867e-01, 3.76266867e-01, 3.76266867e-01,
          3.76266867e-01, 3.76266867e-01, 5.84063292e-01, 5.10246694e-01,
          8.61500762e-03, 4.40461069e-01, 4.21101481e-01, 2.39024833e-02,
          3.61500084e-02, 2.54347883e-02, 1.36948109e-01, 5.62368512e-01,
          5.62368512e-01, 2.55853105e-02, 6.63987473e-02, 2.92060316e-01,
          4.99203831e-01, 7.46461973e-02, 1.20691918e-01, 4.64959480e-02,
          3.09749603e-01, 3.46353948e-01, 1.72078192e-01, 4.23788987e-02,
          1.83262587e-01, 4.22752589e-01, 4.22752589e-01, 4.22752589e-01,
          4.22752589e-01, 5.61751962e-01, 1.54971614e-01, 2.27117154e-04,
          8.27275068e-02, 5.61751962e-01, 5.61751962e-01, 1.19979661e-02,
          1.09735958e-03, 1.29187077e-01, 3.64794344e-01, 1.34643734e-01,
          1.41852957e-04, 5.98349199e-02, 6.45808876e-01, 6.45808876e-01,
          6.74850643e-02, 5.67793055e-03, 6.58928091e-03, 5.76833487e-02,
          3.90776247e-02, 1.34881288e-01, 1.65466651e-01, 2.04331473e-01,
          6.39128745e-01, 6.39128745e-01, 2.67455071e-01, 1.13743126e-01 ]
      - [ 3.70066464e-01, 1.06810860e-01, 1.11612208e-01, 2.98802435e-01,
          3.97560596e-01, 3.97560596e-01, 3.97560596e-01, 3.37213278e-01,
          3.97560596e-01, 3.55930954e-01, 3.55930954e-01, 3.02045554e-01,
          3.55930954e-01, 3.55930954e-01, 3.55930954e-01, 2.69915015e-01,
          2.68769950e-01, 3.55930954e-01, 4.13260698e-01, 1.45119399e-01,
          3.32083613e-01, 4.13260698e-01, 4.13260698e-01, 4.13260698e-01,
          8.45794231e-02, 5.87945618e-02, 4.13260698e-01, 4.17907774e-01,
          1.42366722e-01, 3.45323831e-02, 2.45385796e-01, 4.17907774e-01,
          4.17907774e-01, 2.02276587e-01, 4.17907774e-01, 4.17907774e-01,
          4.45226818e-01, 2.23272890e-01, 3.11564282e-02, 4.45226818e-01,
          4.45226818e-01, 3.73770088e-01, 5.62680326e-02, 9.46217701e-02,
          4.45226818e-01, 4.85205650e-01, 1.83648005e-01, 5.26483878e-02,
          4.85205650e-01, 4.85205650e-01, 1.26081795e-01, 2.02924255e-02,
          2.54719108e-02, 4.85205650e-01, 4.07525390e-01, 4.07525390e-01,
          3.91338095e-02, 2.57598665e-02, 2.76147872e-01, 4.07525390e-01,
          4.07525390e-01, 2.95112520e-01, 4.07525390e-01, 3.90115052e-01,
          2.26076216e-01, 7.93511197e-02, 3.90115052e-01, 3.90115052e-01,
          3.90115052e-01, 3.90115052e-01, 1.59865588e-01, 3.90115052e-01,
          4.75104481e-01, 2.08411589e-01, 4.24488261e-02, 4.75104481e-01,
          4.75104481e-01, 1.78296149e-01, 3.36106755e-02, 1.19167879e-01,
          4.75104481e-01, 4.07525390e-01, 4.07525390e-01, 3.91338095e-02,
          2.57598665e-02, 2.76147872e-01, 4.07525390e-01, 4.07525390e-01,
          2.95112520e-01, 4.07525390e-01, 3.90115052e-01, 2.26076216e-01,
          7.93511197e-02, 3.90115052e-01, 3.90115052e-01, 3.90115052e-01,
          3.90115052e-01, 1.59865588e-01, 3.90115052e-01, 4.75104481e-01,
          2.08411589e-01, 4.24488261e-02, 4.75104481e-01, 4.75104481e-01,
          1.78296149e-01, 3.36106755e-02, 1.19167879e-01, 4.75104481e-01,
          4.09865618e-01, 1.82798743e-01, 3.39900255e-01, 3.53789628e-01,
          4.09865618e-01, 4.09865618e-01, 1.14443757e-01, 1.91661522e-01,
          4.09865618e-01, 4.62689936e-01, 7.34674707e-02, 1.02220237e-01,
          2.55677968e-01, 4.62689936e-01, 4.26301926e-01, 1.82034060e-01,
          2.38840982e-01, 4.62689936e-01, 4.45124537e-01, 1.07046947e-01,
          7.62981325e-02, 4.18106884e-01, 4.45124537e-01, 4.45124537e-01,
          2.07097121e-02, 1.02408655e-01, 4.45124537e-01, 4.05248702e-01,
          2.53433108e-01, 1.74195752e-01, 4.01803821e-01, 4.05248702e-01,
          4.05248702e-01, 2.37378702e-01, 1.63334295e-01, 4.05248702e-01,
          4.39319342e-01, 2.07892150e-01, 1.86464816e-01, 4.39319342e-01,
          4.39319342e-01, 2.70781964e-01, 6.34858832e-02, 2.61274189e-01,
          4.39319342e-01, 4.75888312e-01, 1.44414037e-01, 8.08559880e-02,
          4.75888312e-01, 4.75888312e-01, 2.41896167e-01, 2.27887183e-02,
          5.42390086e-02, 4.75888312e-01, 4.13260698e-01, 1.45119399e-01,
          3.32083613e-01, 4.13260698e-01, 4.13260698e-01, 4.13260698e-01,
          8.45794231e-02, 5.87945618e-02, 4.13260698e-01, 3.73381972e-01,
          2.07659617e-01, 4.99476284e-01, 4.99476284e-01, 4.99476284e-01,
          9.35855582e-02, 2.69027073e-02, 2.45500728e-02, 2.32293785e-01,
          9.18810815e-02, 1.96676180e-02, 1.11087620e-01, 4.63546664e-01,
          4.63546664e-01, 4.63546664e-01, 4.63546664e-01, 2.62159735e-01,
          2.14407772e-01, 4.85205650e-01, 1.83648005e-01, 5.26483878e-02,
          4.85205650e-01, 4.85205650e-01, 1.26081795e-01, 2.02924255e-02,
          2.54719108e-02, 4.85205650e-01, 4.67395753e-01, 2.93506563e-01,
          9.05425772e-02, 4.67395753e-01, 4.67395753e-01, 1.49696827e-01,
          4.07810062e-02, 5.54981008e-02, 4.67395753e-01, 4.15881723e-01,
          2.04231665e-01, 9.70431492e-02, 2.03194395e-01, 4.15881723e-01,
          4.15881723e-01, 1.96574405e-01, 4.15881723e-01, 4.15881723e-01,
          4.75104481e-01, 2.08411589e-01, 4.24488261e-02, 4.75104481e-01,
          4.75104481e-01, 1.78296149e-01, 3.36106755e-02, 1.19167879e-01,
          4.75104481e-01, 4.20919985e-01, 3.08164090e-01, 1.23972006e-01,
          4.20919985e-01, 4.20919985e-01, 4.20919985e-01, 1.51063040e-01,
          5.15874140e-02, 3.88954073e-01, 3.16631973e-01, 3.65234464e-01,
          3.65234464e-01, 3.65234464e-01, 3.65234464e-01, 3.65234464e-01,
          3.38771015e-01, 1.02540858e-01, 3.22232574e-01, 4.75104481e-01,
          2.08411589e-01, 4.24488261e-02, 4.75104481e-01, 4.75104481e-01,
          1.78296149e-01, 3.36106755e-02, 1.19167879e-01, 4.75104481e-01,
          4.20919985e-01, 3.08164090e-01, 1.23972006e-01, 4.20919985e-01,
          4.20919985e-01, 4.20919985e-01, 1.51063040e-01, 5.15874140e-02,
          3.88954073e-01, 3.16631973e-01, 3.65234464e-01, 3.65234464e-01,
          3.65234464e-01, 3.65234464e-01, 3.65234464e-01, 3.38771015e-01,
          1.02540858e-01, 3.22232574e-01, 4.45124537e-01, 1.07046947e-01,
          7.62981325e-02, 4.18106884e-01, 4.45124537e-01, 4.45124537e-01,
          2.07097121e-02, 1.02408655e-01, 4.45124537e-01, 4.55148548e-01,
          2.24570915e-01, 2.34467894e-01, 4.55148548e-01, 4.55148548e-01,
          2.46778145e-01, 1.10744918e-02, 1.95814110e-02, 4.55148548e-01,
          3.64195526e-01, 3.64195526e-01, 3.64195526e-01, 3.64195526e-01,
          3.64195526e-01, 2.57345349e-01, 8.03363621e-02, 3.57562184e-01,
          3.64195526e-01, 4.75888312e-01, 1.44414037e-01, 8.08559880e-02,
          4.75888312e-01, 4.75888312e-01, 2.41896167e-01, 2.27887183e-02,
          5.42390086e-02, 4.75888312e-01, 4.80341673e-01, 2.46359885e-01,
          2.30775531e-02, 4.64264929e-01, 4.80341673e-01, 9.84243155e-02,
          1.88544560e-02, 1.27308726e-01, 4.80341673e-01, 3.35895032e-01,
          4.22959536e-01, 4.22959536e-01, 2.47035265e-01, 4.22959536e-01,
          1.37161016e-01, 5.54987788e-02, 2.90603966e-01, 4.22959536e-01 ]
      - [ 3.54555190e-01, 9.08146277e-02, 7.02060461e-02, 2.40109101e-01,
          3.80030274e-01, 4.04659331e-01, 4.04659331e-01, 4.04659331e-01,
          4.04659331e-01, 3.56060803e-01, 3.56060803e-01, 2.13910565e-01,
          3.56060803e-01, 3.56060803e-01, 3.56060803e-01, 3.08627099e-01,
          3.07828665e-01, 3.56060803e-01, 4.26140547e-01, 1.58163428e-01,
          2.11924478e-01, 4.26140547e-01, 4.26140547e-01, 4.26140547e-01,
          1.18045233e-01, 6.24659322e-02, 4.26140547e-01, 4.12295103e-01,
          1.74186617e-01, 7.89937302e-02, 2.35553086e-01, 4.12295103e-01,
          4.12295103e-01, 2.32117921e-01, 4.12295103e-01, 4.12295103e-01,
          4.48198318e-01, 2.03517556e-01, 2.11529713e-02, 3.90583783e-01,
          4.48198318e-01, 4.10217047e-01, 5.62644713e-02, 1.64352372e-01,
          4.48198318e-01, 4.76472616e-01, 1.98608190e-01, 1.36351600e-01,
          4.76472616e-01, 4.76472616e-01, 1.66481137e-01, 2.83280667e-02,
          2.41038427e-02, 4.76472616e-01, 3.95152241e-01, 3.95152241e-01,
          2.75560506e-02, 4.39790934e-02, 3.83989692e-01, 3.95152241e-01,
          3.95152241e-01, 2.55312115e-01, 3.95152241e-01, 4.31405127e-01,
          2.63806015e-01, 7.42528215e-03, 3.13596934e-01, 4.31405127e-01,
          4.31405127e-01, 2.39316940e-01, 1.61198080e-01, 4.31405127e-01,
          4.74981874e-01, 1.79685980e-01, 4.63752076e-02, 4.74981874e-01,
          4.74981874e-01, 1.97195977e-01, 1.91349480e-02, 1.38327658e-01,
          4.74981874e-01, 3.95152241e-01, 3.95152241e-01, 2.75560506e-02,
          4.39790934e-02, 3.83989692e-01, 3.95152241e-01, 3.95152241e-01,
          2.55312115e-01, 3.95152241e-01, 4.31405127e-01, 2.63806015e-01,
          7.42528215e-03, 3.13596934e-01, 4.31405127e-01, 4.31405127e-01,
          2.39316940e-01, 1.61198080e-01, 4.31405127e-01, 4.74981874e-01,
          1.79685980e-01, 4.63752076e-02, 4.74981874e-01, 4.74981874e-01,
          1.97195977e-01, 1.91349480e-02, 1.38327658e-01, 4.74981874e-01,
          4.24985975e-01, 2.24163353e-01, 1.60022154e-01, 3.80475909e-01,
          4.24985975e-01, 4.24985975e-01, 8.89813900e-02, 2.11580724e-01,
          4.24985975e-01, 4.51340884e-01, 9.72254723e-02, 8.49761441e-02,
          2.89549738e-01, 4.51340884e-01, 4.51340884e-01, 1.03184320e-01,
          2.63623834e-01, 4.51340884e-01, 4.39173758e-01, 1.04167521e-01,
          3.85973454e-02, 4.36836123e-01, 4.39173758e-01, 4.39173758e-01,
          2.97917742e-02, 1.41650677e-01, 4.39173758e-01, 4.08004194e-01,
          2.51895010e-01, 9.92727652e-02, 3.91354918e-01, 4.08004194e-01,
          4.08004194e-01, 2.25284472e-01, 2.29862124e-01, 4.08004194e-01,
          4.53371257e-01, 2.62780070e-01, 1.17243908e-01, 4.53371257e-01,
          4.53371257e-01, 1.77822143e-01, 5.38881868e-02, 2.36569822e-01,
          4.53371257e-01, 4.82939392e-01, 1.50559440e-01, 4.32039388e-02,
          4.82939392e-01, 4.82939392e-01, 1.88395008e-01, 9.68232565e-03,
          4.61903214e-02, 4.82939392e-01, 4.26140547e-01, 1.58163428e-01,
          2.11924478e-01, 4.26140547e-01, 4.26140547e-01, 4.26140547e-01,
          1.18045233e-01, 6.24659322e-02, 4.26140547e-01, 4.32051450e-01,
          2.64776319e-01, 4.68085140e-01, 4.68085140e-01, 4.68085140e-01,
          5.13982475e-02, 3.02541982e-02, 6.61436934e-03, 2.78635323e-01,
          6.91822916e-02, 1.97998695e-02, 2.07142055e-01, 4.64338362e-01,
          4.64338362e-01, 4.64338362e-01, 4.64338362e-01, 1.99436739e-01,
          2.12274611e-01, 4.76472616e-01, 1.98608190e-01, 1.36351600e-01,
          4.76472616e-01, 4.76472616e-01, 1.66481137e-01, 2.83280667e-02,
          2.41038427e-02, 4.76472616e-01, 4.61413860e-01, 3.17826301e-01,
          1.22036964e-01, 4.61413860e-01, 4.61413860e-01, 1.61368996e-01,
          3.14241536e-02, 2.90878024e-02, 4.61413860e-01, 4.20630991e-01,
          8.64839852e-02, 7.82806501e-02, 2.56128222e-01, 4.20630991e-01,
          4.20630991e-01, 2.07501903e-01, 4.07198191e-01, 4.20630991e-01,
